svm_type c_svc
kernel_type rbf
gamma 0.5
nr_class 2
total_sv 1032
rho 0.6597283857712867
label 1 0
nr_sv 268 764
SV
1.0 1:1.0 2:1.0 3:0.0 4:0.0 5:0.0 6:0.0 7:0.0 8:0.0 9:0.0 10:7.0 11:1.0 12:130.0 13:171.0 
1.0 1:4.0 2:4.0 3:1.0 4:0.0 5:0.0 6:0.0 7:0.0 8:0.0 9:0.0 10:8.0 11:1.0 12:24.0 13:195.0 
1.0 1:1.0 2:1.0 3:0.0 4:0.0 5:0.0 6:1.0 7:0.0 8:0.0 9:0.0 10:4.0 11:3.0 12:269.0 13:475.0 
1.0 1:3.0 2:2.0 3:1.0 4:0.0 5:0.0 6:0.0 7:0.0 8:0.0 9:1.0 10:5.0 11:3.0 12:43.0 13:138.0 
0.20341509361066706 1:1.0 2:3.0 3:0.0 4:1.0 5:0.0 6:0.0 7:0.0 8:0.0 9:0.0 10:3.0 11:1.0 12:71.0 13:715.0 
1.0 1:1.0 2:3.0 3:0.0 4:1.0 5:0.0 6:0.0 7:0.0 8:1.0 9:0.0 10:1.0 11:1.0 12:73.0 13:394.0 
1.0 1:1.0 2:1.0 3:0.0 4:0.0 5:0.0 6:0.0 7:0.0 8:0.0 9:0.0 10:6.0 11:3.0 12:110.0 13:475.0 
1.0 1:1.0 2:3.0 3:0.0 4:1.0 5:0.0 6:0.0 7:0.0 8:0.0 9:0.0 10:8.0 11:1.0 12:64.0 13:715.0 
1.0 1:2.0 2:1.0 3:0.0 4:0.0 5:1.0 6:1.0 7:0.0 8:0.0 9:0.0 10:13.0 11:1.0 12:269.0 13:475.0 
1.0 1:3.0 2:1.0 3:0.0 4:0.0 5:0.0 6:1.0 7:0.0 8:0.0 9:0.0 10:17.0 11:5.0 12:269.0 13:475.0 
1.0 1:2.0 2:1.0 3:0.0 4:0.0 5:1.0 6:1.0 7:0.0 8:0.0 9:0.0 10:22.0 11:1.0 12:149.0 13:374.0 
1.0 1:3.0 2:1.0 3:0.0 4:0.0 5:0.0 6:1.0 7:0.0 8:0.0 9:0.0 10:26.0 11:5.0 12:85.0 13:248.0 
1.0 1:2.0 2:1.0 3:1.0 4:0.0 5:0.0 6:0.0 7:0.0 8:0.0 9:0.0 10:6.0 11:3.0 12:1.0 13:4.0 
1.0 1:2.0 2:2.0 3:1.0 4:0.0 5:0.0 6:0.0 7:0.0 8:0.0 9:0.0 10:12.0 11:2.0 12:3.0 13:138.0 
1.0 1:2.0 2:1.0 3:0.0 4:0.0 5:0.0 6:0.0 7:0.0 8:0.0 9:0.0 10:14.0 11:1.0 12:1.0 13:2.0 
1.0 1:1.0 2:1.0 3:0.0 4:0.0 5:0.0 6:0.0 7:1.0 8:0.0 9:0.0 10:49.0 11:1.0 12:18.0 13:79.0 
1.0 1:1.0 2:1.0 3:0.0 4:0.0 5:0.0 6:1.0 7:0.0 8:0.0 9:0.0 10:11.0 11:1.0 12:4.0 13:17.0 
1.0 1:4.0 2:4.0 3:0.0 4:0.0 5:1.0 6:0.0 7:0.0 8:0.0 9:0.0 10:41.0 11:1.0 12:3.0 13:11.0 
1.0 1:1.0 2:1.0 3:0.0 4:0.0 5:0.0 6:0.0 7:0.0 8:0.0 9:0.0 10:25.0 11:3.0 12:25.0 13:91.0 
1.0 1:1.0 2:1.0 3:0.0 4:0.0 5:1.0 6:0.0 7:1.0 8:0.0 9:0.0 10:40.0 11:2.0 12:60.0 13:278.0 
1.0 1:1.0 2:1.0 3:0.0 4:0.0 5:0.0 6:0.0 7:0.0 8:0.0 9:0.0 10:7.0 11:2.0 12:2.0 13:169.0 
1.0 1:1.0 2:3.0 3:0.0 4:1.0 5:0.0 6:0.0 7:0.0 8:0.0 9:0.0 10:22.0 11:1.0 12:73.0 13:394.0 
1.0 1:2.0 2:2.0 3:1.0 4:0.0 5:0.0 6:0.0 7:0.0 8:0.0 9:0.0 10:8.0 11:3.0 12:5.0 13:46.0 
1.0 1:2.0 2:2.0 3:1.0 4:0.0 5:0.0 6:0.0 7:0.0 8:0.0 9:0.0 10:15.0 11:2.0 12:1.0 13:2.0 
1.0 1:1.0 2:1.0 3:0.0 4:0.0 5:0.0 6:0.0 7:0.0 8:0.0 9:0.0 10:19.0 11:1.0 12:18.0 13:79.0 
1.0 1:4.0 2:4.0 3:0.0 4:0.0 5:0.0 6:0.0 7:0.0 8:0.0 9:0.0 10:27.0 11:1.0 12:1.0 13:1.0 
1.0 1:1.0 2:1.0 3:0.0 4:0.0 5:0.0 6:1.0 7:0.0 8:0.0 9:0.0 10:26.0 11:1.0 12:2.0 13:22.0 
1.0 1:1.0 2:3.0 3:0.0 4:1.0 5:0.0 6:0.0 7:0.0 8:0.0 9:0.0 10:7.0 11:1.0 12:73.0 13:394.0 
1.0 1:13.0 2:8.0 3:0.0 4:0.0 5:0.0 6:0.0 7:0.0 8:0.0 9:0.0 10:5.0 11:1.0 12:4.0 13:6.0 
1.0 1:1.0 2:1.0 3:0.0 4:0.0 5:0.0 6:1.0 7:0.0 8:0.0 9:0.0 10:7.0 11:1.0 12:3.0 13:9.0 
1.0 1:2.0 2:3.0 3:0.0 4:1.0 5:1.0 6:0.0 7:0.0 8:0.0 9:0.0 10:10.0 11:2.0 12:0.0 13:715.0 
1.0 1:1.0 2:1.0 3:0.0 4:0.0 5:1.0 6:0.0 7:0.0 8:0.0 9:0.0 10:4.0 11:1.0 12:182.0 13:278.0 
1.0 1:18.0 2:1.0 3:0.0 4:0.0 5:0.0 6:0.0 7:1.0 8:0.0 9:0.0 10:21.0 11:2.0 12:1.0 13:57.0 
1.0 1:12.0 2:1.0 3:0.0 4:0.0 5:1.0 6:0.0 7:0.0 8:0.0 9:0.0 10:4.0 11:3.0 12:4.0 13:9.0 
1.0 1:20.0 2:1.0 3:0.0 4:0.0 5:0.0 6:1.0 7:0.0 8:0.0 9:0.0 10:15.0 11:2.0 12:1.0 13:228.0 
1.0 1:14.0 2:1.0 3:0.0 4:0.0 5:0.0 6:0.0 7:0.0 8:0.0 9:0.0 10:10.0 11:1.0 12:0.0 13:3.0 
1.0 1:1.0 2:1.0 3:1.0 4:0.0 5:0.0 6:0.0 7:0.0 8:0.0 9:0.0 10:17.0 11:1.0 12:16.0 13:96.0 
1.0 1:4.0 2:4.0 3:0.0 4:0.0 5:0.0 6:0.0 7:0.0 8:0.0 9:0.0 10:21.0 11:1.0 12:1.0 13:1.0 
1.0 1:14.0 2:2.0 3:1.0 4:0.0 5:0.0 6:0.0 7:0.0 8:0.0 9:0.0 10:4.0 11:1.0 12:3.0 13:69.0 
1.0 1:5.0 2:1.0 3:1.0 4:0.0 5:0.0 6:0.0 7:0.0 8:0.0 9:0.0 10:22.0 11:6.0 12:1.0 13:1.0 
1.0 1:2.0 2:1.0 3:0.0 4:0.0 5:0.0 6:1.0 7:0.0 8:0.0 9:0.0 10:7.0 11:6.0 12:2.0 13:475.0 
1.0 1:2.0 2:1.0 3:0.0 4:0.0 5:0.0 6:1.0 7:0.0 8:0.0 9:0.0 10:7.0 11:1.0 12:3.0 13:475.0 
1.0 1:4.0 2:4.0 3:0.0 4:0.0 5:0.0 6:1.0 7:0.0 8:0.0 9:0.0 10:5.0 11:1.0 12:1.0 13:5.0 
1.0 1:2.0 2:1.0 3:0.0 4:0.0 5:0.0 6:0.0 7:0.0 8:0.0 9:0.0 10:5.0 11:2.0 12:1.0 13:5.0 
1.0 1:7.0 2:4.0 3:0.0 4:0.0 5:0.0 6:0.0 7:0.0 8:0.0 9:0.0 10:12.0 11:2.0 12:1.0 13:12.0 
1.0 1:2.0 2:2.0 3:1.0 4:0.0 5:0.0 6:0.0 7:0.0 8:0.0 9:0.0 10:10.0 11:8.0 12:5.0 13:138.0 
1.0 1:2.0 2:1.0 3:1.0 4:0.0 5:1.0 6:0.0 7:1.0 8:0.0 9:0.0 10:8.0 11:1.0 12:3.0 13:3.0 
1.0 1:1.0 2:1.0 3:0.0 4:0.0 5:0.0 6:0.0 7:1.0 8:0.0 9:0.0 10:13.0 11:1.0 12:1.0 13:3.0 
1.0 1:1.0 2:1.0 3:0.0 4:0.0 5:0.0 6:1.0 7:0.0 8:0.0 9:0.0 10:26.0 11:1.0 12:1.0 13:18.0 
1.0 1:2.0 2:1.0 3:0.0 4:0.0 5:1.0 6:0.0 7:0.0 8:0.0 9:0.0 10:4.0 11:1.0 12:1.0 13:1.0 
0.44274218265013526 1:2.0 2:2.0 3:1.0 4:0.0 5:0.0 6:0.0 7:0.0 8:0.0 9:0.0 10:9.0 11:2.0 12:43.0 13:138.0 
1.0 1:20.0 2:2.0 3:1.0 4:0.0 5:0.0 6:0.0 7:0.0 8:0.0 9:0.0 10:27.0 11:1.0 12:0.0 13:69.0 
1.0 1:1.0 2:1.0 3:0.0 4:0.0 5:1.0 6:0.0 7:0.0 8:0.0 9:0.0 10:8.0 11:1.0 12:69.0 13:483.0 
1.0 1:2.0 2:2.0 3:1.0 4:0.0 5:0.0 6:0.0 7:0.0 8:0.0 9:0.0 10:8.0 11:4.0 12:3.0 13:69.0 
1.0 1:3.0 2:2.0 3:1.0 4:0.0 5:0.0 6:0.0 7:0.0 8:0.0 9:0.0 10:26.0 11:3.0 12:34.0 13:138.0 
1.0 1:14.0 2:2.0 3:1.0 4:0.0 5:0.0 6:0.0 7:0.0 8:0.0 9:0.0 10:2.0 11:1.0 12:23.0 13:69.0 
1.0 1:14.0 2:2.0 3:1.0 4:0.0 5:0.0 6:0.0 7:0.0 8:0.0 9:0.0 10:5.0 11:1.0 12:6.0 13:54.0 
1.0 1:2.0 2:2.0 3:1.0 4:0.0 5:0.0 6:0.0 7:0.0 8:0.0 9:0.0 10:8.0 11:1.0 12:34.0 13:138.0 
1.0 1:1.0 2:1.0 3:0.0 4:0.0 5:1.0 6:0.0 7:0.0 8:0.0 9:0.0 10:8.0 11:1.0 12:3.0 13:9.0 
1.0 1:22.0 2:1.0 3:1.0 4:0.0 5:0.0 6:0.0 7:0.0 8:1.0 9:0.0 10:1.0 11:4.0 12:37.0 13:96.0 
1.0 1:1.0 2:1.0 3:0.0 4:0.0 5:1.0 6:0.0 7:0.0 8:0.0 9:0.0 10:18.0 11:1.0 12:182.0 13:278.0 
1.0 1:1.0 2:1.0 3:0.0 4:0.0 5:0.0 6:1.0 7:0.0 8:0.0 9:0.0 10:9.0 11:1.0 12:45.0 13:181.0 
1.0 1:1.0 2:1.0 3:0.0 4:0.0 5:0.0 6:1.0 7:0.0 8:0.0 9:0.0 10:14.0 11:1.0 12:11.0 13:13.0 
1.0 1:1.0 2:1.0 3:0.0 4:0.0 5:1.0 6:0.0 7:0.0 8:0.0 9:0.0 10:3.0 11:4.0 12:33.0 13:405.0 
1.0 1:2.0 2:1.0 3:0.0 4:0.0 5:0.0 6:1.0 7:0.0 8:0.0 9:0.0 10:3.0 11:2.0 12:17.0 13:76.0 
0.38874330688752556 1:1.0 2:1.0 3:0.0 4:0.0 5:1.0 6:0.0 7:0.0 8:0.0 9:0.0 10:4.0 11:1.0 12:124.0 13:248.0 
1.0 1:1.0 2:1.0 3:1.0 4:0.0 5:0.0 6:0.0 7:0.0 8:0.0 9:0.0 10:8.0 11:2.0 12:43.0 13:138.0 
0.4323323592542871 1:1.0 2:3.0 3:0.0 4:1.0 5:0.0 6:0.0 7:0.0 8:0.0 9:0.0 10:2.0 11:1.0 12:71.0 13:715.0 
0.6848785297672597 1:1.0 2:3.0 3:0.0 4:1.0 5:0.0 6:0.0 7:0.0 8:0.0 9:0.0 10:10.0 11:1.0 12:71.0 13:715.0 
1.0 1:1.0 2:1.0 3:1.0 4:0.0 5:1.0 6:0.0 7:0.0 8:0.0 9:0.0 10:2.0 11:3.0 12:1.0 13:1.0 
1.0 1:2.0 2:1.0 3:0.0 4:0.0 5:1.0 6:0.0 7:0.0 8:0.0 9:0.0 10:17.0 11:2.0 12:1.0 13:88.0 
1.0 1:1.0 2:3.0 3:0.0 4:1.0 5:0.0 6:0.0 7:0.0 8:0.0 9:1.0 10:18.0 11:1.0 12:3.0 13:313.0 
1.0 1:4.0 2:4.0 3:0.0 4:0.0 5:0.0 6:0.0 7:0.0 8:0.0 9:0.0 10:2.0 11:1.0 12:3.0 13:214.0 
1.0 1:11.0 2:2.0 3:1.0 4:0.0 5:0.0 6:0.0 7:0.0 8:0.0 9:0.0 10:13.0 11:1.0 12:1.0 13:11.0 
0.8359763380412806 1:2.0 2:2.0 3:1.0 4:0.0 5:0.0 6:0.0 7:0.0 8:0.0 9:0.0 10:4.0 11:2.0 12:23.0 13:69.0 
1.0 1:2.0 2:2.0 3:0.0 4:0.0 5:0.0 6:0.0 7:0.0 8:0.0 9:0.0 10:8.0 11:2.0 12:13.0 13:116.0 
1.0 1:4.0 2:4.0 3:1.0 4:0.0 5:0.0 6:0.0 7:0.0 8:0.0 9:0.0 10:20.0 11:2.0 12:8.0 13:44.0 
1.0 1:1.0 2:1.0 3:1.0 4:0.0 5:0.0 6:0.0 7:0.0 8:0.0 9:0.0 10:24.0 11:1.0 12:1.0 13:15.0 
1.0 1:1.0 2:1.0 3:0.0 4:0.0 5:0.0 6:0.0 7:0.0 8:0.0 9:0.0 10:8.0 11:3.0 12:1.0 13:21.0 
1.0 1:4.0 2:4.0 3:1.0 4:0.0 5:0.0 6:0.0 7:0.0 8:0.0 9:0.0 10:4.0 11:2.0 12:1.0 13:113.0 
1.0 1:1.0 2:1.0 3:0.0 4:0.0 5:0.0 6:0.0 7:0.0 8:0.0 9:0.0 10:4.0 11:1.0 12:149.0 13:374.0 
1.0 1:23.0 2:12.0 3:1.0 4:0.0 5:0.0 6:0.0 7:0.0 8:0.0 9:0.0 10:2.0 11:1.0 12:4.0 13:36.0 
0.3806755910265302 1:2.0 2:2.0 3:1.0 4:0.0 5:0.0 6:0.0 7:0.0 8:0.0 9:0.0 10:2.0 11:1.0 12:23.0 13:69.0 
1.0 1:11.0 2:2.0 3:1.0 4:0.0 5:0.0 6:0.0 7:0.0 8:0.0 9:0.0 10:22.0 11:2.0 12:2.0 13:69.0 
1.0 1:2.0 2:1.0 3:0.0 4:0.0 5:0.0 6:0.0 7:0.0 8:0.0 9:0.0 10:7.0 11:1.0 12:1.0 13:9.0 
1.0 1:2.0 2:1.0 3:0.0 4:0.0 5:0.0 6:1.0 7:0.0 8:0.0 9:0.0 10:22.0 11:1.0 12:29.0 13:130.0 
1.0 1:1.0 2:1.0 3:0.0 4:0.0 5:0.0 6:1.0 7:0.0 8:0.0 9:0.0 10:12.0 11:1.0 12:19.0 13:88.0 
1.0 1:1.0 2:3.0 3:0.0 4:1.0 5:0.0 6:0.0 7:0.0 8:0.0 9:0.0 10:2.0 11:1.0 12:32.0 13:313.0 
1.0 1:1.0 2:1.0 3:0.0 4:0.0 5:0.0 6:0.0 7:0.0 8:0.0 9:0.0 10:24.0 11:6.0 12:5.0 13:27.0 
1.0 1:2.0 2:1.0 3:0.0 4:0.0 5:0.0 6:0.0 7:0.0 8:0.0 9:0.0 10:27.0 11:2.0 12:1.0 13:3.0 
1.0 1:2.0 2:2.0 3:1.0 4:0.0 5:0.0 6:0.0 7:0.0 8:0.0 9:0.0 10:8.0 11:3.0 12:3.0 13:11.0 
0.8429378894882142 1:4.0 2:4.0 3:1.0 4:0.0 5:0.0 6:0.0 7:0.0 8:0.0 9:0.0 10:4.0 11:1.0 12:41.0 13:113.0 
1.0 1:2.0 2:1.0 3:0.0 4:0.0 5:0.0 6:1.0 7:0.0 8:0.0 9:0.0 10:7.0 11:3.0 12:2.0 13:14.0 
1.0 1:1.0 2:3.0 3:0.0 4:1.0 5:0.0 6:0.0 7:0.0 8:0.0 9:0.0 10:20.0 11:1.0 12:39.0 13:394.0 
1.0 1:2.0 2:1.0 3:0.0 4:0.0 5:0.0 6:0.0 7:0.0 8:0.0 9:0.0 10:7.0 11:3.0 12:2.0 13:3.0 
1.0 1:2.0 2:2.0 3:1.0 4:0.0 5:0.0 6:0.0 7:0.0 8:0.0 9:0.0 10:5.0 11:2.0 12:6.0 13:13.0 
1.0 1:7.0 2:4.0 3:1.0 4:0.0 5:0.0 6:0.0 7:0.0 8:0.0 9:0.0 10:15.0 11:2.0 12:2.0 13:5.0 
1.0 1:1.0 2:1.0 3:0.0 4:0.0 5:1.0 6:0.0 7:0.0 8:0.0 9:0.0 10:6.0 11:1.0 12:124.0 13:248.0 
1.0 1:2.0 2:2.0 3:1.0 4:0.0 5:0.0 6:0.0 7:0.0 8:0.0 9:0.0 10:7.0 11:4.0 12:43.0 13:138.0 
1.0 1:2.0 2:2.0 3:1.0 4:0.0 5:0.0 6:0.0 7:0.0 8:0.0 9:0.0 10:2.0 11:1.0 12:1.0 13:138.0 
1.0 1:1.0 2:4.0 3:1.0 4:0.0 5:0.0 6:0.0 7:0.0 8:0.0 9:0.0 10:11.0 11:2.0 12:1.0 13:17.0 
0.749861972826618 1:1.0 2:1.0 3:0.0 4:0.0 5:0.0 6:1.0 7:0.0 8:0.0 9:0.0 10:8.0 11:3.0 12:85.0 13:248.0 
1.0 1:14.0 2:1.0 3:0.0 4:0.0 5:0.0 6:0.0 7:0.0 8:0.0 9:0.0 10:4.0 11:3.0 12:2.0 13:128.0 
1.0 1:1.0 2:3.0 3:0.0 4:1.0 5:0.0 6:0.0 7:0.0 8:0.0 9:0.0 10:15.0 11:1.0 12:71.0 13:715.0 
1.0 1:1.0 2:1.0 3:0.0 4:0.0 5:0.0 6:0.0 7:0.0 8:0.0 9:0.0 10:2.0 11:3.0 12:19.0 13:38.0 
1.0 1:1.0 2:1.0 3:0.0 4:0.0 5:0.0 6:1.0 7:0.0 8:1.0 9:0.0 10:1.0 11:1.0 12:269.0 13:475.0 
1.0 1:2.0 2:2.0 3:1.0 4:0.0 5:0.0 6:0.0 7:0.0 8:0.0 9:0.0 10:3.0 11:2.0 12:1.0 13:69.0 
1.0 1:1.0 2:1.0 3:0.0 4:0.0 5:1.0 6:0.0 7:0.0 8:0.0 9:0.0 10:5.0 11:1.0 12:73.0 13:278.0 
1.0 1:2.0 2:1.0 3:1.0 4:0.0 5:0.0 6:0.0 7:0.0 8:0.0 9:0.0 10:6.0 11:2.0 12:3.0 13:34.0 
1.0 1:1.0 2:3.0 3:0.0 4:1.0 5:0.0 6:0.0 7:0.0 8:0.0 9:0.0 10:8.0 11:1.0 12:39.0 13:394.0 
1.0 1:25.0 2:9.0 3:0.0 4:1.0 5:0.0 6:0.0 7:0.0 8:0.0 9:0.0 10:11.0 11:1.0 12:18.0 13:715.0 
1.0 1:1.0 2:4.0 3:1.0 4:0.0 5:0.0 6:0.0 7:0.0 8:0.0 9:0.0 10:10.0 11:5.0 12:1.0 13:8.0 
1.0 1:2.0 2:2.0 3:1.0 4:0.0 5:0.0 6:0.0 7:0.0 8:0.0 9:0.0 10:12.0 11:5.0 12:3.0 13:69.0 
1.0 1:2.0 2:2.0 3:1.0 4:0.0 5:0.0 6:0.0 7:0.0 8:0.0 9:0.0 10:6.0 11:3.0 12:11.0 13:138.0 
1.0 1:1.0 2:1.0 3:0.0 4:0.0 5:1.0 6:0.0 7:0.0 8:0.0 9:0.0 10:4.0 11:1.0 12:124.0 13:248.0 
1.0 1:2.0 2:2.0 3:1.0 4:0.0 5:0.0 6:0.0 7:0.0 8:0.0 9:0.0 10:2.0 11:1.0 12:43.0 13:138.0 
1.0 1:2.0 2:2.0 3:1.0 4:0.0 5:0.0 6:0.0 7:0.0 8:0.0 9:0.0 10:5.0 11:1.0 12:23.0 13:69.0 
1.0 1:2.0 2:2.0 3:1.0 4:0.0 5:0.0 6:0.0 7:0.0 8:0.0 9:0.0 10:9.0 11:2.0 12:1.0 13:39.0 
1.0 1:1.0 2:1.0 3:0.0 4:0.0 5:0.0 6:0.0 7:0.0 8:0.0 9:0.0 10:14.0 11:1.0 12:1.0 13:8.0 
1.0 1:1.0 2:4.0 3:0.0 4:1.0 5:0.0 6:0.0 7:0.0 8:0.0 9:0.0 10:10.0 11:1.0 12:39.0 13:394.0 
1.0 1:4.0 2:4.0 3:0.0 4:0.0 5:0.0 6:0.0 7:0.0 8:0.0 9:0.0 10:19.0 11:1.0 12:41.0 13:113.0 
1.0 1:4.0 2:4.0 3:0.0 4:0.0 5:0.0 6:0.0 7:0.0 8:0.0 9:0.0 10:13.0 11:1.0 12:41.0 13:113.0 
1.0 1:23.0 2:12.0 3:1.0 4:0.0 5:0.0 6:0.0 7:0.0 8:1.0 9:0.0 10:1.0 11:1.0 12:13.0 13:36.0 
1.0 1:1.0 2:1.0 3:1.0 4:0.0 5:0.0 6:0.0 7:0.0 8:0.0 9:0.0 10:11.0 11:1.0 12:19.0 13:38.0 
1.0 1:1.0 2:1.0 3:0.0 4:0.0 5:0.0 6:1.0 7:0.0 8:0.0 9:0.0 10:9.0 11:3.0 12:4.0 13:374.0 
1.0 1:1.0 2:1.0 3:0.0 4:0.0 5:1.0 6:0.0 7:0.0 8:0.0 9:0.0 10:9.0 11:1.0 12:41.0 13:300.0 
1.0 1:1.0 2:1.0 3:0.0 4:0.0 5:0.0 6:0.0 7:0.0 8:0.0 9:0.0 10:4.0 11:3.0 12:1.0 13:30.0 
1.0 1:1.0 2:1.0 3:1.0 4:0.0 5:0.0 6:0.0 7:0.0 8:0.0 9:0.0 10:27.0 11:1.0 12:5.0 13:26.0 
1.0 1:2.0 2:1.0 3:0.0 4:0.0 5:0.0 6:1.0 7:0.0 8:0.0 9:1.0 10:8.0 11:5.0 12:0.0 13:5.0 
1.0 1:2.0 2:3.0 3:0.0 4:1.0 5:0.0 6:0.0 7:0.0 8:0.0 9:0.0 10:12.0 11:2.0 12:5.0 13:715.0 
1.0 1:1.0 2:1.0 3:0.0 4:0.0 5:1.0 6:0.0 7:0.0 8:0.0 9:0.0 10:4.0 11:3.0 12:60.0 13:278.0 
1.0 1:1.0 2:1.0 3:1.0 4:0.0 5:0.0 6:0.0 7:0.0 8:0.0 9:0.0 10:2.0 11:2.0 12:7.0 13:38.0 
1.0 1:4.0 2:4.0 3:1.0 4:0.0 5:0.0 6:0.0 7:0.0 8:0.0 9:0.0 10:8.0 11:1.0 12:41.0 13:113.0 
1.0 1:12.0 2:1.0 3:0.0 4:0.0 5:1.0 6:0.0 7:0.0 8:0.0 9:0.0 10:4.0 11:8.0 12:1.0 13:24.0 
1.0 1:1.0 2:1.0 3:0.0 4:0.0 5:1.0 6:0.0 7:0.0 8:0.0 9:0.0 10:2.0 11:1.0 12:124.0 13:248.0 
1.0 1:23.0 2:12.0 3:1.0 4:0.0 5:0.0 6:0.0 7:0.0 8:0.0 9:0.0 10:3.0 11:1.0 12:1.0 13:34.0 
1.0 1:1.0 2:1.0 3:0.0 4:0.0 5:1.0 6:0.0 7:0.0 8:0.0 9:0.0 10:2.0 11:1.0 12:182.0 13:278.0 
1.0 1:2.0 2:1.0 3:0.0 4:1.0 5:0.0 6:0.0 7:0.0 8:0.0 9:0.0 10:37.0 11:2.0 12:71.0 13:715.0 
1.0 1:1.0 2:1.0 3:0.0 4:0.0 5:0.0 6:1.0 7:0.0 8:0.0 9:0.0 10:43.0 11:1.0 12:269.0 13:475.0 
1.0 1:2.0 2:1.0 3:1.0 4:0.0 5:0.0 6:0.0 7:0.0 8:0.0 9:0.0 10:18.0 11:1.0 12:2.0 13:2.0 
1.0 1:2.0 2:1.0 3:0.0 4:0.0 5:1.0 6:0.0 7:0.0 8:0.0 9:0.0 10:33.0 11:2.0 12:1.0 13:3.0 
1.0 1:4.0 2:4.0 3:1.0 4:0.0 5:0.0 6:0.0 7:0.0 8:0.0 9:0.0 10:7.0 11:1.0 12:41.0 13:113.0 
1.0 1:5.0 2:1.0 3:0.0 4:0.0 5:0.0 6:1.0 7:0.0 8:0.0 9:0.0 10:19.0 11:7.0 12:1.0 13:9.0 
1.0 1:2.0 2:1.0 3:0.0 4:0.0 5:0.0 6:1.0 7:0.0 8:0.0 9:0.0 10:3.0 11:2.0 12:0.0 13:830.0 
1.0 1:2.0 2:2.0 3:0.0 4:0.0 5:0.0 6:0.0 7:0.0 8:0.0 9:0.0 10:15.0 11:2.0 12:4.0 13:55.0 
1.0 1:2.0 2:2.0 3:1.0 4:0.0 5:0.0 6:0.0 7:0.0 8:0.0 9:0.0 10:19.0 11:2.0 12:23.0 13:69.0 
0.9097983122851975 1:1.0 2:1.0 3:0.0 4:0.0 5:0.0 6:1.0 7:0.0 8:0.0 9:0.0 10:8.0 11:3.0 12:85.0 13:248.0 
1.0 1:1.0 2:1.0 3:0.0 4:0.0 5:0.0 6:0.0 7:1.0 8:0.0 9:0.0 10:10.0 11:5.0 12:7.0 13:60.0 
1.0 1:1.0 2:1.0 3:0.0 4:0.0 5:0.0 6:0.0 7:1.0 8:0.0 9:0.0 10:25.0 11:1.0 12:73.0 13:278.0 
1.0 1:1.0 2:1.0 3:0.0 4:0.0 5:0.0 6:1.0 7:0.0 8:0.0 9:0.0 10:42.0 11:1.0 12:149.0 13:374.0 
1.0 1:1.0 2:3.0 3:0.0 4:1.0 5:0.0 6:0.0 7:0.0 8:0.0 9:0.0 10:3.0 11:1.0 12:73.0 13:394.0 
1.0 1:1.0 2:1.0 3:0.0 4:0.0 5:0.0 6:1.0 7:0.0 8:0.0 9:0.0 10:10.0 11:1.0 12:73.0 13:278.0 
1.0 1:2.0 2:2.0 3:1.0 4:0.0 5:0.0 6:0.0 7:0.0 8:0.0 9:0.0 10:3.0 11:2.0 12:11.0 13:54.0 
1.0 1:7.0 2:12.0 3:1.0 4:0.0 5:0.0 6:0.0 7:0.0 8:0.0 9:0.0 10:11.0 11:2.0 12:1.0 13:3.0 
1.0 1:1.0 2:1.0 3:0.0 4:0.0 5:0.0 6:0.0 7:0.0 8:0.0 9:0.0 10:10.0 11:8.0 12:1.0 13:2.0 
1.0 1:2.0 2:2.0 3:1.0 4:0.0 5:0.0 6:0.0 7:0.0 8:0.0 9:0.0 10:3.0 11:2.0 12:4.0 13:44.0 
1.0 1:1.0 2:1.0 3:0.0 4:0.0 5:1.0 6:0.0 7:0.0 8:0.0 9:0.0 10:5.0 11:1.0 12:130.0 13:171.0 
1.0 1:2.0 2:4.0 3:1.0 4:0.0 5:0.0 6:0.0 7:0.0 8:0.0 9:0.0 10:9.0 11:4.0 12:1.0 13:15.0 
1.0 1:2.0 2:1.0 3:0.0 4:0.0 5:0.0 6:0.0 7:0.0 8:0.0 9:0.0 10:7.0 11:3.0 12:2.0 13:3.0 
1.0 1:11.0 2:1.0 3:0.0 4:0.0 5:1.0 6:0.0 7:0.0 8:0.0 9:0.0 10:19.0 11:2.0 12:14.0 13:73.0 
1.0 1:2.0 2:1.0 3:0.0 4:0.0 5:0.0 6:1.0 7:0.0 8:0.0 9:0.0 10:8.0 11:2.0 12:25.0 13:517.0 
1.0 1:1.0 2:1.0 3:0.0 4:0.0 5:1.0 6:0.0 7:0.0 8:0.0 9:0.0 10:9.0 11:1.0 12:182.0 13:278.0 
1.0 1:1.0 2:1.0 3:0.0 4:0.0 5:0.0 6:0.0 7:0.0 8:0.0 9:0.0 10:13.0 11:2.0 12:1.0 13:114.0 
1.0 1:4.0 2:4.0 3:1.0 4:0.0 5:0.0 6:0.0 7:0.0 8:0.0 9:0.0 10:5.0 11:1.0 12:1.0 13:1.0 
1.0 1:1.0 2:1.0 3:0.0 4:0.0 5:0.0 6:0.0 7:0.0 8:0.0 9:0.0 10:8.0 11:2.0 12:13.0 13:280.0 
1.0 1:2.0 2:2.0 3:1.0 4:0.0 5:0.0 6:0.0 7:0.0 8:0.0 9:0.0 10:7.0 11:4.0 12:2.0 13:39.0 
1.0 1:1.0 2:1.0 3:1.0 4:0.0 5:0.0 6:0.0 7:0.0 8:0.0 9:0.0 10:16.0 11:2.0 12:1.0 13:26.0 
1.0 1:4.0 2:4.0 3:0.0 4:1.0 5:0.0 6:0.0 7:0.0 8:0.0 9:0.0 10:51.0 11:1.0 12:18.0 13:198.0 
1.0 1:14.0 2:9.0 3:0.0 4:1.0 5:0.0 6:0.0 7:0.0 8:0.0 9:0.0 10:76.0 11:1.0 12:5.0 13:86.0 
1.0 1:4.0 2:4.0 3:1.0 4:0.0 5:0.0 6:0.0 7:0.0 8:0.0 9:0.0 10:60.0 11:1.0 12:24.0 13:195.0 
1.0 1:2.0 2:2.0 3:1.0 4:0.0 5:0.0 6:0.0 7:0.0 8:0.0 9:0.0 10:72.0 11:2.0 12:0.0 13:26.0 
1.0 1:22.0 2:3.0 3:0.0 4:1.0 5:0.0 6:0.0 7:0.0 8:0.0 9:1.0 10:4.0 11:2.0 12:9.0 13:313.0 
1.0 1:1.0 2:1.0 3:0.0 4:0.0 5:1.0 6:0.0 7:1.0 8:0.0 9:0.0 10:4.0 11:3.0 12:12.0 13:278.0 
1.0 1:4.0 2:4.0 3:0.0 4:0.0 5:0.0 6:0.0 7:0.0 8:0.0 9:0.0 10:19.0 11:2.0 12:6.0 13:44.0 
1.0 1:4.0 2:4.0 3:1.0 4:0.0 5:0.0 6:0.0 7:0.0 8:0.0 9:0.0 10:20.0 11:1.0 12:11.0 13:113.0 
1.0 1:4.0 2:4.0 3:0.0 4:0.0 5:0.0 6:0.0 7:0.0 8:0.0 9:0.0 10:34.0 11:1.0 12:6.0 13:44.0 
1.0 1:4.0 2:4.0 3:1.0 4:0.0 5:0.0 6:0.0 7:0.0 8:0.0 9:0.0 10:38.0 11:1.0 12:11.0 13:113.0 
1.0 1:2.0 2:1.0 3:0.0 4:0.0 5:0.0 6:0.0 7:1.0 8:0.0 9:0.0 10:25.0 11:1.0 12:19.0 13:88.0 
1.0 1:1.0 2:3.0 3:0.0 4:1.0 5:0.0 6:0.0 7:0.0 8:0.0 9:0.0 10:10.0 11:1.0 12:73.0 13:394.0 
0.968623036998445 1:1.0 2:3.0 3:0.0 4:1.0 5:0.0 6:0.0 7:0.0 8:0.0 9:0.0 10:2.0 11:1.0 12:71.0 13:715.0 
1.0 1:1.0 2:1.0 3:1.0 4:0.0 5:0.0 6:0.0 7:0.0 8:0.0 9:0.0 10:4.0 11:1.0 12:11.0 13:70.0 
1.0 1:2.0 2:1.0 3:0.0 4:0.0 5:0.0 6:0.0 7:0.0 8:0.0 9:0.0 10:4.0 11:1.0 12:11.0 13:71.0 
1.0 1:14.0 2:1.0 3:0.0 4:0.0 5:0.0 6:0.0 7:0.0 8:0.0 9:0.0 10:11.0 11:1.0 12:3.0 13:71.0 
1.0 1:1.0 2:1.0 3:1.0 4:0.0 5:0.0 6:0.0 7:0.0 8:0.0 9:0.0 10:9.0 11:4.0 12:5.0 13:26.0 
1.0 1:4.0 2:4.0 3:1.0 4:0.0 5:0.0 6:0.0 7:0.0 8:0.0 9:0.0 10:2.0 11:1.0 12:2.0 13:5.0 
1.0 1:4.0 2:4.0 3:0.0 4:0.0 5:0.0 6:0.0 7:0.0 8:0.0 9:0.0 10:8.0 11:1.0 12:7.0 13:17.0 
1.0 1:11.0 2:1.0 3:0.0 4:0.0 5:0.0 6:1.0 7:0.0 8:0.0 9:0.0 10:7.0 11:2.0 12:91.0 13:475.0 
1.0 1:2.0 2:1.0 3:0.0 4:0.0 5:0.0 6:1.0 7:0.0 8:0.0 9:0.0 10:4.0 11:2.0 12:0.0 13:166.0 
1.0 1:1.0 2:4.0 3:0.0 4:0.0 5:0.0 6:0.0 7:0.0 8:0.0 9:0.0 10:16.0 11:1.0 12:3.0 13:20.0 
1.0 1:4.0 2:4.0 3:1.0 4:0.0 5:0.0 6:0.0 7:0.0 8:0.0 9:0.0 10:4.0 11:1.0 12:24.0 13:195.0 
1.0 1:4.0 2:4.0 3:1.0 4:0.0 5:0.0 6:0.0 7:0.0 8:0.0 9:0.0 10:4.0 11:1.0 12:8.0 13:113.0 
1.0 1:2.0 2:1.0 3:0.0 4:0.0 5:0.0 6:1.0 7:0.0 8:0.0 9:0.0 10:22.0 11:4.0 12:2.0 13:14.0 
1.0 1:1.0 2:1.0 3:1.0 4:0.0 5:0.0 6:0.0 7:0.0 8:0.0 9:0.0 10:14.0 11:1.0 12:37.0 13:96.0 
1.0 1:4.0 2:4.0 3:1.0 4:0.0 5:0.0 6:0.0 7:0.0 8:0.0 9:0.0 10:4.0 11:1.0 12:1.0 13:195.0 
1.0 1:2.0 2:1.0 3:0.0 4:0.0 5:0.0 6:1.0 7:0.0 8:0.0 9:0.0 10:9.0 11:2.0 12:149.0 13:374.0 
0.9405617967321769 1:4.0 2:4.0 3:1.0 4:0.0 5:0.0 6:0.0 7:0.0 8:0.0 9:0.0 10:4.0 11:1.0 12:41.0 13:113.0 
1.0 1:1.0 2:1.0 3:0.0 4:0.0 5:0.0 6:0.0 7:0.0 8:1.0 9:0.0 10:1.0 11:1.0 12:1.0 13:1.0 
1.0 1:14.0 2:2.0 3:1.0 4:0.0 5:0.0 6:0.0 7:0.0 8:0.0 9:1.0 10:2.0 11:1.0 12:1.0 13:4.0 
1.0 1:7.0 2:4.0 3:1.0 4:0.0 5:0.0 6:0.0 7:0.0 8:0.0 9:0.0 10:5.0 11:2.0 12:1.0 13:15.0 
1.0 1:2.0 2:1.0 3:1.0 4:0.0 5:0.0 6:0.0 7:0.0 8:0.0 9:0.0 10:3.0 11:2.0 12:5.0 13:138.0 
1.0 1:14.0 2:1.0 3:0.0 4:0.0 5:0.0 6:0.0 7:0.0 8:0.0 9:0.0 10:5.0 11:1.0 12:2.0 13:3.0 
1.0 1:2.0 2:2.0 3:0.0 4:0.0 5:0.0 6:1.0 7:0.0 8:0.0 9:0.0 10:13.0 11:3.0 12:0.0 13:7.0 
1.0 1:5.0 2:1.0 3:1.0 4:0.0 5:0.0 6:0.0 7:0.0 8:0.0 9:0.0 10:7.0 11:2.0 12:1.0 13:93.0 
1.0 1:2.0 2:2.0 3:1.0 4:0.0 5:0.0 6:0.0 7:0.0 8:0.0 9:0.0 10:3.0 11:2.0 12:7.0 13:54.0 
1.0 1:17.0 2:1.0 3:1.0 4:0.0 5:0.0 6:0.0 7:0.0 8:0.0 9:0.0 10:13.0 11:2.0 12:1.0 13:4.0 
1.0 1:1.0 2:1.0 3:0.0 4:0.0 5:0.0 6:0.0 7:0.0 8:0.0 9:0.0 10:10.0 11:3.0 12:1.0 13:30.0 
1.0 1:1.0 2:1.0 3:0.0 4:0.0 5:1.0 6:0.0 7:0.0 8:0.0 9:0.0 10:16.0 11:5.0 12:73.0 13:278.0 
0.975564647073594 1:2.0 2:2.0 3:1.0 4:0.0 5:0.0 6:0.0 7:0.0 8:0.0 9:0.0 10:9.0 11:2.0 12:43.0 13:138.0 
1.0 4:2.0 5:3.0 0:4.0 0:5.0 0:6.0 0:7.0 0:8.0 0:9.0 0:10.0 6:11.0 1:12.0 84:13.0 
1.0 1:2.0 2:1.0 3:1.0 4:0.0 5:0.0 6:0.0 7:0.0 8:0.0 9:0.0 10:9.0 11:2.0 12:0.0 13:39.0 
1.0 1:1.0 2:1.0 3:0.0 4:0.0 5:0.0 6:1.0 7:0.0 8:0.0 9:0.0 10:40.0 11:1.0 12:45.0 13:587.0 
1.0 1:4.0 2:4.0 3:1.0 4:0.0 5:0.0 6:0.0 7:0.0 8:0.0 9:0.0 10:22.0 11:1.0 12:1.0 13:6.0 
1.0 1:2.0 2:1.0 3:0.0 4:0.0 5:0.0 6:1.0 7:0.0 8:0.0 9:0.0 10:29.0 11:4.0 12:12.0 13:109.0 
1.0 1:1.0 2:1.0 3:0.0 4:0.0 5:0.0 6:1.0 7:0.0 8:0.0 9:0.0 10:8.0 11:8.0 12:1.0 13:12.0 
1.0 1:2.0 2:1.0 3:0.0 4:0.0 5:0.0 6:0.0 7:0.0 8:0.0 9:0.0 10:7.0 11:4.0 12:5.0 13:228.0 
1.0 1:1.0 2:1.0 3:0.0 4:0.0 5:0.0 6:1.0 7:0.0 8:0.0 9:0.0 10:6.0 11:2.0 12:0.0 13:9.0 
0.566014487321009 1:2.0 2:2.0 3:1.0 4:0.0 5:0.0 6:0.0 7:0.0 8:0.0 9:0.0 10:3.0 11:2.0 12:23.0 13:69.0 
1.0 1:2.0 2:2.0 3:0.0 4:0.0 5:0.0 6:1.0 7:0.0 8:0.0 9:0.0 10:7.0 11:2.0 12:56.0 13:359.0 
1.0 1:2.0 2:1.0 3:1.0 4:0.0 5:0.0 6:0.0 7:0.0 8:0.0 9:0.0 10:11.0 11:2.0 12:5.0 13:228.0 
1.0 1:2.0 2:2.0 3:1.0 4:0.0 5:0.0 6:0.0 7:0.0 8:0.0 9:0.0 10:15.0 11:2.0 12:43.0 13:138.0 
1.0 1:2.0 2:1.0 3:1.0 4:0.0 5:0.0 6:0.0 7:0.0 8:0.0 9:0.0 10:18.0 11:1.0 12:2.0 13:36.0 
1.0 1:1.0 2:1.0 3:0.0 4:0.0 5:0.0 6:0.0 7:1.0 8:0.0 9:0.0 10:14.0 11:4.0 12:1.0 13:91.0 
1.0 1:2.0 2:1.0 3:0.0 4:0.0 5:1.0 6:0.0 7:0.0 8:0.0 9:0.0 10:4.0 11:3.0 12:60.0 13:278.0 
1.0 1:1.0 2:1.0 3:0.0 4:0.0 5:0.0 6:0.0 7:1.0 8:0.0 9:0.0 10:6.0 11:1.0 12:5.0 13:18.0 
1.0 1:17.0 2:1.0 3:0.0 4:0.0 5:1.0 6:0.0 7:0.0 8:0.0 9:0.0 10:49.0 11:1.0 12:124.0 13:248.0 
1.0 1:4.0 2:1.0 3:1.0 4:0.0 5:0.0 6:0.0 7:0.0 8:0.0 9:0.0 10:53.0 11:1.0 12:1.0 13:9.0 
1.0 1:1.0 2:1.0 3:0.0 4:0.0 5:1.0 6:0.0 7:0.0 8:0.0 9:0.0 10:11.0 11:1.0 12:1.0 13:91.0 
1.0 1:1.0 2:1.0 3:0.0 4:0.0 5:0.0 6:0.0 7:1.0 8:0.0 9:0.0 10:58.0 11:1.0 12:182.0 13:278.0 
1.0 1:1.0 2:1.0 3:0.0 4:0.0 5:0.0 6:0.0 7:0.0 8:0.0 9:0.0 10:4.0 11:2.0 12:6.0 13:32.0 
1.0 1:2.0 2:2.0 3:1.0 4:0.0 5:0.0 6:0.0 7:0.0 8:0.0 9:0.0 10:5.0 11:3.0 12:9.0 13:69.0 
1.0 1:1.0 2:3.0 3:0.0 4:1.0 5:0.0 6:0.0 7:0.0 8:0.0 9:0.0 10:29.0 11:1.0 12:4.0 13:715.0 
1.0 1:2.0 2:2.0 3:1.0 4:0.0 5:0.0 6:0.0 7:0.0 8:0.0 9:1.0 10:42.0 11:2.0 12:34.0 13:138.0 
1.0 1:1.0 2:1.0 3:0.0 4:0.0 5:0.0 6:0.0 7:0.0 8:0.0 9:0.0 10:4.0 11:4.0 12:3.0 13:3.0 
1.0 1:1.0 2:1.0 3:0.0 4:0.0 5:0.0 6:0.0 7:0.0 8:0.0 9:0.0 10:19.0 11:1.0 12:11.0 13:70.0 
1.0 1:2.0 2:1.0 3:0.0 4:0.0 5:0.0 6:1.0 7:0.0 8:0.0 9:0.0 10:36.0 11:3.0 12:1.0 13:49.0 
1.0 1:12.0 2:2.0 3:0.0 4:0.0 5:0.0 6:0.0 7:0.0 8:0.0 9:0.0 10:23.0 11:2.0 12:1.0 13:54.0 
1.0 1:1.0 2:1.0 3:1.0 4:0.0 5:0.0 6:0.0 7:0.0 8:0.0 9:0.0 10:2.0 11:1.0 12:2.0 13:39.0 
1.0 1:2.0 2:2.0 3:1.0 4:0.0 5:0.0 6:0.0 7:0.0 8:0.0 9:0.0 10:3.0 11:2.0 12:1.0 13:39.0 
1.0 1:30.0 2:9.0 3:0.0 4:0.0 5:0.0 6:1.0 7:0.0 8:0.0 9:0.0 10:4.0 11:2.0 12:1.0 13:1.0 
1.0 1:2.0 2:1.0 3:0.0 4:0.0 5:0.0 6:1.0 7:0.0 8:0.0 9:0.0 10:15.0 11:2.0 12:269.0 13:475.0 
1.0 1:2.0 2:1.0 3:0.0 4:0.0 5:1.0 6:0.0 7:0.0 8:0.0 9:0.0 10:3.0 11:2.0 12:3.0 13:6.0 
1.0 1:1.0 2:1.0 3:0.0 4:0.0 5:1.0 6:0.0 7:0.0 8:0.0 9:0.0 10:3.0 11:3.0 12:2.0 13:6.0 
1.0 1:2.0 2:1.0 3:0.0 4:0.0 5:0.0 6:0.0 7:0.0 8:0.0 9:0.0 10:15.0 11:1.0 12:1.0 13:17.0 
1.0 1:2.0 2:2.0 3:1.0 4:0.0 5:0.0 6:0.0 7:0.0 8:0.0 9:0.0 10:14.0 11:3.0 12:2.0 13:39.0 
0.9745309567754049 1:1.0 2:3.0 3:0.0 4:1.0 5:0.0 6:0.0 7:0.0 8:0.0 9:0.0 10:10.0 11:1.0 12:71.0 13:715.0 
1.0 1:2.0 2:1.0 3:0.0 4:0.0 5:0.0 6:1.0 7:0.0 8:0.0 9:0.0 10:13.0 11:2.0 12:149.0 13:374.0 
1.0 1:2.0 2:2.0 3:1.0 4:0.0 5:0.0 6:0.0 7:0.0 8:0.0 9:0.0 10:33.0 11:1.0 12:43.0 13:138.0 
1.0 1:1.0 2:1.0 3:0.0 4:0.0 5:1.0 6:0.0 7:1.0 8:0.0 9:0.0 10:7.0 11:1.0 12:182.0 13:278.0 
1.0 1:12.0 2:1.0 3:0.0 4:0.0 5:0.0 6:0.0 7:0.0 8:0.0 9:0.0 10:7.0 11:2.0 12:1.0 13:1.0 
0.07097728666945957 1:1.0 2:1.0 3:0.0 4:0.0 5:1.0 6:0.0 7:0.0 8:0.0 9:0.0 10:3.0 11:1.0 12:182.0 13:278.0 
1.0 1:14.0 2:1.0 3:0.0 4:0.0 5:0.0 6:0.0 7:1.0 8:0.0 9:0.0 10:15.0 11:1.0 12:8.0 13:136.0 
1.0 1:2.0 2:1.0 3:1.0 4:0.0 5:0.0 6:0.0 7:0.0 8:0.0 9:0.0 10:13.0 11:5.0 12:10.0 13:39.0 
1.0 1:26.0 2:2.0 3:1.0 4:0.0 5:0.0 6:0.0 7:0.0 8:0.0 9:0.0 10:6.0 11:3.0 12:43.0 13:138.0 
1.0 1:1.0 2:1.0 3:0.0 4:0.0 5:1.0 6:0.0 7:0.0 8:0.0 9:0.0 10:11.0 11:1.0 12:1.0 13:2.0 
1.0 1:2.0 2:1.0 3:0.0 4:0.0 5:0.0 6:1.0 7:0.0 8:0.0 9:0.0 10:11.0 11:3.0 12:2.0 13:18.0 
1.0 1:4.0 2:4.0 3:1.0 4:0.0 5:0.0 6:0.0 7:0.0 8:0.0 9:0.0 10:15.0 11:1.0 12:41.0 13:113.0 
1.0 1:1.0 2:1.0 3:0.0 4:0.0 5:0.0 6:0.0 7:0.0 8:0.0 9:0.0 10:21.0 11:3.0 12:8.0 13:278.0 
1.0 1:1.0 2:1.0 3:0.0 4:0.0 5:0.0 6:0.0 7:0.0 8:0.0 9:0.0 10:14.0 11:1.0 12:12.0 13:31.0 
1.0 1:14.0 2:1.0 3:1.0 4:0.0 5:0.0 6:0.0 7:0.0 8:0.0 9:0.0 10:6.0 11:1.0 12:1.0 13:9.0 
1.0 1:1.0 2:1.0 3:0.0 4:0.0 5:0.0 6:1.0 7:0.0 8:0.0 9:0.0 10:10.0 11:3.0 12:10.0 13:248.0 
1.0 1:1.0 2:3.0 3:0.0 4:1.0 5:0.0 6:0.0 7:0.0 8:0.0 9:0.0 10:4.0 11:1.0 12:71.0 13:715.0 
0.9909961080994716 1:2.0 2:2.0 3:1.0 4:0.0 5:0.0 6:0.0 7:0.0 8:0.0 9:0.0 10:2.0 11:1.0 12:23.0 13:69.0 
1.0 1:25.0 2:9.0 3:0.0 4:1.0 5:0.0 6:0.0 7:0.0 8:0.0 9:0.0 10:12.0 11:1.0 12:1.0 13:46.0 
1.0 1:1.0 2:1.0 3:0.0 4:0.0 5:0.0 6:1.0 7:0.0 8:1.0 9:0.0 10:1.0 11:3.0 12:269.0 13:475.0 
1.0 1:5.0 2:4.0 3:1.0 4:0.0 5:1.0 6:0.0 7:0.0 8:0.0 9:0.0 10:7.0 11:1.0 12:0.0 13:3.0 
1.0 1:1.0 2:2.0 3:1.0 4:0.0 5:0.0 6:0.0 7:0.0 8:0.0 9:0.0 10:11.0 11:2.0 12:6.0 13:13.0 
0.9818505832487969 1:1.0 2:1.0 3:0.0 4:0.0 5:1.0 6:0.0 7:0.0 8:0.0 9:0.0 10:3.0 11:1.0 12:182.0 13:278.0 
1.0 1:1.0 2:1.0 3:0.0 4:0.0 5:1.0 6:0.0 7:0.0 8:0.0 9:0.0 10:5.0 11:1.0 12:1.0 13:4.0 
-0.3390741603391525 1:2.0 2:1.0 3:1.0 4:0.0 5:0.0 6:1.0 7:1.0 8:0.0 9:0.0 10:6.0 11:5.0 12:0.0 13:9.0 
-0.3404676058778378 1:3.0 2:2.0 3:0.0 4:0.0 5:0.0 6:0.0 7:0.0 8:0.0 9:0.0 10:11.0 11:10.0 12:0.0 13:68.0 
-0.3377057242812614 1:1.0 2:1.0 3:0.0 4:0.0 5:0.0 6:1.0 7:0.0 8:1.0 9:0.0 10:1.0 11:3.0 12:6.0 13:475.0 
-0.34051961814853576 1:5.0 2:3.0 3:0.0 4:0.0 5:0.0 6:0.0 7:0.0 8:0.0 9:0.0 10:3.0 11:1.0 12:72.0 13:844.0 
-0.2946114795559936 1:4.0 2:5.0 3:0.0 4:0.0 5:0.0 6:0.0 7:0.0 8:1.0 9:0.0 10:1.0 11:1.0 12:37.0 13:535.0 
-0.3466903626793961 1:6.0 2:6.0 3:0.0 4:0.0 5:0.0 6:0.0 7:0.0 8:0.0 9:0.0 10:9.0 11:1.0 12:6.0 13:17.0 
-0.34032106525069566 1:7.0 2:5.0 3:0.0 4:0.0 5:0.0 6:0.0 7:0.0 8:0.0 9:0.0 10:5.0 11:2.0 12:10.0 13:535.0 
-0.3395527422360136 1:5.0 2:1.0 3:0.0 4:0.0 5:0.0 6:0.0 7:0.0 8:0.0 9:0.0 10:3.0 11:4.0 12:1.0 13:1.0 
-0.3159659349412289 1:1.0 2:1.0 3:0.0 4:0.0 5:0.0 6:1.0 7:0.0 8:0.0 9:0.0 10:6.0 11:1.0 12:269.0 13:475.0 
-0.33989414504488663 1:8.0 2:7.0 3:0.0 4:0.0 5:0.0 6:0.0 7:0.0 8:0.0 9:0.0 10:11.0 11:1.0 12:7.0 13:548.0 
-0.3391549242791683 1:2.0 2:1.0 3:0.0 4:0.0 5:0.0 6:1.0 7:0.0 8:0.0 9:0.0 10:14.0 11:2.0 12:1.0 13:49.0 
-0.34027699915687804 1:8.0 2:7.0 3:0.0 4:0.0 5:0.0 6:0.0 7:0.0 8:0.0 9:0.0 10:15.0 11:1.0 12:4.0 13:60.0 
-0.3231413982021026 1:1.0 2:1.0 3:0.0 4:0.0 5:0.0 6:0.0 7:0.0 8:0.0 9:0.0 10:14.0 11:2.0 12:4.0 13:49.0 
-0.3402781762836603 1:9.0 2:1.0 3:0.0 4:0.0 5:0.0 6:0.0 7:0.0 8:0.0 9:0.0 10:9.0 11:1.0 12:0.0 13:127.0 
-0.33970007787479684 1:5.0 2:8.0 3:0.0 4:0.0 5:0.0 6:0.0 7:0.0 8:0.0 9:0.0 10:15.0 11:1.0 12:0.0 13:0.0 
-0.34056193926800093 1:5.0 2:1.0 3:0.0 4:0.0 5:0.0 6:0.0 7:0.0 8:0.0 9:0.0 10:9.0 11:7.0 12:38.0 13:127.0 
-0.3406098121400078 1:1.0 2:1.0 3:0.0 4:0.0 5:0.0 6:0.0 7:0.0 8:0.0 9:0.0 10:24.0 11:1.0 12:94.0 13:629.0 
-0.34021668250798465 1:4.0 2:4.0 3:0.0 4:0.0 5:0.0 6:0.0 7:0.0 8:0.0 9:0.0 10:33.0 11:2.0 12:8.0 13:50.0 
-0.34046760011717225 1:4.0 2:4.0 3:0.0 4:0.0 5:0.0 6:0.0 7:0.0 8:0.0 9:0.0 10:31.0 11:2.0 12:8.0 13:475.0 
-0.3406126388408667 1:4.0 2:4.0 3:0.0 4:0.0 5:0.0 6:0.0 7:0.0 8:0.0 9:0.0 10:32.0 11:1.0 12:10.0 13:278.0 
-0.34016655944118435 1:1.0 2:1.0 3:0.0 4:0.0 5:0.0 6:0.0 7:0.0 8:0.0 9:0.0 10:30.0 11:3.0 12:1.0 13:25.0 
-0.3403267908503427 1:9.0 2:1.0 3:0.0 4:0.0 5:0.0 6:0.0 7:0.0 8:0.0 9:0.0 10:38.0 11:1.0 12:2.0 13:629.0 
-0.34067456796351675 1:1.0 2:1.0 3:0.0 4:0.0 5:0.0 6:0.0 7:0.0 8:0.0 9:0.0 10:44.0 11:2.0 12:1.0 13:160.0 
-0.34064035068045373 1:10.0 2:9.0 3:0.0 4:0.0 5:0.0 6:0.0 7:0.0 8:0.0 9:0.0 10:4.0 11:3.0 12:56.0 13:703.0 
-0.3397134230243779 1:4.0 2:4.0 3:0.0 4:0.0 5:0.0 6:0.0 7:0.0 8:0.0 9:0.0 10:6.0 11:1.0 12:28.0 13:424.0 
-0.34015514897381105 1:11.0 2:1.0 3:0.0 4:0.0 5:0.0 6:0.0 7:0.0 8:0.0 9:0.0 10:3.0 11:4.0 12:5.0 13:51.0 
-0.2781296308541365 1:4.0 2:5.0 3:0.0 4:0.0 5:0.0 6:0.0 7:0.0 8:0.0 9:0.0 10:2.0 11:1.0 12:1.0 13:535.0 
-0.30031238525992254 1:4.0 2:5.0 3:0.0 4:0.0 5:0.0 6:0.0 7:0.0 8:0.0 9:0.0 10:1.0 11:2.0 12:1.0 13:9.0 
-0.2826836750162009 1:4.0 2:4.0 3:0.0 4:0.0 5:0.0 6:0.0 7:0.0 8:0.0 9:0.0 10:12.0 11:1.0 12:1.0 13:1.0 
-0.3400209772367086 1:7.0 2:10.0 3:0.0 4:0.0 5:0.0 6:0.0 7:0.0 8:0.0 9:0.0 10:20.0 11:2.0 12:1.0 13:3.0 
-0.34032679085034273 1:1.0 2:1.0 3:0.0 4:0.0 5:0.0 6:0.0 7:0.0 8:0.0 9:0.0 10:18.0 11:2.0 12:51.0 13:830.0 
-0.3403085258026445 1:1.0 2:1.0 3:0.0 4:0.0 5:0.0 6:0.0 7:0.0 8:0.0 9:0.0 10:39.0 11:1.0 12:21.0 13:92.0 
-0.340683140386378 1:1.0 2:1.0 3:0.0 4:0.0 5:0.0 6:0.0 7:0.0 8:0.0 9:0.0 10:45.0 11:1.0 12:21.0 13:92.0 
-0.33982165236182393 1:1.0 2:1.0 3:0.0 4:0.0 5:0.0 6:0.0 7:0.0 8:0.0 9:0.0 10:17.0 11:1.0 12:4.0 13:114.0 
-0.3405888574772344 1:6.0 2:6.0 3:0.0 4:0.0 5:0.0 6:0.0 7:0.0 8:0.0 9:0.0 10:19.0 11:2.0 12:56.0 13:342.0 
-0.3399472175160344 1:4.0 2:4.0 3:0.0 4:0.0 5:0.0 6:0.0 7:0.0 8:0.0 9:0.0 10:20.0 11:1.0 12:33.0 13:79.0 
-0.33003208703687165 1:1.0 2:1.0 3:0.0 4:0.0 5:0.0 6:0.0 7:0.0 8:0.0 9:0.0 10:18.0 11:3.0 12:5.0 13:6.0 
-0.3406619129462228 1:6.0 2:4.0 3:0.0 4:0.0 5:0.0 6:0.0 7:0.0 8:0.0 9:0.0 10:24.0 11:1.0 12:56.0 13:587.0 
-0.3293377514833902 1:7.0 2:1.0 3:0.0 4:0.0 5:0.0 6:0.0 7:0.0 8:0.0 9:0.0 10:33.0 11:2.0 12:0.0 13:1.0 
-0.339990426518105 1:10.0 2:11.0 3:0.0 4:0.0 5:0.0 6:0.0 7:0.0 8:0.0 9:0.0 10:32.0 11:1.0 12:3.0 13:2207.0 
-0.3468481201595459 1:4.0 2:4.0 3:0.0 4:0.0 5:1.0 6:0.0 7:0.0 8:0.0 9:0.0 10:41.0 11:2.0 12:0.0 13:11.0 
-0.33973247104525484 1:7.0 2:12.0 3:1.0 4:0.0 5:0.0 6:0.0 7:0.0 8:0.0 9:0.0 10:28.0 11:2.0 12:1.0 13:2.0 
-0.33971444352829544 1:1.0 2:4.0 3:0.0 4:0.0 5:0.0 6:0.0 7:0.0 8:0.0 9:0.0 10:4.0 11:1.0 12:12.0 13:1752.0 
-0.34045152085264474 1:12.0 2:1.0 3:0.0 4:0.0 5:0.0 6:0.0 7:0.0 8:0.0 9:0.0 10:17.0 11:3.0 12:2.0 13:114.0 
-0.33981920499993756 1:4.0 2:4.0 3:0.0 4:0.0 5:0.0 6:0.0 7:0.0 8:0.0 9:0.0 10:16.0 11:1.0 12:1.0 13:117.0 
-0.33873938568869005 1:2.0 2:1.0 3:0.0 4:0.0 5:0.0 6:0.0 7:0.0 8:0.0 9:0.0 10:18.0 11:1.0 12:1.0 13:14.0 
-0.3406554322666745 1:13.0 2:8.0 3:0.0 4:0.0 5:0.0 6:0.0 7:0.0 8:0.0 9:0.0 10:41.0 11:1.0 12:2.0 13:11.0 
-0.3142818305333845 1:6.0 2:6.0 3:0.0 4:0.0 5:0.0 6:0.0 7:0.0 8:0.0 9:0.0 10:7.0 11:1.0 12:1.0 13:943.0 
-0.32499303381539224 1:1.0 2:1.0 3:0.0 4:0.0 5:0.0 6:0.0 7:0.0 8:0.0 9:0.0 10:6.0 11:2.0 12:1.0 13:2.0 
-0.3401857408245033 1:8.0 2:7.0 3:0.0 4:0.0 5:0.0 6:0.0 7:0.0 8:0.0 9:0.0 10:11.0 11:4.0 12:1.0 13:9.0 
-0.3400454044966912 1:12.0 2:1.0 3:0.0 4:0.0 5:0.0 6:0.0 7:0.0 8:0.0 9:0.0 10:12.0 11:3.0 12:1.0 13:16.0 
-0.3406601685573455 1:1.0 2:1.0 3:0.0 4:0.0 5:0.0 6:0.0 7:0.0 8:0.0 9:0.0 10:10.0 11:5.0 12:1.0 13:188.0 
-0.3401664711443471 1:1.0 2:1.0 3:0.0 4:0.0 5:0.0 6:0.0 7:0.0 8:0.0 9:0.0 10:25.0 11:1.0 12:182.0 13:278.0 
-0.33270727526869825 1:13.0 2:8.0 3:0.0 4:0.0 5:0.0 6:0.0 7:0.0 8:0.0 9:0.0 10:6.0 11:3.0 12:1.0 13:18.0 
-0.3404747599520357 1:1.0 2:1.0 3:0.0 4:0.0 5:0.0 6:0.0 7:0.0 8:0.0 9:0.0 10:5.0 11:1.0 12:72.0 13:300.0 
-0.34047043280104844 1:6.0 2:12.0 3:0.0 4:0.0 5:0.0 6:0.0 7:0.0 8:0.0 9:0.0 10:19.0 11:1.0 12:16.0 13:128.0 
-0.34046620682630885 1:4.0 2:4.0 3:0.0 4:0.0 5:0.0 6:0.0 7:0.0 8:0.0 9:0.0 10:18.0 11:2.0 12:25.0 13:42.0 
-0.3403830126379659 1:1.0 2:1.0 3:0.0 4:0.0 5:0.0 6:0.0 7:0.0 8:0.0 9:0.0 10:16.0 11:4.0 12:45.0 13:181.0 
-0.3406615790887832 1:4.0 2:4.0 3:0.0 4:0.0 5:0.0 6:0.0 7:0.0 8:0.0 9:0.0 10:4.0 11:1.0 12:2.0 13:117.0 
-0.33994118523139033 1:14.0 2:1.0 3:0.0 4:0.0 5:0.0 6:0.0 7:0.0 8:0.0 9:0.0 10:2.0 11:1.0 12:1.0 13:83.0 
-0.12779335352016355 1:1.0 2:1.0 3:0.0 4:0.0 5:0.0 6:0.0 7:0.0 8:0.0 9:0.0 10:10.0 11:1.0 12:269.0 13:475.0 
-0.2960669622127145 1:1.0 2:1.0 3:0.0 4:0.0 5:0.0 6:0.0 7:0.0 8:0.0 9:0.0 10:12.0 11:1.0 12:81.0 13:92.0 
-0.3403316587926774 1:14.0 2:3.0 3:0.0 4:1.0 5:0.0 6:0.0 7:0.0 8:0.0 9:0.0 10:8.0 11:1.0 12:34.0 13:313.0 
-0.3404789076972753 1:5.0 2:5.0 3:0.0 4:0.0 5:0.0 6:0.0 7:0.0 8:0.0 9:0.0 10:2.0 11:32.0 12:1.0 13:535.0 
-0.3404053893445743 1:1.0 2:13.0 3:0.0 4:0.0 5:0.0 6:0.0 7:0.0 8:0.0 9:0.0 10:35.0 11:1.0 12:1.0 13:27.0 
-0.34034787910079156 1:5.0 2:14.0 3:0.0 4:0.0 5:0.0 6:0.0 7:0.0 8:0.0 9:0.0 10:36.0 11:2.0 12:1.0 13:1752.0 
-0.34061263884086673 1:2.0 2:1.0 3:0.0 4:0.0 5:0.0 6:0.0 7:0.0 8:0.0 9:0.0 10:39.0 11:1.0 12:38.0 13:102.0 
-0.340269543732743 1:14.0 2:9.0 3:0.0 4:0.0 5:0.0 6:0.0 7:0.0 8:0.0 9:0.0 10:42.0 11:4.0 12:102.0 13:844.0 
-0.3403168212247165 1:14.0 2:9.0 3:0.0 4:0.0 5:0.0 6:0.0 7:0.0 8:0.0 9:0.0 10:43.0 11:3.0 12:21.0 13:181.0 
-0.3403265572904253 1:15.0 2:15.0 3:0.0 4:0.0 5:0.0 6:0.0 7:0.0 8:0.0 9:0.0 10:44.0 11:2.0 12:53.0 13:424.0 
-0.34004182815197875 1:4.0 2:4.0 3:0.0 4:0.0 5:0.0 6:0.0 7:0.0 8:0.0 9:0.0 10:45.0 11:1.0 12:2.0 13:9.0 
-0.3402773854699945 1:5.0 2:5.0 3:0.0 4:0.0 5:0.0 6:0.0 7:0.0 8:0.0 9:0.0 10:2.0 11:44.0 12:60.0 13:535.0 
-0.34043519470937167 1:5.0 2:11.0 3:0.0 4:0.0 5:0.0 6:0.0 7:0.0 8:0.0 9:0.0 10:47.0 11:1.0 12:266.0 13:2207.0 
-0.3403267908503427 1:5.0 2:14.0 3:0.0 4:0.0 5:0.0 6:0.0 7:0.0 8:0.0 9:1.0 10:48.0 11:2.0 12:42.0 13:392.0 
-0.34058932081935667 1:5.0 2:3.0 3:0.0 4:0.0 5:0.0 6:0.0 7:0.0 8:0.0 9:0.0 10:12.0 11:7.0 12:0.0 13:1479.0 
-0.24127544084294347 1:4.0 2:4.0 3:0.0 4:0.0 5:0.0 6:0.0 7:0.0 8:0.0 9:0.0 10:4.0 11:1.0 12:0.0 13:2.0 
-0.34037571147861667 1:7.0 2:5.0 3:0.0 4:0.0 5:0.0 6:0.0 7:0.0 8:0.0 9:0.0 10:12.0 11:2.0 12:0.0 13:1195.0 
-0.3405626028859272 1:5.0 2:15.0 3:0.0 4:0.0 5:0.0 6:0.0 7:0.0 8:0.0 9:0.0 10:11.0 11:3.0 12:0.0 13:1479.0 
-0.3397603927399195 1:1.0 2:3.0 3:0.0 4:0.0 5:0.0 6:0.0 7:0.0 8:0.0 9:0.0 10:31.0 11:1.0 12:72.0 13:844.0 
-0.3470299290150157 1:1.0 2:3.0 3:0.0 4:1.0 5:0.0 6:0.0 7:0.0 8:0.0 9:0.0 10:7.0 11:4.0 12:39.0 13:394.0 
-0.2999531203560678 1:7.0 2:5.0 3:0.0 4:0.0 5:0.0 6:0.0 7:0.0 8:1.0 9:0.0 10:1.0 11:4.0 12:6.0 13:535.0 
-0.3402039484348426 1:16.0 2:16.0 3:0.0 4:0.0 5:0.0 6:0.0 7:0.0 8:0.0 9:0.0 10:4.0 11:1.0 12:5.0 13:191.0 
-0.34030830585370964 1:17.0 2:4.0 3:0.0 4:0.0 5:0.0 6:0.0 7:0.0 8:0.0 9:0.0 10:3.0 11:2.0 12:8.0 13:219.0 
-0.38315111841900407 1:2.0 2:1.0 3:0.0 4:0.0 5:0.0 6:0.0 7:0.0 8:0.0 9:0.0 10:9.0 11:4.0 12:1.0 13:2.0 
-0.3397323646127821 1:17.0 2:4.0 3:0.0 4:0.0 5:0.0 6:0.0 7:0.0 8:0.0 9:0.0 10:5.0 11:2.0 12:8.0 13:62.0 
-0.33998102750094894 1:4.0 2:4.0 3:0.0 4:0.0 5:0.0 6:0.0 7:0.0 8:0.0 9:0.0 10:2.0 11:1.0 12:15.0 13:22.0 
-0.34027962654699406 1:32.0 2:8.0 3:0.0 4:0.0 5:0.0 6:0.0 7:0.0 8:0.0 9:0.0 10:16.0 11:1.0 12:44.0 13:289.0 
-0.49370197788378634 1:1.0 2:1.0 3:0.0 4:0.0 5:0.0 6:0.0 7:0.0 8:0.0 9:0.0 10:14.0 11:3.0 12:269.0 13:475.0 
-0.34002618336384516 1:1.0 2:1.0 3:0.0 4:0.0 5:0.0 6:0.0 7:0.0 8:0.0 9:0.0 10:2.0 11:1.0 12:29.0 13:130.0 
-0.3403006070637416 1:4.0 2:13.0 3:0.0 4:0.0 5:0.0 6:0.0 7:0.0 8:0.0 9:0.0 10:29.0 11:2.0 12:149.0 13:1599.0 
-0.31293571721637153 1:13.0 2:8.0 3:0.0 4:0.0 5:0.0 6:0.0 7:0.0 8:0.0 9:0.0 10:28.0 11:1.0 12:1.0 13:3.0 
-0.34676777783350354 1:1.0 2:1.0 3:0.0 4:0.0 5:0.0 6:0.0 7:0.0 8:0.0 9:0.0 10:25.0 11:4.0 12:73.0 13:278.0 
-0.34046759911421814 1:7.0 2:13.0 3:0.0 4:0.0 5:0.0 6:0.0 7:0.0 8:0.0 9:0.0 10:6.0 11:2.0 12:0.0 13:1599.0 
-0.34008602594575155 1:14.0 2:1.0 3:0.0 4:0.0 5:0.0 6:0.0 7:0.0 8:0.0 9:0.0 10:15.0 11:1.0 12:13.0 13:91.0 
-0.3404334085270724 1:8.0 2:7.0 3:0.0 4:0.0 5:0.0 6:0.0 7:0.0 8:0.0 9:0.0 10:29.0 11:2.0 12:42.0 13:943.0 
-0.34047890769727535 1:1.0 2:3.0 3:0.0 4:1.0 5:0.0 6:0.0 7:0.0 8:0.0 9:0.0 10:28.0 11:3.0 12:26.0 13:313.0 
-0.33994029518824004 1:7.0 2:13.0 3:0.0 4:0.0 5:0.0 6:0.0 7:0.0 8:0.0 9:0.0 10:17.0 11:2.0 12:11.0 13:1599.0 
-0.34114648810953613 1:2.0 2:1.0 3:0.0 4:0.0 5:0.0 6:1.0 7:0.0 8:0.0 9:0.0 10:11.0 11:4.0 12:6.0 13:45.0 
-0.34045430310398656 1:13.0 2:4.0 3:0.0 4:0.0 5:0.0 6:0.0 7:0.0 8:0.0 9:0.0 10:14.0 11:1.0 12:0.0 13:26.0 
-0.3404312222608183 1:2.0 2:15.0 3:0.0 4:0.0 5:1.0 6:0.0 7:0.0 8:0.0 9:0.0 10:16.0 11:1.0 12:15.0 13:1479.0 
-0.34021299375626995 1:13.0 2:8.0 3:0.0 4:0.0 5:0.0 6:0.0 7:0.0 8:0.0 9:0.0 10:14.0 11:2.0 12:8.0 13:26.0 
-0.3405320376767055 1:13.0 2:8.0 3:0.0 4:0.0 5:0.0 6:0.0 7:0.0 8:0.0 9:0.0 10:12.0 11:2.0 12:8.0 13:15.0 
-0.34033317524451007 1:16.0 2:16.0 3:0.0 4:0.0 5:0.0 6:0.0 7:0.0 8:0.0 9:0.0 10:13.0 11:1.0 12:5.0 13:191.0 
-0.3242438944045836 1:2.0 2:4.0 3:0.0 4:0.0 5:0.0 6:0.0 7:0.0 8:0.0 9:0.0 10:15.0 11:1.0 12:0.0 13:34.0 
-0.34008076098059536 1:17.0 2:1.0 3:0.0 4:0.0 5:0.0 6:0.0 7:0.0 8:0.0 9:0.0 10:3.0 11:2.0 12:2.0 13:76.0 
-0.3401606416631255 1:19.0 2:14.0 3:0.0 4:0.0 5:0.0 6:0.0 7:0.0 8:0.0 9:0.0 10:6.0 11:1.0 12:11.0 13:1752.0 
-0.3439854058186597 1:4.0 2:4.0 3:0.0 4:0.0 5:0.0 6:0.0 7:0.0 8:0.0 9:0.0 10:13.0 11:2.0 12:1.0 13:7.0 
-0.3403073916424252 1:4.0 2:10.0 3:0.0 4:0.0 5:0.0 6:0.0 7:0.0 8:0.0 9:0.0 10:11.0 11:2.0 12:1.0 13:31.0 
-0.3402001305034938 1:4.0 2:10.0 3:0.0 4:0.0 5:0.0 6:0.0 7:0.0 8:0.0 9:0.0 10:12.0 11:1.0 12:1.0 13:182.0 
-0.35339367760893 1:4.0 2:4.0 3:0.0 4:0.0 5:0.0 6:0.0 7:0.0 8:0.0 9:0.0 10:9.0 11:1.0 12:1.0 13:3.0 
-0.2973295610441415 1:1.0 2:1.0 3:0.0 4:0.0 5:0.0 6:1.0 7:0.0 8:0.0 9:0.0 10:8.0 11:1.0 12:1.0 13:1.0 
-0.3404322091349426 1:13.0 2:8.0 3:0.0 4:0.0 5:0.0 6:0.0 7:0.0 8:0.0 9:0.0 10:17.0 11:7.0 12:2.0 13:6.0 
-0.3404199347009189 1:7.0 2:6.0 3:0.0 4:0.0 5:0.0 6:0.0 7:0.0 8:0.0 9:0.0 10:20.0 11:4.0 12:18.0 13:425.0 
-0.36077534275221074 1:4.0 2:4.0 3:0.0 4:0.0 5:0.0 6:0.0 7:0.0 8:0.0 9:0.0 10:23.0 11:1.0 12:1.0 13:4.0 
-0.34066016855734527 1:1.0 2:1.0 3:0.0 4:0.0 5:0.0 6:0.0 7:0.0 8:0.0 9:0.0 10:16.0 11:8.0 12:33.0 13:576.0 
-0.340206075342693 1:1.0 2:1.0 3:0.0 4:0.0 5:0.0 6:1.0 7:0.0 8:0.0 9:0.0 10:32.0 11:1.0 12:269.0 13:475.0 
-0.3397164241679119 1:2.0 2:1.0 3:0.0 4:0.0 5:0.0 6:1.0 7:0.0 8:0.0 9:0.0 10:38.0 11:3.0 12:6.0 13:25.0 
-0.3404072139952506 1:12.0 2:2.0 3:0.0 4:0.0 5:0.0 6:0.0 7:0.0 8:0.0 9:0.0 10:40.0 11:2.0 12:1.0 13:33.0 
-0.34046573289271576 1:1.0 2:1.0 3:0.0 4:0.0 5:0.0 6:0.0 7:0.0 8:0.0 9:0.0 10:38.0 11:4.0 12:1.0 13:25.0 
-0.34060983247087345 1:15.0 2:15.0 3:0.0 4:0.0 5:0.0 6:0.0 7:0.0 8:0.0 9:0.0 10:68.0 11:3.0 12:9.0 13:1479.0 
-0.34016512244397085 1:4.0 2:13.0 3:0.0 4:0.0 5:0.0 6:0.0 7:0.0 8:0.0 9:0.0 10:69.0 11:2.0 12:4.0 13:1170.0 
-0.3399811475497684 1:12.0 2:4.0 3:0.0 4:0.0 5:0.0 6:0.0 7:0.0 8:0.0 9:0.0 10:73.0 11:2.0 12:3.0 13:7.0 
-0.3402127964065986 1:21.0 2:11.0 3:0.0 4:0.0 5:0.0 6:0.0 7:0.0 8:0.0 9:0.0 10:72.0 11:1.0 12:11.0 13:2207.0 
-0.33970129643067726 1:1.0 2:1.0 3:0.0 4:0.0 5:0.0 6:0.0 7:0.0 8:0.0 9:0.0 10:65.0 11:1.0 12:1.0 13:4.0 
-0.3397600566168739 1:12.0 2:4.0 3:0.0 4:0.0 5:0.0 6:0.0 7:0.0 8:0.0 9:0.0 10:71.0 11:2.0 12:3.0 13:14.0 
-0.3401664694461774 1:2.0 2:2.0 3:1.0 4:0.0 5:0.0 6:0.0 7:0.0 8:0.0 9:0.0 10:77.0 11:4.0 12:1.0 13:3.0 
-0.3405001999754564 1:1.0 2:1.0 3:0.0 4:0.0 5:0.0 6:0.0 7:0.0 8:0.0 9:0.0 10:24.0 11:2.0 12:1.0 13:31.0 
-0.33971671132470826 1:14.0 2:17.0 3:0.0 4:0.0 5:0.0 6:0.0 7:0.0 8:0.0 9:0.0 10:14.0 11:2.0 12:18.0 13:128.0 
-0.33999107261553907 1:4.0 2:4.0 3:0.0 4:0.0 5:0.0 6:0.0 7:0.0 8:0.0 9:0.0 10:15.0 11:1.0 12:28.0 13:424.0 
-0.33768494003246585 1:1.0 2:1.0 3:0.0 4:0.0 5:0.0 6:0.0 7:0.0 8:1.0 9:0.0 10:1.0 11:3.0 12:3.0 13:475.0 
-0.31208693888218053 1:4.0 2:4.0 3:0.0 4:0.0 5:0.0 6:0.0 7:0.0 8:0.0 9:0.0 10:3.0 11:1.0 12:0.0 13:12.0 
-0.339988831124526 1:5.0 2:14.0 3:0.0 4:0.0 5:0.0 6:0.0 7:0.0 8:0.0 9:0.0 10:4.0 11:3.0 12:3.0 13:1752.0 
-0.339495321137792 1:6.0 2:6.0 3:0.0 4:0.0 5:0.0 6:0.0 7:0.0 8:0.0 9:0.0 10:2.0 11:1.0 12:21.0 13:943.0 
-0.3404254880719325 1:17.0 2:4.0 3:0.0 4:0.0 5:0.0 6:0.0 7:0.0 8:0.0 9:0.0 10:8.0 11:2.0 12:1.0 13:17.0 
-0.3403127297089572 1:16.0 2:16.0 3:0.0 4:0.0 5:0.0 6:0.0 7:0.0 8:0.0 9:0.0 10:9.0 11:1.0 12:1.0 13:191.0 
-0.338189035423839 1:10.0 2:11.0 3:0.0 4:0.0 5:0.0 6:0.0 7:0.0 8:0.0 9:0.0 10:11.0 11:1.0 12:11.0 13:2207.0 
-0.4221736128090004 1:7.0 2:4.0 3:0.0 4:0.0 5:0.0 6:0.0 7:0.0 8:0.0 9:0.0 10:10.0 11:2.0 12:1.0 13:13.0 
-0.33805128463496814 1:17.0 2:4.0 3:0.0 4:0.0 5:0.0 6:0.0 7:0.0 8:0.0 9:0.0 10:10.0 11:2.0 12:1.0 13:13.0 
-0.42803227123388077 1:1.0 2:1.0 3:0.0 4:0.0 5:0.0 6:0.0 7:0.0 8:0.0 9:0.0 10:12.0 11:2.0 12:1.0 13:18.0 
-0.3404904704041944 1:14.0 2:9.0 3:0.0 4:0.0 5:0.0 6:0.0 7:0.0 8:0.0 9:0.0 10:13.0 11:1.0 12:1.0 13:98.0 
-0.3402123257723269 1:22.0 2:1.0 3:0.0 4:0.0 5:0.0 6:0.0 7:0.0 8:0.0 9:0.0 10:11.0 11:3.0 12:1.0 13:210.0 
-0.33972962496668196 1:5.0 2:1.0 3:0.0 4:0.0 5:0.0 6:0.0 7:0.0 8:0.0 9:0.0 10:16.0 11:2.0 12:1.0 13:7.0 
-0.3406579058576035 1:17.0 2:1.0 3:0.0 4:0.0 5:0.0 6:1.0 7:0.0 8:0.0 9:0.0 10:26.0 11:12.0 12:1.0 13:18.0 
-0.34002983083411514 1:17.0 2:1.0 3:0.0 4:0.0 5:0.0 6:0.0 7:0.0 8:0.0 9:0.0 10:32.0 11:8.0 12:1.0 13:18.0 
-0.3403393693142404 1:4.0 2:13.0 3:0.0 4:0.0 5:0.0 6:0.0 7:0.0 8:0.0 9:0.0 10:17.0 11:3.0 12:95.0 13:1599.0 
-0.3301761582142058 1:7.0 2:8.0 3:0.0 4:0.0 5:0.0 6:0.0 7:0.0 8:0.0 9:0.0 10:18.0 11:2.0 12:2.0 13:8.0 
-0.340581989768016 1:1.0 2:1.0 3:0.0 4:0.0 5:0.0 6:0.0 7:0.0 8:0.0 9:0.0 10:16.0 11:4.0 12:2.0 13:7.0 
-0.3402644769457704 1:6.0 2:4.0 3:0.0 4:0.0 5:0.0 6:0.0 7:0.0 8:0.0 9:0.0 10:2.0 11:1.0 12:4.0 13:251.0 
-0.34008547488460067 1:5.0 2:1.0 3:0.0 4:0.0 5:0.0 6:1.0 7:0.0 8:0.0 9:0.0 10:23.0 11:2.0 12:0.0 13:26.0 
-0.34029529157900656 1:1.0 2:3.0 3:0.0 4:0.0 5:0.0 6:0.0 7:0.0 8:0.0 9:0.0 10:2.0 11:1.0 12:72.0 13:844.0 
-0.34059016617253574 1:2.0 2:13.0 3:0.0 4:0.0 5:0.0 6:0.0 7:0.0 8:0.0 9:0.0 10:27.0 11:5.0 12:19.0 13:1599.0 
-0.3389223177101927 1:14.0 2:9.0 3:0.0 4:0.0 5:0.0 6:0.0 7:0.0 8:0.0 9:0.0 10:28.0 11:4.0 12:1.0 13:3.0 
-0.3405943113951424 1:11.0 2:13.0 3:0.0 4:0.0 5:0.0 6:0.0 7:0.0 8:0.0 9:0.0 10:30.0 11:2.0 12:1.0 13:11.0 
-0.340479829322772 1:9.0 2:1.0 3:0.0 4:0.0 5:0.0 6:0.0 7:0.0 8:0.0 9:0.0 10:31.0 11:1.0 12:1.0 13:8.0 
-0.33971514975488837 1:17.0 2:3.0 3:0.0 4:0.0 5:0.0 6:0.0 7:0.0 8:0.0 9:0.0 10:2.0 11:30.0 12:15.0 13:844.0 
-0.33801942630071685 1:1.0 2:4.0 3:0.0 4:0.0 5:0.0 6:0.0 7:0.0 8:0.0 9:0.0 10:34.0 11:2.0 12:1.0 13:39.0 
-0.3404137993422277 1:5.0 2:1.0 3:0.0 4:0.0 5:0.0 6:0.0 7:0.0 8:0.0 9:0.0 10:36.0 11:4.0 12:4.0 13:157.0 
-0.3378855729492381 1:4.0 2:4.0 3:0.0 4:0.0 5:0.0 6:0.0 7:0.0 8:0.0 9:0.0 10:34.0 11:1.0 12:1.0 13:39.0 
-0.3402769991568782 1:4.0 2:5.0 3:0.0 4:0.0 5:0.0 6:0.0 7:0.0 8:1.0 9:0.0 10:1.0 11:1.0 12:26.0 13:535.0 
-0.34013685318218273 1:7.0 2:4.0 3:0.0 4:0.0 5:0.0 6:0.0 7:0.0 8:0.0 9:0.0 10:4.0 11:2.0 12:31.0 13:451.0 
-0.34014235822963895 1:10.0 2:11.0 3:0.0 4:0.0 5:0.0 6:0.0 7:0.0 8:0.0 9:0.0 10:3.0 11:1.0 12:95.0 13:2207.0 
-0.3403217475386901 1:7.0 2:4.0 3:0.0 4:0.0 5:0.0 6:0.0 7:0.0 8:0.0 9:0.0 10:2.0 11:2.0 12:31.0 13:154.0 
-0.3403242295414457 1:6.0 2:6.0 3:0.0 4:0.0 5:0.0 6:0.0 7:0.0 8:0.0 9:0.0 10:11.0 11:4.0 12:120.0 13:943.0 
-0.3236667357767973 1:7.0 2:8.0 3:0.0 4:0.0 5:0.0 6:0.0 7:0.0 8:0.0 9:0.0 10:8.0 11:3.0 12:2.0 13:6.0 
-0.3402141883639874 1:1.0 2:1.0 3:0.0 4:0.0 5:0.0 6:0.0 7:0.0 8:0.0 9:0.0 10:6.0 11:5.0 12:69.0 13:119.0 
-0.3401555562082459 1:4.0 2:4.0 3:0.0 4:0.0 5:0.0 6:0.0 7:0.0 8:0.0 9:0.0 10:10.0 11:1.0 12:8.0 13:8.0 
-0.34064309251724967 1:4.0 2:4.0 3:0.0 4:0.0 5:0.0 6:0.0 7:0.0 8:0.0 9:0.0 10:11.0 11:1.0 12:8.0 13:475.0 
-0.3406876077052148 1:7.0 2:13.0 3:0.0 4:0.0 5:0.0 6:0.0 7:0.0 8:0.0 9:0.0 10:14.0 11:2.0 12:122.0 13:1599.0 
-0.33973750729201757 1:1.0 2:1.0 3:0.0 4:0.0 5:0.0 6:0.0 7:0.0 8:0.0 9:0.0 10:13.0 11:3.0 12:60.0 13:278.0 
-0.3397126413452531 1:6.0 2:6.0 3:0.0 4:0.0 5:0.0 6:0.0 7:0.0 8:0.0 9:0.0 10:11.0 11:1.0 12:63.0 13:943.0 
-0.3401582037299338 1:1.0 2:1.0 3:0.0 4:0.0 5:0.0 6:0.0 7:0.0 8:0.0 9:0.0 10:10.0 11:2.0 12:62.0 13:280.0 
-0.3403169582852042 1:4.0 2:4.0 3:0.0 4:0.0 5:0.0 6:0.0 7:0.0 8:0.0 9:0.0 10:21.0 11:2.0 12:136.0 13:1195.0 
-0.325096701234018 1:2.0 2:1.0 3:0.0 4:0.0 5:0.0 6:0.0 7:0.0 8:0.0 9:0.0 10:24.0 11:1.0 12:2.0 13:4.0 
-0.3169844955061571 1:1.0 2:4.0 3:0.0 4:0.0 5:0.0 6:0.0 7:0.0 8:0.0 9:0.0 10:2.0 11:1.0 12:1.0 13:1.0 
-0.34046840546830054 1:1.0 2:3.0 3:0.0 4:0.0 5:0.0 6:0.0 7:0.0 8:0.0 9:0.0 10:6.0 11:1.0 12:2.0 13:844.0 
-0.340631885230434 1:4.0 2:4.0 3:0.0 4:0.0 5:0.0 6:0.0 7:0.0 8:0.0 9:0.0 10:36.0 11:1.0 12:3.0 13:19.0 
-0.3402153952581678 1:4.0 2:4.0 3:0.0 4:0.0 5:0.0 6:0.0 7:0.0 8:0.0 9:0.0 10:40.0 11:1.0 12:13.0 13:119.0 
-0.34047182382698166 1:1.0 2:1.0 3:0.0 4:0.0 5:0.0 6:0.0 7:0.0 8:0.0 9:0.0 10:39.0 11:2.0 12:13.0 13:91.0 
-0.3404010634800353 1:4.0 2:4.0 3:0.0 4:0.0 5:0.0 6:0.0 7:0.0 8:0.0 9:0.0 10:13.0 11:1.0 12:0.0 13:157.0 
-0.34052473791772325 1:14.0 2:9.0 3:0.0 4:0.0 5:0.0 6:0.0 7:0.0 8:0.0 9:0.0 10:4.0 11:1.0 12:8.0 13:51.0 
-0.3405596323847485 1:4.0 2:4.0 3:0.0 4:0.0 5:0.0 6:0.0 7:0.0 8:0.0 9:0.0 10:5.0 11:1.0 12:7.0 13:154.0 
-0.3300282747695712 1:2.0 2:1.0 3:0.0 4:1.0 5:0.0 6:0.0 7:0.0 8:0.0 9:0.0 10:7.0 11:1.0 12:1.0 13:30.0 
-0.16205369723460714 1:4.0 2:4.0 3:0.0 4:0.0 5:0.0 6:0.0 7:0.0 8:0.0 9:0.0 10:4.0 11:2.0 12:1.0 13:1.0 
-0.340443386058427 1:13.0 2:8.0 3:0.0 4:0.0 5:0.0 6:0.0 7:0.0 8:1.0 9:0.0 10:1.0 11:5.0 12:1.0 13:2.0 
-0.41582648279861745 1:4.0 2:4.0 3:0.0 4:0.0 5:0.0 6:1.0 7:0.0 8:0.0 9:0.0 10:6.0 11:1.0 12:7.0 13:17.0 
-0.3403266319608822 1:1.0 2:1.0 3:0.0 4:0.0 5:0.0 6:0.0 7:0.0 8:0.0 9:0.0 10:24.0 11:1.0 12:11.0 13:13.0 
-0.3403645118369796 1:13.0 2:8.0 3:0.0 4:0.0 5:0.0 6:0.0 7:0.0 8:0.0 9:0.0 10:5.0 11:2.0 12:20.0 13:289.0 
-0.33158219870062255 1:13.0 2:8.0 3:0.0 4:0.0 5:0.0 6:0.0 7:0.0 8:0.0 9:0.0 10:6.0 11:1.0 12:3.0 13:18.0 
-0.3405385777697065 1:2.0 2:1.0 3:0.0 4:0.0 5:0.0 6:0.0 7:0.0 8:0.0 9:0.0 10:6.0 11:3.0 12:88.0 13:1752.0 
-0.3445540807322791 1:2.0 2:3.0 3:0.0 4:1.0 5:0.0 6:0.0 7:0.0 8:0.0 9:0.0 10:32.0 11:2.0 12:4.0 13:715.0 
-0.34060983247087356 1:1.0 2:1.0 3:0.0 4:0.0 5:0.0 6:0.0 7:0.0 8:0.0 9:0.0 10:40.0 11:1.0 12:51.0 13:181.0 
-0.34046854091384593 1:13.0 2:8.0 3:0.0 4:0.0 5:0.0 6:0.0 7:0.0 8:0.0 9:0.0 10:3.0 11:2.0 12:1.0 13:25.0 
-0.34048953674583105 1:23.0 2:9.0 3:0.0 4:0.0 5:0.0 6:0.0 7:0.0 8:0.0 9:0.0 10:4.0 11:1.0 12:2.0 13:18.0 
-0.3301306679401395 1:1.0 2:1.0 3:0.0 4:0.0 5:0.0 6:0.0 7:0.0 8:0.0 9:0.0 10:2.0 11:3.0 12:1.0 13:114.0 
-0.34019965027726 1:13.0 2:8.0 3:0.0 4:0.0 5:0.0 6:0.0 7:0.0 8:0.0 9:0.0 10:13.0 11:2.0 12:1.0 13:25.0 
-0.3403371248001182 1:23.0 2:9.0 3:0.0 4:0.0 5:0.0 6:0.0 7:0.0 8:0.0 9:0.0 10:14.0 11:1.0 12:2.0 13:18.0 
-0.278105615201928 1:4.0 2:5.0 3:0.0 4:0.0 5:0.0 6:0.0 7:0.0 8:1.0 9:0.0 10:3.0 11:2.0 12:1.0 13:535.0 
-0.10844438016628474 1:4.0 2:4.0 3:0.0 4:0.0 5:0.0 6:0.0 7:0.0 8:0.0 9:0.0 10:5.0 11:2.0 12:1.0 13:1.0 
-0.34030021617929707 1:10.0 2:1.0 3:0.0 4:0.0 5:0.0 6:0.0 7:0.0 8:1.0 9:0.0 10:1.0 11:1.0 12:124.0 13:830.0 
-0.3403795154067596 1:2.0 2:1.0 3:0.0 4:0.0 5:0.0 6:0.0 7:0.0 8:0.0 9:0.0 10:8.0 11:6.0 12:80.0 13:475.0 
-0.34051846109757555 1:14.0 2:1.0 3:0.0 4:0.0 5:0.0 6:0.0 7:0.0 8:0.0 9:0.0 10:10.0 11:1.0 12:1.0 13:80.0 
-0.34030319909946666 1:14.0 2:1.0 3:0.0 4:0.0 5:0.0 6:0.0 7:0.0 8:0.0 9:0.0 10:12.0 11:1.0 12:120.0 13:475.0 
-0.34040134226472235 1:10.0 2:17.0 3:0.0 4:0.0 5:0.0 6:0.0 7:0.0 8:1.0 9:0.0 10:1.0 11:11.0 12:1.0 13:830.0 
-0.34151681390784683 1:12.0 2:1.0 3:0.0 4:0.0 5:0.0 6:0.0 7:0.0 8:0.0 9:0.0 10:2.0 11:10.0 12:1.0 13:22.0 
-0.34027962654699395 1:9.0 2:1.0 3:0.0 4:0.0 5:0.0 6:0.0 7:0.0 8:0.0 9:0.0 10:6.0 11:3.0 12:2.0 13:340.0 
-0.3399165631060804 1:14.0 2:9.0 3:0.0 4:0.0 5:0.0 6:0.0 7:0.0 8:0.0 9:0.0 10:7.0 11:2.0 12:1.0 13:6.0 
-0.3352423227636741 1:14.0 2:9.0 3:0.0 4:0.0 5:0.0 6:0.0 7:0.0 8:0.0 9:0.0 10:8.0 11:1.0 12:1.0 13:17.0 
-0.33987330331164306 1:17.0 2:1.0 3:0.0 4:0.0 5:0.0 6:0.0 7:0.0 8:0.0 9:0.0 10:2.0 11:7.0 12:1.0 13:22.0 
-0.337888863417772 1:24.0 2:8.0 3:0.0 4:0.0 5:0.0 6:0.0 7:0.0 8:0.0 9:0.0 10:10.0 11:1.0 12:1.0 13:4.0 
-0.3398733065730409 1:4.0 2:5.0 3:0.0 4:0.0 5:0.0 6:0.0 7:0.0 8:1.0 9:0.0 10:1.0 11:1.0 12:15.0 13:1195.0 
-0.3397565282468863 1:4.0 2:4.0 3:0.0 4:0.0 5:0.0 6:0.0 7:0.0 8:0.0 9:0.0 10:22.0 11:2.0 12:86.0 13:118.0 
-0.34032108849291837 1:4.0 2:4.0 3:0.0 4:0.0 5:0.0 6:0.0 7:0.0 8:0.0 9:0.0 10:21.0 11:1.0 12:86.0 13:576.0 
-0.3397603927399082 1:1.0 2:1.0 3:1.0 4:0.0 5:0.0 6:0.0 7:0.0 8:0.0 9:0.0 10:19.0 11:3.0 12:6.0 13:96.0 
-0.3406129652595014 1:2.0 2:1.0 3:0.0 4:0.0 5:0.0 6:0.0 7:0.0 8:0.0 9:0.0 10:17.0 11:6.0 12:1.0 13:21.0 
-0.3401840935825442 1:14.0 2:9.0 3:0.0 4:0.0 5:0.0 6:0.0 7:0.0 8:0.0 9:0.0 10:5.0 11:6.0 12:1.0 13:128.0 
-0.3404247755141246 1:6.0 2:6.0 3:0.0 4:0.0 5:0.0 6:0.0 7:0.0 8:0.0 9:0.0 10:7.0 11:4.0 12:9.0 13:943.0 
-0.34016646944617746 1:5.0 2:13.0 3:0.0 4:0.0 5:0.0 6:0.0 7:0.0 8:0.0 9:0.0 10:19.0 11:1.0 12:100.0 13:1170.0 
-0.33945838581235804 1:2.0 2:2.0 3:0.0 4:0.0 5:0.0 6:0.0 7:0.0 8:0.0 9:1.0 10:21.0 11:1.0 12:1.0 13:2.0 
-0.3395801569208833 1:8.0 2:7.0 3:0.0 4:0.0 5:0.0 6:0.0 7:0.0 8:1.0 9:0.0 10:1.0 11:2.0 12:19.0 13:943.0 
-0.31081140228821413 1:2.0 2:1.0 3:0.0 4:0.0 5:0.0 6:0.0 7:0.0 8:0.0 9:0.0 10:6.0 11:3.0 12:1.0 13:23.0 
-0.34021994487057344 1:8.0 2:7.0 3:0.0 4:0.0 5:0.0 6:0.0 7:0.0 8:0.0 9:0.0 10:14.0 11:1.0 12:1.0 13:170.0 
-0.3426886480457049 1:2.0 2:1.0 3:0.0 4:0.0 5:0.0 6:0.0 7:0.0 8:0.0 9:0.0 10:16.0 11:1.0 12:1.0 13:23.0 
-0.33973276690212134 1:10.0 2:17.0 3:0.0 4:0.0 5:0.0 6:0.0 7:0.0 8:0.0 9:0.0 10:19.0 11:1.0 12:2.0 13:75.0 
-0.34040123904166236 1:20.0 2:1.0 3:0.0 4:0.0 5:1.0 6:0.0 7:0.0 8:0.0 9:0.0 10:4.0 11:2.0 12:0.0 13:475.0 
-0.3304020240975904 1:4.0 2:5.0 3:0.0 4:0.0 5:0.0 6:0.0 7:0.0 8:1.0 9:0.0 10:1.0 11:1.0 12:0.0 13:1195.0 
-0.3723061665993286 1:1.0 2:1.0 3:0.0 4:0.0 5:1.0 6:0.0 7:0.0 8:0.0 9:0.0 10:4.0 11:1.0 12:269.0 13:475.0 
-0.24877045276179643 1:23.0 2:12.0 3:0.0 4:0.0 5:0.0 6:0.0 7:0.0 8:0.0 9:0.0 10:8.0 11:2.0 12:1.0 13:5.0 
-0.3399811475692566 1:14.0 2:9.0 3:0.0 4:0.0 5:0.0 6:0.0 7:0.0 8:0.0 9:0.0 10:9.0 11:1.0 12:17.0 13:194.0 
-0.5756020517670173 1:1.0 2:1.0 3:0.0 4:0.0 5:0.0 6:0.0 7:0.0 8:0.0 9:0.0 10:7.0 11:3.0 12:1.0 13:9.0 
-0.3399891700884644 1:5.0 2:1.0 3:0.0 4:0.0 5:0.0 6:0.0 7:0.0 8:0.0 9:0.0 10:11.0 11:2.0 12:15.0 13:98.0 
-0.3234059483548308 1:7.0 2:8.0 3:0.0 4:0.0 5:0.0 6:0.0 7:0.0 8:0.0 9:0.0 10:8.0 11:2.0 12:1.0 13:8.0 
-0.7082801365337417 1:2.0 2:1.0 3:0.0 4:0.0 5:0.0 6:1.0 7:0.0 8:0.0 9:0.0 10:12.0 11:2.0 12:19.0 13:88.0 
-0.3399104374465334 1:6.0 2:6.0 3:0.0 4:0.0 5:0.0 6:0.0 7:0.0 8:0.0 9:0.0 10:2.0 11:1.0 12:3.0 13:943.0 
-0.3288515823589559 1:1.0 2:1.0 3:0.0 4:0.0 5:0.0 6:0.0 7:0.0 8:1.0 9:0.0 10:1.0 11:2.0 12:3.0 13:114.0 
-0.3769859350866214 1:1.0 2:1.0 3:0.0 4:0.0 5:0.0 6:1.0 7:0.0 8:0.0 9:0.0 10:12.0 11:1.0 12:1.0 13:5.0 
-0.34002154384059446 1:4.0 2:4.0 3:0.0 4:0.0 5:0.0 6:0.0 7:0.0 8:0.0 9:0.0 10:20.0 11:4.0 12:212.0 13:1599.0 
-0.3404088735874699 1:13.0 2:8.0 3:0.0 4:0.0 5:0.0 6:0.0 7:0.0 8:0.0 9:0.0 10:21.0 11:3.0 12:13.0 13:56.0 
-0.3402801147328632 1:12.0 2:2.0 3:0.0 4:0.0 5:0.0 6:0.0 7:0.0 8:0.0 9:0.0 10:22.0 11:2.0 12:91.0 13:405.0 
-0.3147907731228311 1:13.0 2:8.0 3:0.0 4:0.0 5:0.0 6:0.0 7:0.0 8:0.0 9:0.0 10:28.0 11:1.0 12:0.0 13:1.0 
-0.34020603268687827 1:2.0 2:13.0 3:0.0 4:0.0 5:0.0 6:0.0 7:0.0 8:0.0 9:0.0 10:9.0 11:3.0 12:2.0 13:1599.0 
-0.34032422954144553 1:25.0 2:9.0 3:0.0 4:1.0 5:0.0 6:0.0 7:0.0 8:0.0 9:0.0 10:10.0 11:2.0 12:2.0 13:715.0 
-0.340156162358222 1:14.0 2:9.0 3:0.0 4:0.0 5:0.0 6:0.0 7:0.0 8:0.0 9:0.0 10:11.0 11:1.0 12:1.0 13:202.0 
-0.33987861767338495 1:29.0 2:4.0 3:0.0 4:0.0 5:0.0 6:0.0 7:0.0 8:0.0 9:0.0 10:15.0 11:3.0 12:1.0 13:100.0 
-0.33977311979742736 1:1.0 2:4.0 3:0.0 4:0.0 5:0.0 6:0.0 7:0.0 8:0.0 9:0.0 10:13.0 11:1.0 12:1.0 13:475.0 
-0.34061263884086673 1:21.0 2:11.0 3:0.0 4:0.0 5:0.0 6:0.0 7:0.0 8:0.0 9:0.0 10:14.0 11:2.0 12:3.0 13:2207.0 
-0.3406400737806908 1:12.0 2:1.0 3:0.0 4:0.0 5:0.0 6:0.0 7:0.0 8:0.0 9:0.0 10:2.0 11:3.0 12:42.0 13:629.0 
-0.3402842562995014 1:7.0 2:5.0 3:0.0 4:0.0 5:0.0 6:0.0 7:0.0 8:1.0 9:0.0 10:1.0 11:4.0 12:37.0 13:535.0 
-0.3566423277547843 1:4.0 2:5.0 3:0.0 4:0.0 5:0.0 6:0.0 7:0.0 8:0.0 9:0.0 10:2.0 11:3.0 12:1.0 13:4.0 
-0.3403267908503426 1:6.0 2:18.0 3:0.0 4:0.0 5:0.0 6:0.0 7:0.0 8:0.0 9:0.0 10:2.0 11:2.0 12:1.0 13:3.0 
-0.2780753971073971 1:4.0 2:5.0 3:0.0 4:0.0 5:0.0 6:0.0 7:0.0 8:0.0 9:0.0 10:3.0 11:1.0 12:37.0 13:535.0 
-0.24900579708954465 1:23.0 2:12.0 3:0.0 4:0.0 5:0.0 6:0.0 7:0.0 8:0.0 9:0.0 10:8.0 11:1.0 12:1.0 13:6.0 
-0.3409195350056494 1:4.0 2:4.0 3:0.0 4:0.0 5:0.0 6:0.0 7:0.0 8:0.0 9:0.0 10:10.0 11:1.0 12:1.0 13:15.0 
-0.29985266924406373 1:4.0 2:4.0 3:0.0 4:0.0 5:0.0 6:0.0 7:0.0 8:0.0 9:0.0 10:2.0 11:2.0 12:12.0 13:100.0 
-0.34048530595851084 1:23.0 2:12.0 3:0.0 4:0.0 5:0.0 6:0.0 7:0.0 8:0.0 9:0.0 10:9.0 11:1.0 12:18.0 13:128.0 
-1.0 1:1.0 2:1.0 3:0.0 4:0.0 5:0.0 6:0.0 7:0.0 8:0.0 9:0.0 10:7.0 11:3.0 12:2.0 13:3.0 
-0.3403073917992579 1:7.0 2:4.0 3:0.0 4:0.0 5:0.0 6:0.0 7:0.0 8:1.0 9:0.0 10:1.0 11:2.0 12:17.0 13:45.0 
-0.3369025622613748 1:2.0 2:1.0 3:0.0 4:0.0 5:0.0 6:0.0 7:0.0 8:0.0 9:0.0 10:20.0 11:3.0 12:2.0 13:5.0 
-0.4004035988199668 1:2.0 2:1.0 3:0.0 4:0.0 5:0.0 6:0.0 7:0.0 8:0.0 9:0.0 10:10.0 11:2.0 12:1.0 13:37.0 
-0.06270973217700081 1:4.0 2:5.0 3:0.0 4:0.0 5:0.0 6:0.0 7:0.0 8:0.0 9:0.0 10:2.0 11:1.0 12:37.0 13:535.0 
-0.33123248859150634 1:4.0 2:5.0 3:0.0 4:0.0 5:0.0 6:0.0 7:0.0 8:1.0 9:0.0 10:1.0 11:2.0 12:1.0 13:1.0 
-0.34033644309211575 1:14.0 2:9.0 3:0.0 4:0.0 5:0.0 6:0.0 7:0.0 8:0.0 9:0.0 10:3.0 11:6.0 12:9.0 13:385.0 
-0.34019953166287276 1:14.0 2:9.0 3:0.0 4:0.0 5:0.0 6:0.0 7:0.0 8:0.0 9:0.0 10:4.0 11:5.0 12:2.0 13:31.0 
-0.3403183016451733 1:5.0 2:14.0 3:0.0 4:0.0 5:0.0 6:0.0 7:0.0 8:0.0 9:0.0 10:5.0 11:4.0 12:23.0 13:1752.0 
-0.34016252232426275 1:4.0 2:4.0 3:0.0 4:0.0 5:0.0 6:0.0 7:0.0 8:0.0 9:0.0 10:8.0 11:1.0 12:2.0 13:312.0 
-0.3403006070637417 1:22.0 2:1.0 3:1.0 4:0.0 5:0.0 6:0.0 7:0.0 8:0.0 9:0.0 10:2.0 11:7.0 12:8.0 13:138.0 
-0.3398756399033623 1:14.0 2:9.0 3:0.0 4:0.0 5:0.0 6:0.0 7:0.0 8:0.0 9:0.0 10:10.0 11:1.0 12:6.0 13:594.0 
-0.340479177187982 1:4.0 2:4.0 3:0.0 4:0.0 5:0.0 6:0.0 7:0.0 8:0.0 9:0.0 10:9.0 11:1.0 12:2.0 13:53.0 
-0.4068823645261167 1:1.0 2:1.0 3:0.0 4:0.0 5:0.0 6:0.0 7:0.0 8:0.0 9:0.0 10:3.0 11:1.0 12:1.0 13:2.0 
-0.34035988324294086 1:4.0 2:4.0 3:0.0 4:0.0 5:0.0 6:0.0 7:0.0 8:0.0 9:0.0 10:3.0 11:1.0 12:45.0 13:312.0 
-0.2983389267078718 1:2.0 2:1.0 3:0.0 4:0.0 5:0.0 6:0.0 7:0.0 8:0.0 9:0.0 10:5.0 11:2.0 12:2.0 13:24.0 
-0.30884230427610965 1:4.0 2:4.0 3:0.0 4:0.0 5:0.0 6:0.0 7:0.0 8:1.0 9:0.0 10:1.0 11:2.0 12:3.0 13:34.0 
-0.34036589855061333 1:4.0 2:4.0 3:0.0 4:0.0 5:0.0 6:0.0 7:0.0 8:0.0 9:0.0 10:2.0 11:1.0 12:45.0 13:424.0 
-0.3400860259457516 1:7.0 2:13.0 3:0.0 4:0.0 5:0.0 6:0.0 7:0.0 8:0.0 9:0.0 10:3.0 11:2.0 12:212.0 13:1599.0 
-0.339875179519107 1:7.0 2:8.0 3:0.0 4:0.0 5:0.0 6:0.0 7:0.0 8:0.0 9:0.0 10:5.0 11:3.0 12:7.0 13:25.0 
-0.3405880605885535 1:4.0 2:4.0 3:0.0 4:0.0 5:0.0 6:0.0 7:0.0 8:0.0 9:0.0 10:7.0 11:1.0 12:82.0 13:475.0 
-0.34026367781405437 1:1.0 2:1.0 3:0.0 4:0.0 5:0.0 6:1.0 7:0.0 8:0.0 9:0.0 10:3.0 11:5.0 12:13.0 13:91.0 
-0.34021299375913555 1:4.0 2:4.0 3:0.0 4:0.0 5:0.0 6:0.0 7:0.0 8:0.0 9:0.0 10:8.0 11:1.0 12:82.0 13:222.0 
-0.3400808237391482 1:23.0 2:12.0 3:0.0 4:0.0 5:0.0 6:0.0 7:0.0 8:0.0 9:0.0 10:13.0 11:1.0 12:11.0 13:148.0 
-0.33499115389549605 1:1.0 2:1.0 3:0.0 4:0.0 5:0.0 6:0.0 7:0.0 8:0.0 9:0.0 10:12.0 11:2.0 12:49.0 13:77.0 
-0.3146984567504087 1:6.0 2:6.0 3:0.0 4:0.0 5:0.0 6:0.0 7:0.0 8:0.0 9:0.0 10:6.0 11:1.0 12:3.0 13:943.0 
-0.31406235592283765 1:1.0 2:1.0 3:0.0 4:0.0 5:0.0 6:0.0 7:0.0 8:0.0 9:0.0 10:5.0 11:2.0 12:1.0 13:80.0 
-0.3403415248321531 1:12.0 2:1.0 3:0.0 4:0.0 5:0.0 6:0.0 7:0.0 8:0.0 9:0.0 10:2.0 11:7.0 12:1.0 13:10.0 
-0.3393141274157728 1:2.0 2:1.0 3:0.0 4:0.0 5:0.0 6:1.0 7:0.0 8:0.0 9:0.0 10:12.0 11:3.0 12:6.0 13:59.0 
-0.33758215497463523 1:12.0 2:4.0 3:0.0 4:0.0 5:0.0 6:0.0 7:0.0 8:0.0 9:0.0 10:16.0 11:2.0 12:3.0 13:13.0 
-0.34919091347080367 1:1.0 2:1.0 3:0.0 4:0.0 5:0.0 6:1.0 7:0.0 8:0.0 9:0.0 10:12.0 11:6.0 12:6.0 13:59.0 
-0.340324286658962 1:13.0 2:8.0 3:0.0 4:0.0 5:0.0 6:0.0 7:0.0 8:0.0 9:0.0 10:36.0 11:1.0 12:1.0 13:48.0 
-0.34052383012244913 1:1.0 2:1.0 3:0.0 4:0.0 5:0.0 6:0.0 7:0.0 8:0.0 9:0.0 10:36.0 11:2.0 12:1.0 13:31.0 
-0.3380667800091598 1:9.0 2:4.0 3:0.0 4:0.0 5:0.0 6:0.0 7:0.0 8:0.0 9:0.0 10:16.0 11:1.0 12:3.0 13:13.0 
-0.312278038874352 1:7.0 2:4.0 3:0.0 4:0.0 5:0.0 6:0.0 7:0.0 8:0.0 9:0.0 10:2.0 11:2.0 12:2.0 13:2.0 
-0.3369123677393535 1:2.0 2:2.0 3:0.0 4:0.0 5:0.0 6:0.0 7:0.0 8:0.0 9:0.0 10:12.0 11:3.0 12:1.0 13:14.0 
-0.34049948336151886 1:2.0 2:5.0 3:0.0 4:0.0 5:0.0 6:0.0 7:0.0 8:0.0 9:0.0 10:12.0 11:9.0 12:7.0 13:535.0 
-0.3399933286570623 1:2.0 2:4.0 3:0.0 4:0.0 5:0.0 6:0.0 7:0.0 8:0.0 9:0.0 10:6.0 11:6.0 12:3.0 13:34.0 
-0.3405488170533001 1:5.0 2:4.0 3:0.0 4:0.0 5:0.0 6:0.0 7:0.0 8:0.0 9:0.0 10:9.0 11:3.0 12:8.0 13:306.0 
-0.3402129937592059 1:1.0 2:9.0 3:0.0 4:0.0 5:0.0 6:0.0 7:0.0 8:0.0 9:0.0 10:13.0 11:1.0 12:22.0 13:1599.0 
-0.341131953939062 1:5.0 2:1.0 3:0.0 4:0.0 5:0.0 6:0.0 7:0.0 8:0.0 9:0.0 10:15.0 11:3.0 12:1.0 13:1.0 
-0.3345591787712882 1:13.0 2:8.0 3:0.0 4:0.0 5:0.0 6:0.0 7:0.0 8:0.0 9:0.0 10:6.0 11:1.0 12:0.0 13:0.0 
-0.3401548856353549 1:6.0 2:6.0 3:0.0 4:0.0 5:0.0 6:0.0 7:0.0 8:0.0 9:0.0 10:8.0 11:1.0 12:66.0 13:122.0 
-0.3405981209619732 1:1.0 2:1.0 3:0.0 4:0.0 5:0.0 6:0.0 7:0.0 8:0.0 9:0.0 10:20.0 11:1.0 12:33.0 13:79.0 
-0.3080916667275814 1:2.0 2:4.0 3:0.0 4:0.0 5:0.0 6:0.0 7:0.0 8:0.0 9:0.0 10:2.0 11:3.0 12:1.0 13:1.0 
-0.32336247627964976 1:2.0 2:4.0 3:0.0 4:0.0 5:0.0 6:0.0 7:0.0 8:0.0 9:0.0 10:4.0 11:1.0 12:1.0 13:12.0 
-0.34061306908607014 1:5.0 2:9.0 3:0.0 4:0.0 5:0.0 6:0.0 7:0.0 8:0.0 9:0.0 10:7.0 11:2.0 12:3.0 13:194.0 
-0.3402060338408048 1:5.0 2:19.0 3:0.0 4:0.0 5:0.0 6:0.0 7:0.0 8:0.0 9:0.0 10:8.0 11:3.0 12:1.0 13:20.0 
-0.33690316199203885 1:7.0 2:13.0 3:0.0 4:0.0 5:0.0 6:0.0 7:0.0 8:0.0 9:0.0 10:3.0 11:2.0 12:59.0 13:1170.0 
-0.34030209854982846 1:4.0 2:4.0 3:0.0 4:0.0 5:0.0 6:0.0 7:0.0 8:0.0 9:0.0 10:9.0 11:4.0 12:10.0 13:93.0 
-0.40930780328623234 1:2.0 2:1.0 3:0.0 4:0.0 5:0.0 6:0.0 7:0.0 8:0.0 9:0.0 10:4.0 11:1.0 12:0.0 13:2.0 
-0.34015499523483544 1:7.0 2:4.0 3:0.0 4:0.0 5:0.0 6:0.0 7:0.0 8:1.0 9:0.0 10:1.0 11:2.0 12:10.0 13:214.0 
-0.34021299375920594 1:10.0 2:11.0 3:0.0 4:0.0 5:0.0 6:0.0 7:0.0 8:0.0 9:0.0 10:2.0 11:1.0 12:119.0 13:2207.0 
-0.34046881416509944 1:7.0 2:4.0 3:0.0 4:0.0 5:0.0 6:0.0 7:0.0 8:0.0 9:0.0 10:3.0 11:2.0 12:10.0 13:51.0 
-0.1653554467029928 1:1.0 2:1.0 3:0.0 4:0.0 5:0.0 6:0.0 7:0.0 8:0.0 9:0.0 10:8.0 11:1.0 12:269.0 13:475.0 
-0.34035604632011235 1:2.0 2:1.0 3:0.0 4:0.0 5:0.0 6:0.0 7:0.0 8:0.0 9:0.0 10:9.0 11:2.0 12:12.0 13:49.0 
-0.337233405446704 1:1.0 2:1.0 3:0.0 4:0.0 5:0.0 6:0.0 7:0.0 8:0.0 9:0.0 10:17.0 11:3.0 12:3.0 13:15.0 
-0.3397678123156783 1:14.0 2:1.0 3:0.0 4:0.0 5:0.0 6:0.0 7:0.0 8:0.0 9:0.0 10:23.0 11:1.0 12:1.0 13:3.0 
-0.293685681535143 1:1.0 2:1.0 3:0.0 4:0.0 5:0.0 6:0.0 7:0.0 8:0.0 9:0.0 10:10.0 11:4.0 12:49.0 13:77.0 
-0.29971235802661994 1:6.0 2:6.0 3:0.0 4:0.0 5:0.0 6:0.0 7:0.0 8:0.0 9:0.0 10:12.0 11:2.0 12:46.0 13:114.0 
-0.3406579058586573 1:4.0 2:4.0 3:0.0 4:0.0 5:0.0 6:0.0 7:0.0 8:0.0 9:0.0 10:21.0 11:1.0 12:5.0 13:148.0 
-0.34016633188160555 1:1.0 2:1.0 3:0.0 4:0.0 5:0.0 6:0.0 7:0.0 8:0.0 9:0.0 10:19.0 11:3.0 12:41.0 13:374.0 
-1.0 1:2.0 2:1.0 3:0.0 4:0.0 5:0.0 6:0.0 7:0.0 8:0.0 9:0.0 10:5.0 11:3.0 12:1.0 13:5.0 
-0.3397587320403812 1:7.0 2:13.0 3:0.0 4:0.0 5:0.0 6:0.0 7:0.0 8:1.0 9:0.0 10:1.0 11:2.0 12:198.0 13:1599.0 
-0.3397591937469204 1:2.0 2:1.0 3:0.0 4:0.0 5:0.0 6:0.0 7:0.0 8:0.0 9:0.0 10:9.0 11:6.0 12:57.0 13:374.0 
-0.33998447218984246 1:10.0 2:17.0 3:0.0 4:0.0 5:0.0 6:0.0 7:0.0 8:1.0 9:0.0 10:1.0 11:3.0 12:45.0 13:703.0 
-0.331271989353898 1:4.0 2:5.0 3:0.0 4:0.0 5:0.0 6:0.0 7:0.0 8:0.0 9:0.0 10:2.0 11:2.0 12:2.0 13:32.0 
-0.33998114756925657 1:4.0 2:5.0 3:0.0 4:0.0 5:0.0 6:0.0 7:0.0 8:0.0 9:0.0 10:3.0 11:1.0 12:70.0 13:1195.0 
-0.340467308639704 1:13.0 2:4.0 3:0.0 4:0.0 5:0.0 6:0.0 7:0.0 8:0.0 9:0.0 10:10.0 11:1.0 12:0.0 13:44.0 
-0.3140625592373965 1:13.0 2:8.0 3:0.0 4:0.0 5:0.0 6:0.0 7:0.0 8:0.0 9:0.0 10:6.0 11:1.0 12:1.0 13:289.0 
-0.34002440643293563 1:14.0 2:1.0 3:1.0 4:0.0 5:0.0 6:0.0 7:0.0 8:0.0 9:0.0 10:23.0 11:2.0 12:2.0 13:26.0 
-0.34002639273399216 1:1.0 2:1.0 3:0.0 4:0.0 5:0.0 6:0.0 7:0.0 8:0.0 9:0.0 10:12.0 11:1.0 12:1.0 13:43.0 
-0.3405880607440418 1:13.0 2:5.0 3:0.0 4:0.0 5:0.0 6:0.0 7:0.0 8:1.0 9:0.0 10:1.0 11:2.0 12:0.0 13:535.0 
-0.3402484296130234 1:12.0 2:1.0 3:0.0 4:0.0 5:0.0 6:0.0 7:0.0 8:0.0 9:0.0 10:8.0 11:2.0 12:3.0 13:113.0 
-0.34037868990104875 1:4.0 2:13.0 3:0.0 4:0.0 5:0.0 6:0.0 7:0.0 8:0.0 9:0.0 10:6.0 11:1.0 12:122.0 13:1599.0 
-0.34062192771949373 1:10.0 2:17.0 3:0.0 4:0.0 5:0.0 6:0.0 7:0.0 8:0.0 9:0.0 10:11.0 11:3.0 12:2.0 13:191.0 
-0.3401551227826314 1:7.0 2:13.0 3:0.0 4:0.0 5:0.0 6:0.0 7:0.0 8:0.0 9:0.0 10:12.0 11:2.0 12:8.0 13:1170.0 
-0.37052206298249624 1:11.0 2:1.0 3:0.0 4:0.0 5:0.0 6:0.0 7:0.0 8:0.0 9:0.0 10:15.0 11:1.0 12:1.0 13:10.0 
-0.34046863755114576 1:4.0 2:4.0 3:0.0 4:0.0 5:0.0 6:0.0 7:0.0 8:0.0 9:0.0 10:3.0 11:1.0 12:8.0 13:148.0 
-0.3068406510365166 1:1.0 2:1.0 3:0.0 4:0.0 5:0.0 6:0.0 7:0.0 8:0.0 9:0.0 10:7.0 11:2.0 12:149.0 13:374.0 
-0.34046374081010133 1:13.0 2:8.0 3:0.0 4:0.0 5:0.0 6:0.0 7:0.0 8:0.0 9:0.0 10:6.0 11:6.0 12:1.0 13:289.0 
-0.3404729712259929 1:7.0 2:6.0 3:0.0 4:0.0 5:0.0 6:0.0 7:0.0 8:0.0 9:0.0 10:10.0 11:2.0 12:2.0 13:101.0 
-0.3404840642407069 1:2.0 2:1.0 3:0.0 4:0.0 5:0.0 6:0.0 7:0.0 8:0.0 9:0.0 10:22.0 11:10.0 12:1.0 13:171.0 
-0.34049844563233117 1:26.0 2:1.0 3:0.0 4:0.0 5:0.0 6:0.0 7:0.0 8:0.0 9:0.0 10:4.0 11:3.0 12:2.0 13:24.0 
-0.340328502890061 1:10.0 2:20.0 3:0.0 4:0.0 5:0.0 6:0.0 7:0.0 8:0.0 9:0.0 10:2.0 11:1.0 12:10.0 13:548.0 
-0.3401416223445185 1:2.0 2:1.0 3:0.0 4:0.0 5:0.0 6:0.0 7:0.0 8:0.0 9:0.0 10:22.0 11:5.0 12:1.0 13:171.0 
-0.33967069966580493 1:13.0 2:8.0 3:0.0 4:0.0 5:0.0 6:0.0 7:0.0 8:0.0 9:0.0 10:14.0 11:3.0 12:1.0 13:34.0 
-0.33999058337754096 1:7.0 2:12.0 3:0.0 4:0.0 5:0.0 6:0.0 7:0.0 8:0.0 9:0.0 10:15.0 11:2.0 12:1.0 13:9.0 
-0.3239175335336641 1:1.0 2:1.0 3:0.0 4:0.0 5:0.0 6:0.0 7:0.0 8:0.0 9:0.0 10:22.0 11:2.0 12:130.0 13:171.0 
-1.0 1:4.0 2:4.0 3:1.0 4:0.0 5:0.0 6:0.0 7:0.0 8:0.0 9:0.0 10:6.0 11:1.0 12:41.0 13:113.0 
-0.6650305546090101 1:1.0 2:1.0 3:0.0 4:0.0 5:0.0 6:0.0 7:0.0 8:0.0 9:0.0 10:5.0 11:2.0 12:149.0 13:374.0 
-0.3348160433466237 1:1.0 2:1.0 3:0.0 4:0.0 5:0.0 6:0.0 7:0.0 8:0.0 9:0.0 10:2.0 11:2.0 12:1.0 13:4.0 
-0.3402982397355222 1:2.0 2:1.0 3:0.0 4:0.0 5:0.0 6:0.0 7:0.0 8:0.0 9:0.0 10:11.0 11:5.0 12:3.0 13:8.0 
-0.3401552637293151 1:10.0 2:17.0 3:0.0 4:0.0 5:0.0 6:0.0 7:0.0 8:0.0 9:0.0 10:8.0 11:1.0 12:55.0 13:703.0 
-0.34069896280835404 1:11.0 2:1.0 3:0.0 4:0.0 5:0.0 6:0.0 7:0.0 8:0.0 9:0.0 10:11.0 11:2.0 12:4.0 13:8.0 
-0.3403329200770931 1:10.0 2:20.0 3:0.0 4:0.0 5:0.0 6:0.0 7:0.0 8:0.0 9:0.0 10:10.0 11:1.0 12:13.0 13:116.0 
-0.340381839914749 1:1.0 2:1.0 3:0.0 4:0.0 5:0.0 6:0.0 7:0.0 8:0.0 9:0.0 10:22.0 11:1.0 12:8.0 13:21.0 
-0.34065543226628453 1:2.0 2:1.0 3:0.0 4:0.0 5:0.0 6:0.0 7:0.0 8:0.0 9:0.0 10:22.0 11:13.0 12:3.0 13:5.0 
-0.3401549160187362 1:13.0 2:8.0 3:0.0 4:0.0 5:0.0 6:0.0 7:0.0 8:0.0 9:0.0 10:10.0 11:11.0 12:0.0 13:0.0 
-0.3403083058537097 1:12.0 2:1.0 3:0.0 4:0.0 5:0.0 6:0.0 7:0.0 8:0.0 9:0.0 10:12.0 11:9.0 12:47.0 13:463.0 
-0.3402009439077123 1:27.0 2:1.0 3:0.0 4:0.0 5:0.0 6:0.0 7:0.0 8:0.0 9:0.0 10:15.0 11:6.0 12:3.0 13:24.0 
-0.3199471095427115 1:2.0 2:1.0 3:0.0 4:0.0 5:0.0 6:0.0 7:0.0 8:0.0 9:0.0 10:22.0 11:1.0 12:1.0 13:5.0 
-0.3399888311244733 1:1.0 2:1.0 3:0.0 4:0.0 5:0.0 6:0.0 7:0.0 8:0.0 9:0.0 10:3.0 11:1.0 12:13.0 13:475.0 
-0.3404379801292635 1:4.0 2:4.0 3:0.0 4:0.0 5:0.0 6:0.0 7:0.0 8:0.0 9:0.0 10:8.0 11:2.0 12:2.0 13:405.0 
-0.34048779172386273 1:7.0 2:13.0 3:0.0 4:0.0 5:0.0 6:0.0 7:0.0 8:0.0 9:0.0 10:10.0 11:2.0 12:95.0 13:1599.0 
-0.3397799494737617 1:2.0 2:1.0 3:0.0 4:0.0 5:0.0 6:0.0 7:0.0 8:0.0 9:0.0 10:19.0 11:7.0 12:2.0 13:14.0 
-0.34032627819117234 1:13.0 2:8.0 3:0.0 4:0.0 5:0.0 6:0.0 7:0.0 8:0.0 9:0.0 10:22.0 11:4.0 12:3.0 13:41.0 
-0.34061217108030223 1:7.0 2:8.0 3:0.0 4:0.0 5:0.0 6:0.0 7:0.0 8:0.0 9:0.0 10:24.0 11:2.0 12:1.0 13:5.0 
-0.34061480536425565 1:1.0 2:1.0 3:0.0 4:0.0 5:0.0 6:0.0 7:1.0 8:0.0 9:0.0 10:21.0 11:4.0 12:5.0 13:46.0 
-0.3400136700365471 1:2.0 2:1.0 3:0.0 4:0.0 5:0.0 6:0.0 7:0.0 8:0.0 9:0.0 10:39.0 11:1.0 12:6.0 13:114.0 
-0.3402149704117098 1:2.0 2:10.0 3:0.0 4:0.0 5:0.0 6:0.0 7:0.0 8:0.0 9:0.0 10:16.0 11:6.0 12:28.0 13:211.0 
-0.340326230893442 1:15.0 2:15.0 3:0.0 4:0.0 5:0.0 6:0.0 7:0.0 8:0.0 9:0.0 10:17.0 11:5.0 12:165.0 13:1479.0 
-0.3403408211994375 1:6.0 2:6.0 3:0.0 4:0.0 5:0.0 6:0.0 7:0.0 8:0.0 9:0.0 10:19.0 11:3.0 12:102.0 13:425.0 
-0.34009858895888334 1:7.0 2:8.0 3:0.0 4:0.0 5:0.0 6:0.0 7:0.0 8:0.0 9:0.0 10:20.0 11:2.0 12:0.0 13:0.0 
-0.3403432907484946 1:17.0 2:1.0 3:0.0 4:0.0 5:0.0 6:0.0 7:0.0 8:0.0 9:0.0 10:4.0 11:18.0 12:15.0 13:181.0 
-0.34030853101566105 1:4.0 2:5.0 3:0.0 4:0.0 5:0.0 6:0.0 7:0.0 8:0.0 9:0.0 10:33.0 11:2.0 12:84.0 13:1195.0 
-0.34032422954215086 1:13.0 2:8.0 3:0.0 4:0.0 5:0.0 6:0.0 7:0.0 8:0.0 9:0.0 10:34.0 11:1.0 12:9.0 13:58.0 
-0.2940750653704109 1:4.0 2:4.0 3:0.0 4:0.0 5:0.0 6:0.0 7:0.0 8:1.0 9:0.0 10:1.0 11:1.0 12:1.0 13:10.0 
-0.34065274857554667 1:2.0 2:1.0 3:0.0 4:0.0 5:0.0 6:0.0 7:0.0 8:0.0 9:0.0 10:10.0 11:8.0 12:5.0 13:300.0 
-0.3405608478922366 1:9.0 2:1.0 3:0.0 4:0.0 5:0.0 6:0.0 7:0.0 8:0.0 9:0.0 10:27.0 11:1.0 12:81.0 13:92.0 
-0.3401726169229542 1:2.0 2:4.0 3:0.0 4:0.0 5:0.0 6:0.0 7:0.0 8:0.0 9:0.0 10:22.0 11:6.0 12:2.0 13:2.0 
-0.3401550082625738 1:5.0 2:19.0 3:0.0 4:0.0 5:0.0 6:0.0 7:0.0 8:0.0 9:0.0 10:23.0 11:5.0 12:1.0 13:2.0 
-0.3401551227826313 1:14.0 2:9.0 3:0.0 4:0.0 5:0.0 6:0.0 7:0.0 8:0.0 9:0.0 10:24.0 11:3.0 12:16.0 13:48.0 
-0.3402644767893933 1:11.0 2:5.0 3:0.0 4:0.0 5:0.0 6:0.0 7:0.0 8:0.0 9:0.0 10:26.0 11:2.0 12:10.0 13:32.0 
-0.3397326926723386 1:17.0 2:1.0 3:0.0 4:0.0 5:0.0 6:0.0 7:0.0 8:0.0 9:0.0 10:11.0 11:17.0 12:127.0 13:475.0 
-0.34223551553662984 1:1.0 2:1.0 3:0.0 4:0.0 5:0.0 6:0.0 7:0.0 8:0.0 9:0.0 10:28.0 11:5.0 12:2.0 13:3.0 
-0.3397748387207304 1:2.0 2:2.0 3:0.0 4:0.0 5:0.0 6:0.0 7:0.0 8:0.0 9:0.0 10:9.0 11:1.0 12:46.0 13:405.0 
-0.3406458284041589 1:5.0 2:4.0 3:0.0 4:0.0 5:0.0 6:0.0 7:0.0 8:0.0 9:0.0 10:23.0 11:9.0 12:1.0 13:1.0 
-0.340387681696277 1:10.0 2:20.0 3:0.0 4:0.0 5:0.0 6:0.0 7:0.0 8:0.0 9:0.0 10:15.0 11:1.0 12:13.0 13:171.0 
-0.3393228994457031 1:4.0 2:4.0 3:0.0 4:0.0 5:0.0 6:0.0 7:0.0 8:0.0 9:0.0 10:31.0 11:1.0 12:1.0 13:3.0 
-1.0 1:1.0 2:1.0 3:0.0 4:0.0 5:0.0 6:0.0 7:0.0 8:0.0 9:0.0 10:3.0 11:1.0 12:182.0 13:278.0 
-0.33989448188295435 1:2.0 2:5.0 3:0.0 4:0.0 5:0.0 6:0.0 7:0.0 8:0.0 9:0.0 10:2.0 11:2.0 12:105.0 13:535.0 
-0.34000378530001024 1:22.0 2:2.0 3:1.0 4:0.0 5:0.0 6:0.0 7:0.0 8:0.0 9:0.0 10:5.0 11:1.0 12:5.0 13:7.0 
-0.3398392444288736 1:17.0 2:2.0 3:0.0 4:0.0 5:0.0 6:0.0 7:0.0 8:0.0 9:0.0 10:9.0 11:5.0 12:123.0 13:405.0 
-0.3404798849121507 1:17.0 2:1.0 3:0.0 4:0.0 5:0.0 6:0.0 7:0.0 8:0.0 9:0.0 10:12.0 11:8.0 12:3.0 13:8.0 
-0.3406126388408667 1:5.0 2:1.0 3:0.0 4:0.0 5:0.0 6:0.0 7:0.0 8:0.0 9:0.0 10:28.0 11:24.0 12:16.0 13:60.0 
-0.3398678705614754 1:4.0 2:4.0 3:0.0 4:0.0 5:0.0 6:0.0 7:0.0 8:0.0 9:0.0 10:34.0 11:1.0 12:1.0 13:1.0 
-0.3404416393794617 1:1.0 2:1.0 3:0.0 4:0.0 5:0.0 6:0.0 7:0.0 8:0.0 9:0.0 10:4.0 11:1.0 12:21.0 13:92.0 
-0.34019608483972263 1:8.0 2:4.0 3:0.0 4:0.0 5:0.0 6:0.0 7:0.0 8:0.0 9:0.0 10:11.0 11:1.0 12:1.0 13:24.0 
-0.34135078095769655 1:1.0 2:1.0 3:0.0 4:0.0 5:0.0 6:0.0 7:0.0 8:0.0 9:0.0 10:14.0 11:3.0 12:7.0 13:12.0 
-0.3403413424565913 1:14.0 2:1.0 3:0.0 4:0.0 5:0.0 6:0.0 7:0.0 8:0.0 9:0.0 10:5.0 11:3.0 12:1.0 13:36.0 
-0.3108615780453686 1:4.0 2:4.0 3:0.0 4:0.0 5:0.0 6:0.0 7:0.0 8:1.0 9:0.0 10:1.0 11:1.0 12:1.0 13:34.0 
-0.34033936957197836 1:12.0 2:1.0 3:0.0 4:0.0 5:0.0 6:0.0 7:0.0 8:0.0 9:0.0 10:11.0 11:2.0 12:5.0 13:102.0 
-0.34017270639015396 1:1.0 2:1.0 3:0.0 4:0.0 5:0.0 6:0.0 7:0.0 8:0.0 9:0.0 10:2.0 11:1.0 12:6.0 13:130.0 
-0.3404361144333011 1:29.0 2:1.0 3:0.0 4:0.0 5:0.0 6:0.0 7:0.0 8:0.0 9:0.0 10:12.0 11:3.0 12:1.0 13:1.0 
-0.3404704537012759 1:1.0 2:1.0 3:0.0 4:0.0 5:0.0 6:1.0 7:0.0 8:0.0 9:0.0 10:19.0 11:1.0 12:3.0 13:130.0 
-0.6636554221641269 1:1.0 2:1.0 3:0.0 4:0.0 5:0.0 6:0.0 7:0.0 8:0.0 9:0.0 10:12.0 11:1.0 12:1.0 13:1.0 
-0.34015079167092016 1:7.0 2:5.0 3:0.0 4:0.0 5:0.0 6:0.0 7:0.0 8:0.0 9:0.0 10:10.0 11:2.0 12:4.0 13:1195.0 
-0.34032174753773786 1:2.0 2:1.0 3:0.0 4:0.0 5:0.0 6:0.0 7:0.0 8:0.0 9:0.0 10:39.0 11:17.0 12:1.0 13:483.0 
-0.33360369082981983 1:1.0 2:1.0 3:0.0 4:0.0 5:0.0 6:0.0 7:0.0 8:0.0 9:0.0 10:23.0 11:1.0 12:1.0 13:1.0 
-0.33968954274913815 1:17.0 2:1.0 3:0.0 4:0.0 5:0.0 6:0.0 7:0.0 8:0.0 9:0.0 10:38.0 11:2.0 12:1.0 13:3.0 
-0.33971342302437796 1:1.0 2:1.0 3:0.0 4:0.0 5:0.0 6:0.0 7:0.0 8:0.0 9:0.0 10:39.0 11:1.0 12:69.0 13:483.0 
-0.3404680627392688 1:13.0 2:8.0 3:0.0 4:0.0 5:0.0 6:0.0 7:0.0 8:0.0 9:0.0 10:22.0 11:2.0 12:1.0 13:8.0 
-0.3685893918422597 1:4.0 2:4.0 3:0.0 4:0.0 5:0.0 6:0.0 7:0.0 8:0.0 9:0.0 10:23.0 11:1.0 12:1.0 13:1.0 
-0.34063521038324857 1:1.0 2:1.0 3:0.0 4:0.0 5:0.0 6:0.0 7:0.0 8:0.0 9:0.0 10:20.0 11:4.0 12:15.0 13:19.0 
-0.33998911204148635 1:7.0 2:13.0 3:0.0 4:0.0 5:0.0 6:0.0 7:0.0 8:0.0 9:0.0 10:33.0 11:2.0 12:13.0 13:1599.0 
-0.3404519062851988 1:2.0 2:1.0 3:0.0 4:0.0 5:0.0 6:0.0 7:0.0 8:0.0 9:0.0 10:37.0 11:2.0 12:2.0 13:70.0 
-0.28891703447270994 1:1.0 2:1.0 3:0.0 4:0.0 5:0.0 6:0.0 7:0.0 8:0.0 9:0.0 10:11.0 11:1.0 12:269.0 13:475.0 
-0.3401905953713367 1:2.0 2:1.0 3:0.0 4:0.0 5:0.0 6:1.0 7:0.0 8:0.0 9:0.0 10:10.0 11:5.0 12:30.0 13:278.0 
-0.3401995343191095 1:1.0 2:1.0 3:0.0 4:0.0 5:0.0 6:0.0 7:0.0 8:0.0 9:0.0 10:9.0 11:4.0 12:82.0 13:830.0 
-0.33996613087956257 1:1.0 2:1.0 3:0.0 4:0.0 5:0.0 6:0.0 7:0.0 8:0.0 9:0.0 10:2.0 11:1.0 12:0.0 13:9.0 
-0.31387802433380135 1:2.0 2:1.0 3:0.0 4:0.0 5:0.0 6:0.0 7:0.0 8:0.0 9:0.0 10:5.0 11:2.0 12:0.0 13:18.0 
-0.32336992534958386 1:13.0 2:8.0 3:0.0 4:0.0 5:0.0 6:0.0 7:0.0 8:0.0 9:0.0 10:11.0 11:2.0 12:4.0 13:5.0 
-0.3397565282468863 1:23.0 2:12.0 3:0.0 4:0.0 5:0.0 6:0.0 7:0.0 8:0.0 9:0.0 10:12.0 11:1.0 12:27.0 13:48.0 
-0.34034681581331117 1:2.0 2:1.0 3:0.0 4:0.0 5:0.0 6:0.0 7:0.0 8:0.0 9:0.0 10:14.0 11:1.0 12:51.0 13:128.0 
-0.3397327669021213 1:12.0 2:1.0 3:0.0 4:0.0 5:0.0 6:0.0 7:0.0 8:0.0 9:0.0 10:14.0 11:4.0 12:12.0 13:128.0 
-0.34035616382211403 1:1.0 2:1.0 3:0.0 4:0.0 5:0.0 6:0.0 7:0.0 8:0.0 9:0.0 10:21.0 11:1.0 12:21.0 13:92.0 
-0.3301358842376025 1:4.0 2:5.0 3:0.0 4:0.0 5:0.0 6:0.0 7:0.0 8:0.0 9:0.0 10:3.0 11:2.0 12:1.0 13:1195.0 
-0.3402383614655741 1:13.0 2:4.0 3:0.0 4:0.0 5:0.0 6:0.0 7:0.0 8:0.0 9:0.0 10:4.0 11:1.0 12:2.0 13:43.0 
-0.2996993512264561 1:4.0 2:4.0 3:0.0 4:0.0 5:0.0 6:0.0 7:0.0 8:0.0 9:0.0 10:2.0 11:4.0 12:12.0 13:100.0 
-0.3397945746074332 1:23.0 2:12.0 3:0.0 4:0.0 5:0.0 6:0.0 7:0.0 8:0.0 9:0.0 10:3.0 11:1.0 12:9.0 13:24.0 
-0.3443716967316133 1:13.0 2:4.0 3:0.0 4:0.0 5:0.0 6:0.0 7:0.0 8:0.0 9:0.0 10:2.0 11:1.0 12:1.0 13:2.0 
-0.34035413126656716 1:2.0 2:1.0 3:0.0 4:0.0 5:0.0 6:0.0 7:0.0 8:0.0 9:0.0 10:6.0 11:4.0 12:1.0 13:374.0 
-0.3404124545123664 1:13.0 2:4.0 3:0.0 4:0.0 5:0.0 6:0.0 7:0.0 8:1.0 9:0.0 10:1.0 11:1.0 12:1.0 13:10.0 
-0.34043308133004446 1:17.0 2:1.0 3:0.0 4:0.0 5:0.0 6:0.0 7:0.0 8:0.0 9:0.0 10:6.0 11:4.0 12:2.0 13:374.0 
-0.33742512060991453 1:24.0 2:6.0 3:0.0 4:0.0 5:0.0 6:0.0 7:0.0 8:0.0 9:1.0 10:11.0 11:1.0 12:1.0 13:2.0 
-0.3404798294791034 1:10.0 2:17.0 3:0.0 4:0.0 5:0.0 6:0.0 7:0.0 8:0.0 9:0.0 10:13.0 11:3.0 12:3.0 13:830.0 
-0.3405893208193568 1:7.0 2:13.0 3:0.0 4:0.0 5:0.0 6:0.0 7:0.0 8:0.0 9:0.0 10:14.0 11:2.0 12:3.0 13:510.0 
-0.3403795155626133 1:11.0 2:1.0 3:0.0 4:0.0 5:0.0 6:0.0 7:0.0 8:0.0 9:0.0 10:21.0 11:5.0 12:2.0 13:451.0 
-0.3401122081469413 1:14.0 2:9.0 3:0.0 4:0.0 5:0.0 6:0.0 7:0.0 8:0.0 9:0.0 10:12.0 11:9.0 12:8.0 13:71.0 
-0.33893413971076564 1:11.0 2:4.0 3:0.0 4:0.0 5:0.0 6:0.0 7:0.0 8:0.0 9:0.0 10:16.0 11:5.0 12:2.0 13:12.0 
-0.3403217475386859 1:5.0 2:9.0 3:0.0 4:0.0 5:0.0 6:0.0 7:0.0 8:0.0 9:0.0 10:17.0 11:4.0 12:30.0 13:194.0 
-0.34067456796351686 1:17.0 2:1.0 3:0.0 4:0.0 5:0.0 6:0.0 7:0.0 8:0.0 9:0.0 10:6.0 11:15.0 12:8.0 13:66.0 
-0.34158919491442924 1:2.0 2:1.0 3:0.0 4:0.0 5:0.0 6:1.0 7:0.0 8:0.0 9:0.0 10:8.0 11:4.0 12:28.0 13:517.0 
-0.3405624296407032 1:6.0 2:6.0 3:0.0 4:0.0 5:0.0 6:0.0 7:0.0 8:0.0 9:0.0 10:9.0 11:1.0 12:21.0 13:943.0 
-0.324050233865138 1:2.0 2:2.0 3:0.0 4:0.0 5:0.0 6:0.0 7:0.0 8:0.0 9:0.0 10:5.0 11:1.0 12:0.0 13:20.0 
-0.3201574733564734 1:7.0 2:5.0 3:0.0 4:0.0 5:0.0 6:0.0 7:0.0 8:0.0 9:0.0 10:2.0 11:2.0 12:0.0 13:1.0 
-0.3413954301618213 1:2.0 2:1.0 3:0.0 4:0.0 5:0.0 6:0.0 7:0.0 8:0.0 9:0.0 10:18.0 11:4.0 12:1.0 13:1.0 
-0.3242446324732348 1:4.0 2:4.0 3:0.0 4:0.0 5:0.0 6:0.0 7:0.0 8:0.0 9:0.0 10:14.0 11:1.0 12:1.0 13:34.0 
-0.20996359331797537 1:1.0 2:1.0 3:0.0 4:0.0 5:0.0 6:0.0 7:0.0 8:0.0 9:0.0 10:1.0 11:1.0 12:269.0 13:475.0 
-0.3396600269030523 1:4.0 2:4.0 3:0.0 4:0.0 5:0.0 6:0.0 7:0.0 8:0.0 9:0.0 10:9.0 11:1.0 12:3.0 13:34.0 
-0.3000608197849626 1:7.0 2:5.0 3:0.0 4:0.0 5:0.0 6:0.0 7:0.0 8:1.0 9:0.0 10:1.0 11:2.0 12:6.0 13:535.0 
-0.3404351947093716 1:26.0 2:1.0 3:0.0 4:0.0 5:0.0 6:0.0 7:0.0 8:0.0 9:0.0 10:20.0 11:14.0 12:6.0 13:181.0 
-0.3403244588237754 1:5.0 2:10.0 3:0.0 4:0.0 5:0.0 6:0.0 7:0.0 8:0.0 9:0.0 10:26.0 11:8.0 12:2.0 13:25.0 
-0.3399608326397992 1:26.0 2:1.0 3:0.0 4:0.0 5:0.0 6:0.0 7:0.0 8:0.0 9:0.0 10:30.0 11:4.0 12:9.0 13:164.0 
-0.34015531082932693 1:17.0 2:2.0 3:1.0 4:0.0 5:0.0 6:0.0 7:0.0 8:0.0 9:0.0 10:34.0 11:27.0 12:3.0 13:39.0 
-0.3399658151734583 1:17.0 2:1.0 3:0.0 4:0.0 5:0.0 6:0.0 7:0.0 8:0.0 9:0.0 10:36.0 11:2.0 12:1.0 13:6.0 
-0.3397153323146639 1:17.0 2:1.0 3:0.0 4:0.0 5:0.0 6:0.0 7:0.0 8:0.0 9:0.0 10:57.0 11:23.0 12:4.0 13:39.0 
-0.3304231628503855 1:12.0 2:1.0 3:0.0 4:0.0 5:0.0 6:0.0 7:0.0 8:0.0 9:0.0 10:40.0 11:12.0 12:3.0 13:90.0 
-0.3404688120668329 1:1.0 2:1.0 3:0.0 4:0.0 5:0.0 6:0.0 7:0.0 8:0.0 9:0.0 10:36.0 11:16.0 12:1.0 13:6.0 
-0.3406103389688818 1:17.0 2:1.0 3:0.0 4:0.0 5:0.0 6:0.0 7:0.0 8:0.0 9:0.0 10:65.0 11:21.0 12:17.0 13:587.0 
-0.3401651224439709 1:14.0 2:9.0 3:0.0 4:0.0 5:0.0 6:0.0 7:0.0 8:0.0 9:0.0 10:75.0 11:2.0 12:32.0 13:594.0 
-0.3398392444288737 1:17.0 2:3.0 3:0.0 4:0.0 5:0.0 6:0.0 7:0.0 8:0.0 9:0.0 10:7.0 11:70.0 12:28.0 13:844.0 
-0.3000585908279018 1:17.0 2:4.0 3:0.0 4:0.0 5:0.0 6:0.0 7:0.0 8:0.0 9:0.0 10:68.0 11:2.0 12:0.0 13:5.0 
-0.340326230893442 1:16.0 2:16.0 3:0.0 4:0.0 5:0.0 6:0.0 7:0.0 8:0.0 9:0.0 10:69.0 11:1.0 12:1.0 13:191.0 
-0.29980165761772076 1:17.0 2:4.0 3:0.0 4:0.0 5:0.0 6:0.0 7:0.0 8:0.0 9:0.0 10:70.0 11:2.0 12:0.0 13:5.0 
-0.7194779834136215 1:1.0 2:1.0 3:0.0 4:0.0 5:0.0 6:0.0 7:0.0 8:0.0 9:0.0 10:4.0 11:1.0 12:130.0 13:171.0 
-0.3403234083804119 1:1.0 2:1.0 3:0.0 4:0.0 5:0.0 6:0.0 7:0.0 8:0.0 9:1.0 10:6.0 11:1.0 12:26.0 13:171.0 
-0.3402773935543227 1:14.0 2:9.0 3:0.0 4:0.0 5:0.0 6:0.0 7:0.0 8:1.0 9:0.0 10:1.0 11:1.0 12:1.0 13:8.0 
-0.34021688538082073 1:18.0 2:1.0 3:0.0 4:0.0 5:0.0 6:0.0 7:0.0 8:0.0 9:0.0 10:4.0 11:3.0 12:42.0 13:278.0 
-0.32692865258721443 1:13.0 2:8.0 3:0.0 4:0.0 5:0.0 6:0.0 7:0.0 8:0.0 9:0.0 10:6.0 11:1.0 12:1.0 13:15.0 
-0.33968648544075736 1:4.0 2:4.0 3:0.0 4:0.0 5:0.0 6:0.0 7:0.0 8:0.0 9:0.0 10:9.0 11:1.0 12:0.0 13:32.0 
-0.31439449466468805 1:2.0 2:1.0 3:0.0 4:0.0 5:0.0 6:0.0 7:0.0 8:0.0 9:0.0 10:14.0 11:4.0 12:0.0 13:1.0 
-0.31993897308751174 1:1.0 2:1.0 3:0.0 4:0.0 5:0.0 6:0.0 7:0.0 8:0.0 9:0.0 10:17.0 11:1.0 12:4.0 13:7.0 
-0.3515973589964656 1:2.0 2:1.0 3:1.0 4:0.0 5:0.0 6:0.0 7:0.0 8:0.0 9:0.0 10:6.0 11:3.0 12:3.0 13:46.0 
-0.3404676376058166 1:6.0 2:6.0 3:0.0 4:0.0 5:0.0 6:0.0 7:0.0 8:0.0 9:0.0 10:6.0 11:1.0 12:64.0 13:943.0 
-0.3433219369856697 1:1.0 2:1.0 3:0.0 4:0.0 5:0.0 6:0.0 7:0.0 8:0.0 9:0.0 10:4.0 11:3.0 12:4.0 13:12.0 
-0.3405166787196484 1:14.0 2:9.0 3:0.0 4:0.0 5:0.0 6:0.0 7:0.0 8:0.0 9:0.0 10:8.0 11:1.0 12:3.0 13:64.0 
-0.34059393940356564 1:17.0 2:1.0 3:0.0 4:0.0 5:0.0 6:0.0 7:0.0 8:0.0 9:0.0 10:4.0 11:5.0 12:1.0 13:12.0 
-0.3404673092180123 1:22.0 2:1.0 3:0.0 4:0.0 5:0.0 6:0.0 7:0.0 8:0.0 9:0.0 10:10.0 11:1.0 12:2.0 13:92.0 
-0.3403007830786567 1:13.0 2:8.0 3:0.0 4:0.0 5:0.0 6:0.0 7:0.0 8:0.0 9:0.0 10:19.0 11:1.0 12:5.0 13:289.0 
-0.3397206008596455 1:2.0 2:1.0 3:0.0 4:0.0 5:0.0 6:1.0 7:0.0 8:0.0 9:0.0 10:24.0 11:4.0 12:7.0 13:171.0 
-0.3238470673046993 1:1.0 2:1.0 3:0.0 4:0.0 5:0.0 6:1.0 7:0.0 8:0.0 9:0.0 10:24.0 11:1.0 12:130.0 13:171.0 
-0.3000853862360142 1:1.0 2:1.0 3:0.0 4:0.0 5:0.0 6:0.0 7:0.0 8:0.0 9:0.0 10:10.0 11:1.0 12:81.0 13:92.0 
-0.3392109948517377 1:8.0 2:7.0 3:0.0 4:0.0 5:0.0 6:0.0 7:0.0 8:0.0 9:0.0 10:5.0 11:2.0 12:1.0 13:9.0 
-0.34083825394591355 1:2.0 2:1.0 3:0.0 4:0.0 5:0.0 6:0.0 7:0.0 8:0.0 9:0.0 10:10.0 11:3.0 12:1.0 13:12.0 
-0.34159231863909206 1:23.0 2:12.0 3:1.0 4:0.0 5:0.0 6:0.0 7:0.0 8:0.0 9:0.0 10:6.0 11:1.0 12:1.0 13:36.0 
-0.3401184974351354 1:13.0 2:8.0 3:0.0 4:0.0 5:0.0 6:0.0 7:0.0 8:0.0 9:0.0 10:15.0 11:6.0 12:3.0 13:36.0 
-0.3403227218601225 1:7.0 2:6.0 3:0.0 4:0.0 5:0.0 6:0.0 7:0.0 8:0.0 9:0.0 10:17.0 11:4.0 12:20.0 13:114.0 
-0.34063514321347577 1:1.0 2:1.0 3:0.0 4:0.0 5:0.0 6:0.0 7:0.0 8:0.0 9:0.0 10:13.0 11:8.0 12:2.0 13:17.0 
-0.3403085310156611 1:12.0 2:1.0 3:0.0 4:0.0 5:0.0 6:0.0 7:0.0 8:0.0 9:0.0 10:25.0 11:10.0 12:1.0 13:7.0 
-0.3405368971804557 1:1.0 2:1.0 3:0.0 4:0.0 5:0.0 6:0.0 7:0.0 8:0.0 9:0.0 10:37.0 11:2.0 12:1.0 13:3.0 
-0.3400743021522939 1:2.0 2:5.0 3:0.0 4:0.0 5:0.0 6:0.0 7:0.0 8:0.0 9:0.0 10:3.0 11:7.0 12:2.0 13:1195.0 
-0.34022746640916035 1:2.0 2:4.0 3:0.0 4:0.0 5:0.0 6:0.0 7:0.0 8:0.0 9:0.0 10:7.0 11:3.0 12:1.0 13:43.0 
-0.34043797995290975 1:14.0 2:9.0 3:0.0 4:0.0 5:0.0 6:0.0 7:0.0 8:0.0 9:0.0 10:8.0 11:2.0 12:3.0 13:776.0 
-0.3001803772275145 1:14.0 2:9.0 3:0.0 4:0.0 5:0.0 6:0.0 7:0.0 8:0.0 9:0.0 10:9.0 11:1.0 12:1.0 13:2.0 
-0.3401486847278351 1:5.0 2:1.0 3:0.0 4:0.0 5:0.0 6:0.0 7:0.0 8:0.0 9:0.0 10:13.0 11:3.0 12:0.0 13:12.0 
-0.34050689730990996 1:5.0 2:1.0 3:0.0 4:0.0 5:0.0 6:0.0 7:0.0 8:0.0 9:0.0 10:23.0 11:13.0 12:3.0 13:475.0 
-0.34035046422504556 1:14.0 2:1.0 3:0.0 4:0.0 5:0.0 6:0.0 7:0.0 8:0.0 9:0.0 10:25.0 11:1.0 12:0.0 13:7.0 
-0.3400212180195427 1:7.0 2:13.0 3:0.0 4:0.0 5:0.0 6:0.0 7:0.0 8:1.0 9:0.0 10:1.0 11:2.0 12:5.0 13:1599.0 
-0.3400518153934771 1:2.0 2:4.0 3:0.0 4:0.0 5:0.0 6:0.0 7:0.0 8:0.0 9:0.0 10:9.0 11:6.0 12:1.0 13:1.0 
-0.3142262778260455 1:17.0 2:5.0 3:0.0 4:0.0 5:0.0 6:0.0 7:0.0 8:0.0 9:0.0 10:20.0 11:11.0 12:1.0 13:48.0 
-0.3397134061019189 1:14.0 2:9.0 3:0.0 4:0.0 5:0.0 6:0.0 7:0.0 8:0.0 9:0.0 10:4.0 11:5.0 12:1.0 13:174.0 
-0.34016574725754556 1:15.0 2:15.0 3:0.0 4:0.0 5:0.0 6:0.0 7:0.0 8:0.0 9:0.0 10:9.0 11:4.0 12:1.0 13:1479.0 
-0.34010044206533874 1:7.0 2:4.0 3:0.0 4:0.0 5:0.0 6:0.0 7:0.0 8:0.0 9:0.0 10:7.0 11:2.0 12:1.0 13:10.0 
-0.34059651187184337 1:17.0 2:1.0 3:1.0 4:0.0 5:0.0 6:0.0 7:0.0 8:0.0 9:0.0 10:35.0 11:26.0 12:1.0 13:25.0 
-0.3404966899831194 1:2.0 2:4.0 3:0.0 4:0.0 5:0.0 6:0.0 7:0.0 8:0.0 9:0.0 10:3.0 11:6.0 12:1.0 13:9.0 
-0.13923178564045371 1:4.0 2:4.0 3:0.0 4:0.0 5:0.0 6:0.0 7:0.0 8:0.0 9:0.0 10:13.0 11:1.0 12:1.0 13:2.0 
-0.3404661357847213 1:1.0 2:4.0 3:0.0 4:0.0 5:0.0 6:0.0 7:0.0 8:0.0 9:0.0 10:12.0 11:2.0 12:38.0 13:127.0 
-0.3142204052460194 1:17.0 2:5.0 3:0.0 4:0.0 5:1.0 6:0.0 7:0.0 8:0.0 9:0.0 10:20.0 11:11.0 12:3.0 13:48.0 
-0.3398648391877607 1:5.0 2:13.0 3:0.0 4:0.0 5:0.0 6:0.0 7:0.0 8:0.0 9:0.0 10:23.0 11:1.0 12:94.0 13:1599.0 
-0.34015456218888424 1:2.0 2:1.0 3:0.0 4:0.0 5:0.0 6:0.0 7:0.0 8:0.0 9:0.0 10:44.0 11:2.0 12:0.0 13:6.0 
-0.34014356771603177 1:4.0 2:4.0 3:0.0 4:0.0 5:0.0 6:0.0 7:0.0 8:0.0 9:0.0 10:30.0 11:1.0 12:12.0 13:157.0 
-0.3403912018239433 1:13.0 2:8.0 3:0.0 4:0.0 5:0.0 6:0.0 7:0.0 8:0.0 9:0.0 10:32.0 11:1.0 12:5.0 13:289.0 
-0.3400572964370111 1:2.0 2:1.0 3:1.0 4:0.0 5:0.0 6:0.0 7:0.0 8:0.0 9:0.0 10:35.0 11:2.0 12:1.0 13:25.0 
-0.34065949795125494 1:12.0 2:1.0 3:0.0 4:0.0 5:0.0 6:1.0 7:0.0 8:0.0 9:0.0 10:20.0 11:8.0 12:49.0 13:198.0 
-0.34035040319725535 1:11.0 2:1.0 3:0.0 4:0.0 5:0.0 6:0.0 7:0.0 8:0.0 9:0.0 10:31.0 11:3.0 12:31.0 13:136.0 
-0.3403368003631791 1:1.0 2:1.0 3:0.0 4:0.0 5:0.0 6:0.0 7:0.0 8:0.0 9:0.0 10:31.0 11:1.0 12:33.0 13:136.0 
-0.3404250927695712 1:5.0 2:6.0 3:0.0 4:0.0 5:0.0 6:0.0 7:0.0 8:0.0 9:0.0 10:16.0 11:1.0 12:23.0 13:122.0 
-0.3403227218601226 1:13.0 2:8.0 3:0.0 4:0.0 5:0.0 6:0.0 7:0.0 8:0.0 9:0.0 10:34.0 11:1.0 12:44.0 13:289.0 
-0.3401546545611647 1:2.0 2:3.0 3:0.0 4:1.0 5:0.0 6:0.0 7:0.0 8:0.0 9:0.0 10:37.0 11:2.0 12:100.0 13:715.0 
-0.3402753728157815 1:23.0 2:12.0 3:0.0 4:0.0 5:0.0 6:0.0 7:0.0 8:0.0 9:0.0 10:4.0 11:1.0 12:0.0 13:3.0 
-0.3314210092135394 1:2.0 2:2.0 3:0.0 4:0.0 5:0.0 6:0.0 7:0.0 8:0.0 9:0.0 10:6.0 11:1.0 12:3.0 13:30.0 
-0.34030319909946666 1:14.0 2:9.0 3:0.0 4:0.0 5:0.0 6:0.0 7:0.0 8:1.0 9:0.0 10:1.0 11:2.0 12:7.0 13:40.0 
-0.3387253776318948 1:8.0 2:7.0 3:0.0 4:0.0 5:0.0 6:0.0 7:0.0 8:0.0 9:0.0 10:2.0 11:1.0 12:1.0 13:3.0 
-0.9004523436398691 1:1.0 2:1.0 3:0.0 4:0.0 5:0.0 6:0.0 7:0.0 8:1.0 9:0.0 10:1.0 11:1.0 12:269.0 13:475.0 
-0.3406403506804536 1:28.0 2:21.0 3:0.0 4:0.0 5:0.0 6:0.0 7:0.0 8:0.0 9:0.0 10:3.0 11:1.0 12:1.0 13:340.0 
-0.34033281594756487 1:17.0 2:1.0 3:0.0 4:0.0 5:0.0 6:0.0 7:0.0 8:1.0 9:0.0 10:1.0 11:3.0 12:3.0 13:475.0 
-0.34606288219071835 1:1.0 2:1.0 3:0.0 4:0.0 5:0.0 6:0.0 7:0.0 8:0.0 9:0.0 10:5.0 11:1.0 12:0.0 13:32.0 
-0.3402874981819634 1:2.0 2:1.0 3:1.0 4:0.0 5:0.0 6:0.0 7:0.0 8:0.0 9:0.0 10:9.0 11:1.0 12:1.0 13:26.0 
-0.34055307295072085 1:7.0 2:13.0 3:0.0 4:0.0 5:0.0 6:0.0 7:0.0 8:0.0 9:0.0 10:11.0 11:2.0 12:13.0 13:1599.0 
-0.3903684413364613 1:2.0 2:1.0 3:0.0 4:0.0 5:0.0 6:0.0 7:0.0 8:0.0 9:0.0 10:4.0 11:1.0 12:0.0 13:68.0 
-0.34015498912665515 1:7.0 2:4.0 3:1.0 4:0.0 5:0.0 6:0.0 7:0.0 8:0.0 9:0.0 10:19.0 11:2.0 12:25.0 13:195.0 
-0.3406551101460451 1:10.0 2:11.0 3:0.0 4:0.0 5:0.0 6:0.0 7:0.0 8:0.0 9:0.0 10:18.0 11:1.0 12:234.0 13:2207.0 
-0.34020052493845243 1:5.0 2:1.0 3:0.0 4:0.0 5:0.0 6:0.0 7:0.0 8:0.0 9:0.0 10:28.0 11:1.0 12:4.0 13:18.0 
-0.34021412547695873 1:10.0 2:17.0 3:0.0 4:0.0 5:0.0 6:0.0 7:0.0 8:0.0 9:0.0 10:2.0 11:3.0 12:155.0 13:830.0 
-0.3402149704117098 1:7.0 2:4.0 3:0.0 4:0.0 5:0.0 6:0.0 7:0.0 8:0.0 9:0.0 10:3.0 11:2.0 12:208.0 13:1195.0 
-0.33482464822664 1:2.0 2:1.0 3:0.0 4:0.0 5:0.0 6:0.0 7:0.0 8:0.0 9:0.0 10:11.0 11:1.0 12:7.0 13:49.0 
-0.3398710968783859 1:3.0 2:1.0 3:0.0 4:0.0 5:0.0 6:0.0 7:0.0 8:0.0 9:0.0 10:13.0 11:3.0 12:3.0 13:11.0 
-0.34009554474754466 1:13.0 2:8.0 3:0.0 4:0.0 5:0.0 6:0.0 7:0.0 8:1.0 9:0.0 10:1.0 11:1.0 12:0.0 13:1.0 
-0.34001579122905684 1:5.0 2:1.0 3:0.0 4:0.0 5:0.0 6:0.0 7:0.0 8:1.0 9:0.0 10:1.0 11:10.0 12:1.0 13:5.0 
-0.3396727931881061 1:22.0 2:1.0 3:0.0 4:0.0 5:0.0 6:0.0 7:0.0 8:0.0 9:0.0 10:16.0 11:5.0 12:1.0 13:20.0 
-0.2867684586459491 1:4.0 2:4.0 3:0.0 4:0.0 5:0.0 6:0.0 7:0.0 8:0.0 9:0.0 10:14.0 11:1.0 12:0.0 13:3.0 
-0.33975855070742755 1:7.0 2:13.0 3:0.0 4:0.0 5:0.0 6:0.0 7:0.0 8:0.0 9:0.0 10:2.0 11:5.0 12:10.0 13:510.0 
-0.34057226459180573 1:1.0 2:1.0 3:0.0 4:0.0 5:0.0 6:0.0 7:0.0 8:1.0 9:0.0 10:1.0 11:4.0 12:1.0 13:27.0 
-0.3409626884524196 1:13.0 2:8.0 3:0.0 4:0.0 5:0.0 6:0.0 7:0.0 8:0.0 9:0.0 10:5.0 11:1.0 12:2.0 13:3.0 
-0.3378601655760476 1:17.0 2:4.0 3:0.0 4:0.0 5:0.0 6:0.0 7:0.0 8:0.0 9:0.0 10:11.0 11:2.0 12:1.0 13:10.0 
-0.3407641689909716 1:4.0 2:4.0 3:0.0 4:0.0 5:0.0 6:0.0 7:0.0 8:0.0 9:0.0 10:11.0 11:2.0 12:1.0 13:10.0 
-0.339819172601108 1:2.0 2:1.0 3:0.0 4:0.0 5:0.0 6:0.0 7:0.0 8:0.0 9:0.0 10:35.0 11:11.0 12:77.0 13:629.0 
-0.3404795825300133 1:5.0 2:1.0 3:0.0 4:0.0 5:0.0 6:0.0 7:0.0 8:0.0 9:0.0 10:43.0 11:3.0 12:11.0 13:102.0 
-0.34040883532288746 1:2.0 2:13.0 3:0.0 4:0.0 5:0.0 6:0.0 7:0.0 8:0.0 9:0.0 10:3.0 11:1.0 12:6.0 13:1599.0 
-0.3401900155794167 1:22.0 2:1.0 3:0.0 4:0.0 5:0.0 6:0.0 7:0.0 8:0.0 9:0.0 10:2.0 11:2.0 12:1.0 13:58.0 
-0.3405389778988436 1:1.0 2:1.0 3:0.0 4:0.0 5:0.0 6:0.0 7:0.0 8:0.0 9:0.0 10:11.0 11:7.0 12:1.0 13:10.0 
-0.3400199433238971 1:17.0 2:1.0 3:1.0 4:0.0 5:0.0 6:0.0 7:0.0 8:0.0 9:0.0 10:14.0 11:10.0 12:1.0 13:96.0 
-0.3397012963959495 1:4.0 2:4.0 3:0.0 4:0.0 5:0.0 6:0.0 7:0.0 8:0.0 9:0.0 10:18.0 11:1.0 12:4.0 13:125.0 
-0.34002154384059435 1:7.0 2:13.0 3:0.0 4:0.0 5:0.0 6:0.0 7:0.0 8:0.0 9:0.0 10:5.0 11:2.0 12:140.0 13:1599.0 
-0.33998114756943315 1:12.0 2:1.0 3:0.0 4:0.0 5:0.0 6:0.0 7:0.0 8:0.0 9:0.0 10:13.0 11:3.0 12:3.0 13:475.0 
-0.3404199347009188 1:2.0 2:1.0 3:0.0 4:0.0 5:0.0 6:0.0 7:0.0 8:0.0 9:0.0 10:17.0 11:1.0 12:2.0 13:629.0 
-0.34008576617365793 1:3.0 2:15.0 3:0.0 4:0.0 5:0.0 6:0.0 7:0.0 8:0.0 9:0.0 10:18.0 11:2.0 12:2.0 13:1479.0 
-0.3202768935002293 1:2.0 2:1.0 3:0.0 4:0.0 5:0.0 6:0.0 7:0.0 8:0.0 9:0.0 10:6.0 11:1.0 12:1.0 13:1.0 
-0.3404138012085712 1:4.0 2:5.0 3:0.0 4:0.0 5:0.0 6:0.0 7:0.0 8:0.0 9:0.0 10:2.0 11:1.0 12:42.0 13:1195.0 
-0.34037926661193874 1:10.0 2:11.0 3:0.0 4:0.0 5:0.0 6:0.0 7:0.0 8:0.0 9:0.0 10:4.0 11:1.0 12:48.0 13:2207.0 
-0.3403800934783258 1:23.0 2:12.0 3:0.0 4:0.0 5:0.0 6:0.0 7:0.0 8:0.0 9:0.0 10:9.0 11:1.0 12:21.0 13:181.0 
-0.33411547802671804 1:12.0 2:1.0 3:0.0 4:0.0 5:0.0 6:0.0 7:0.0 8:0.0 9:0.0 10:5.0 11:5.0 12:1.0 13:3.0 
-0.3405624296484768 1:1.0 2:3.0 3:0.0 4:1.0 5:0.0 6:0.0 7:0.0 8:0.0 9:0.0 10:2.0 11:1.0 12:7.0 13:313.0 
-0.34001338882391446 1:17.0 2:4.0 3:1.0 4:0.0 5:0.0 6:0.0 7:0.0 8:0.0 9:0.0 10:31.0 11:22.0 12:12.0 13:195.0 
-0.34024556222281876 1:14.0 2:9.0 3:0.0 4:0.0 5:0.0 6:0.0 7:0.0 8:0.0 9:0.0 10:15.0 11:2.0 12:0.0 13:2.0 
-0.3402917899123027 1:9.0 2:1.0 3:0.0 4:0.0 5:0.0 6:0.0 7:0.0 8:0.0 9:0.0 10:16.0 11:1.0 12:1.0 13:114.0 
-0.3404747599520357 1:27.0 2:4.0 3:1.0 4:0.0 5:0.0 6:0.0 7:0.0 8:0.0 9:0.0 10:31.0 11:14.0 12:0.0 13:195.0 
-0.31217208668723867 1:1.0 2:4.0 3:0.0 4:0.0 5:0.0 6:0.0 7:0.0 8:0.0 9:0.0 10:18.0 11:1.0 12:1.0 13:5.0 
-0.3405392121929769 1:5.0 2:1.0 3:0.0 4:0.0 5:0.0 6:1.0 7:0.0 8:0.0 9:0.0 10:26.0 11:9.0 12:0.0 13:29.0 
-0.3146806082914317 1:1.0 2:4.0 3:0.0 4:0.0 5:0.0 6:0.0 7:0.0 8:0.0 9:0.0 10:17.0 11:1.0 12:1.0 13:7.0 
-0.34065790040455224 1:9.0 2:1.0 3:0.0 4:0.0 5:0.0 6:1.0 7:0.0 8:0.0 9:0.0 10:26.0 11:3.0 12:1.0 13:29.0 
-0.34152992437028734 1:2.0 2:1.0 3:0.0 4:0.0 5:0.0 6:0.0 7:0.0 8:0.0 9:0.0 10:37.0 11:1.0 12:60.0 13:278.0 
-0.34032659481744265 1:2.0 2:1.0 3:0.0 4:0.0 5:0.0 6:1.0 7:0.0 8:0.0 9:0.0 10:44.0 11:4.0 12:5.0 13:31.0 
-0.3404422092246059 1:2.0 2:2.0 3:0.0 4:0.0 5:0.0 6:0.0 7:0.0 8:0.0 9:0.0 10:26.0 11:2.0 12:1.0 13:7.0 
-0.33911495122979857 1:13.0 2:8.0 3:0.0 4:0.0 5:0.0 6:0.0 7:0.0 8:0.0 9:0.0 10:12.0 11:1.0 12:1.0 13:4.0 
-0.4385961658246055 1:4.0 2:4.0 3:0.0 4:0.0 5:0.0 6:0.0 7:0.0 8:0.0 9:0.0 10:6.0 11:1.0 12:1.0 13:3.0 
-0.3400857662763638 1:1.0 2:3.0 3:0.0 4:1.0 5:0.0 6:0.0 7:0.0 8:0.0 9:0.0 10:5.0 11:2.0 12:26.0 13:313.0 
-0.3406661450984655 1:4.0 2:13.0 3:0.0 4:0.0 5:0.0 6:0.0 7:0.0 8:0.0 9:0.0 10:18.0 11:3.0 12:149.0 13:1599.0 
-0.34045639417823637 1:13.0 2:8.0 3:0.0 4:0.0 5:0.0 6:0.0 7:0.0 8:0.0 9:0.0 10:20.0 11:1.0 12:51.0 13:405.0 
-0.31306522948672927 1:7.0 2:4.0 3:0.0 4:0.0 5:0.0 6:0.0 7:0.0 8:0.0 9:0.0 10:4.0 11:3.0 12:1.0 13:3.0 
-0.340275161706405 1:2.0 2:1.0 3:0.0 4:0.0 5:0.0 6:0.0 7:0.0 8:0.0 9:0.0 10:32.0 11:1.0 12:11.0 13:58.0 
-0.34023698458656415 1:7.0 2:5.0 3:0.0 4:0.0 5:0.0 6:0.0 7:0.0 8:0.0 9:0.0 10:5.0 11:2.0 12:0.0 13:535.0 
-0.3399909460931439 1:17.0 2:4.0 3:0.0 4:0.0 5:0.0 6:0.0 7:0.0 8:0.0 9:0.0 10:22.0 11:3.0 12:45.0 13:312.0 
-0.340142358229639 1:16.0 2:16.0 3:0.0 4:0.0 5:0.0 6:0.0 7:0.0 8:0.0 9:0.0 10:23.0 11:2.0 12:81.0 13:587.0 
-0.3406594979512547 1:4.0 2:13.0 3:0.0 4:0.0 5:0.0 6:0.0 7:0.0 8:0.0 9:0.0 10:24.0 11:1.0 12:198.0 13:1599.0 
-0.34063521038325006 1:1.0 2:1.0 3:0.0 4:0.0 5:0.0 6:0.0 7:0.0 8:0.0 9:0.0 10:20.0 11:5.0 12:57.0 13:374.0 
-0.3403265572904252 1:17.0 2:4.0 3:0.0 4:0.0 5:0.0 6:0.0 7:0.0 8:0.0 9:0.0 10:25.0 11:3.0 12:45.0 13:424.0 
-0.34065209415795683 1:13.0 2:4.0 3:0.0 4:0.0 5:0.0 6:0.0 7:0.0 8:0.0 9:0.0 10:37.0 11:1.0 12:0.0 13:3.0 
-0.34056084789223656 1:5.0 2:7.0 3:0.0 4:0.0 5:0.0 6:0.0 7:0.0 8:0.0 9:0.0 10:52.0 11:1.0 12:10.0 13:943.0 
-0.34004169709606813 1:13.0 2:1.0 3:0.0 4:0.0 5:0.0 6:0.0 7:0.0 8:0.0 9:0.0 10:45.0 11:2.0 12:1.0 13:8.0 
-0.3397653410509663 1:16.0 2:16.0 3:0.0 4:0.0 5:0.0 6:0.0 7:0.0 8:0.0 9:0.0 10:46.0 11:1.0 12:3.0 13:587.0 
-0.34019883264539913 1:2.0 2:1.0 3:0.0 4:0.0 5:0.0 6:0.0 7:0.0 8:0.0 9:0.0 10:49.0 11:2.0 12:0.0 13:77.0 
-0.339712598403332 1:12.0 2:5.0 3:0.0 4:0.0 5:0.0 6:0.0 7:0.0 8:0.0 9:0.0 10:11.0 11:2.0 12:136.0 13:1195.0 
-0.5621644814436729 1:2.0 2:1.0 3:0.0 4:0.0 5:0.0 6:1.0 7:0.0 8:0.0 9:0.0 10:15.0 11:2.0 12:2.0 13:17.0 
-0.473052965615243 1:4.0 2:4.0 3:1.0 4:0.0 5:0.0 6:0.0 7:0.0 8:0.0 9:0.0 10:22.0 11:3.0 12:1.0 13:6.0 
-0.33973236461278217 1:4.0 2:4.0 3:0.0 4:0.0 5:0.0 6:0.0 7:0.0 8:0.0 9:0.0 10:23.0 11:2.0 12:55.0 13:475.0 
-0.3402644770090139 1:4.0 2:4.0 3:0.0 4:0.0 5:0.0 6:0.0 7:0.0 8:0.0 9:0.0 10:24.0 11:1.0 12:43.0 13:392.0 
-0.3398944818829543 1:4.0 2:4.0 3:0.0 4:0.0 5:0.0 6:0.0 7:0.0 8:0.0 9:0.0 10:25.0 11:2.0 12:55.0 13:312.0 
-0.3406130752523362 1:4.0 2:4.0 3:0.0 4:0.0 5:0.0 6:0.0 7:0.0 8:0.0 9:0.0 10:25.0 11:1.0 12:43.0 13:312.0 
-0.340156162358222 1:4.0 2:5.0 3:0.0 4:0.0 5:0.0 6:0.0 7:0.0 8:0.0 9:0.0 10:32.0 11:1.0 12:1.0 13:1195.0 
-0.3405320376151994 1:1.0 2:1.0 3:0.0 4:0.0 5:0.0 6:0.0 7:0.0 8:0.0 9:0.0 10:31.0 11:2.0 12:13.0 13:475.0 
-0.3402050117239179 1:12.0 2:1.0 3:0.0 4:0.0 5:0.0 6:0.0 7:0.0 8:0.0 9:0.0 10:14.0 11:2.0 12:1.0 13:19.0 
-0.34158425516211094 1:5.0 2:1.0 3:0.0 4:0.0 5:0.0 6:1.0 7:0.0 8:0.0 9:0.0 10:8.0 11:2.0 12:3.0 13:12.0 
-0.33665782310834447 1:7.0 2:13.0 3:0.0 4:0.0 5:0.0 6:0.0 7:0.0 8:1.0 9:0.0 10:1.0 11:2.0 12:57.0 13:1170.0 
-0.3401138924317306 1:4.0 2:5.0 3:0.0 4:0.0 5:0.0 6:0.0 7:0.0 8:0.0 9:0.0 10:7.0 11:1.0 12:0.0 13:1195.0 
-0.3405965118718434 1:4.0 2:5.0 3:0.0 4:0.0 5:0.0 6:0.0 7:0.0 8:0.0 9:0.0 10:11.0 11:1.0 12:60.0 13:1195.0 
-0.3431072912274132 1:1.0 2:1.0 3:0.0 4:0.0 5:0.0 6:0.0 7:0.0 8:0.0 9:0.0 10:10.0 11:2.0 12:7.0 13:17.0 
-0.30165755694418855 1:4.0 2:4.0 3:0.0 4:0.0 5:0.0 6:0.0 7:0.0 8:0.0 9:0.0 10:17.0 11:1.0 12:1.0 13:1.0 
-0.34008430038205545 1:7.0 2:4.0 3:0.0 4:0.0 5:0.0 6:0.0 7:0.0 8:0.0 9:0.0 10:13.0 11:2.0 12:6.0 13:15.0 
-0.3409254076927783 1:2.0 2:1.0 3:0.0 4:0.0 5:0.0 6:0.0 7:0.0 8:0.0 9:0.0 10:16.0 11:1.0 12:2.0 13:33.0 
-0.3381481311373287 1:10.0 2:11.0 3:0.0 4:0.0 5:0.0 6:0.0 7:0.0 8:0.0 9:0.0 10:14.0 11:1.0 12:10.0 13:2207.0 
-0.340465816111142 1:7.0 2:4.0 3:0.0 4:0.0 5:0.0 6:0.0 7:0.0 8:0.0 9:0.0 10:15.0 11:2.0 12:6.0 13:208.0 
-0.3403274439810134 1:24.0 2:1.0 3:0.0 4:0.0 5:0.0 6:0.0 7:0.0 8:0.0 9:0.0 10:26.0 11:1.0 12:1.0 13:10.0 
-0.34030209855021687 1:4.0 2:13.0 3:0.0 4:0.0 5:0.0 6:0.0 7:0.0 8:0.0 9:0.0 10:30.0 11:1.0 12:2.0 13:510.0 
-0.3404005049197768 1:1.0 2:1.0 3:0.0 4:0.0 5:0.0 6:0.0 7:0.0 8:0.0 9:0.0 10:29.0 11:2.0 12:5.0 13:181.0 
-0.34020645234358005 1:4.0 2:4.0 3:0.0 4:0.0 5:0.0 6:0.0 7:0.0 8:0.0 9:0.0 10:7.0 11:1.0 12:6.0 13:71.0 
-0.3401401993098429 1:4.0 2:4.0 3:0.0 4:0.0 5:0.0 6:0.0 7:0.0 8:0.0 9:0.0 10:10.0 11:2.0 12:2.0 13:26.0 
-0.33810951871077577 1:13.0 2:8.0 3:0.0 4:0.0 5:0.0 6:0.0 7:0.0 8:0.0 9:0.0 10:15.0 11:3.0 12:1.0 13:8.0 
-0.34030021617929695 1:7.0 2:12.0 3:0.0 4:0.0 5:0.0 6:0.0 7:0.0 8:0.0 9:0.0 10:16.0 11:2.0 12:1.0 13:21.0 
-0.5637203874472632 1:1.0 2:1.0 3:0.0 4:0.0 5:0.0 6:0.0 7:0.0 8:0.0 9:0.0 10:8.0 11:1.0 12:3.0 13:475.0 
-0.18882681228691067 1:4.0 2:4.0 3:0.0 4:0.0 5:0.0 6:0.0 7:0.0 8:0.0 9:0.0 10:15.0 11:1.0 12:1.0 13:1.0 
-0.34015531265068105 1:26.0 2:1.0 3:0.0 4:0.0 5:0.0 6:0.0 7:0.0 8:0.0 9:0.0 10:21.0 11:5.0 12:1.0 13:1.0 
-0.3405184610976281 1:10.0 2:5.0 3:0.0 4:0.0 5:0.0 6:0.0 7:0.0 8:0.0 9:0.0 10:17.0 11:1.0 12:73.0 13:689.0 
-0.3403425640603675 1:4.0 2:13.0 3:0.0 4:0.0 5:0.0 6:0.0 7:0.0 8:0.0 9:0.0 10:31.0 11:2.0 12:231.0 13:1599.0 
-0.3401549952347785 1:23.0 2:9.0 3:0.0 4:0.0 5:0.0 6:0.0 7:0.0 8:0.0 9:0.0 10:32.0 11:1.0 12:10.0 13:66.0 
-0.3403985627816946 1:4.0 2:4.0 3:0.0 4:0.0 5:0.0 6:0.0 7:0.0 8:0.0 9:0.0 10:37.0 11:4.0 12:587.0 13:587.0 
-0.33987742104432345 1:4.0 2:4.0 3:0.0 4:0.0 5:0.0 6:0.0 7:0.0 8:0.0 9:0.0 10:33.0 11:4.0 12:587.0 13:587.0 
-0.330456669844137 1:5.0 2:1.0 3:0.0 4:0.0 5:0.0 6:0.0 7:0.0 8:0.0 9:0.0 10:34.0 11:3.0 12:1.0 13:1.0 
-0.3404025210211324 1:23.0 2:12.0 3:0.0 4:0.0 5:0.0 6:0.0 7:0.0 8:0.0 9:0.0 10:35.0 11:2.0 12:2.0 13:6.0 
-0.3405138666372133 1:23.0 2:12.0 3:0.0 4:0.0 5:0.0 6:0.0 7:0.0 8:0.0 9:0.0 10:36.0 11:1.0 12:29.0 13:128.0 
-0.34033971488818454 1:2.0 2:1.0 3:0.0 4:0.0 5:0.0 6:0.0 7:0.0 8:0.0 9:0.0 10:49.0 11:12.0 12:37.0 13:248.0 
-0.3401016718073588 1:1.0 2:1.0 3:0.0 4:0.0 5:0.0 6:0.0 7:0.0 8:0.0 9:0.0 10:32.0 11:1.0 12:1.0 13:32.0 
-0.33981330984367464 1:1.0 2:1.0 3:0.0 4:0.0 5:0.0 6:0.0 7:0.0 8:0.0 9:0.0 10:40.0 11:2.0 12:1.0 13:9.0 
-0.337893341903855 1:13.0 2:8.0 3:0.0 4:0.0 5:0.0 6:0.0 7:0.0 8:0.0 9:0.0 10:17.0 11:1.0 12:2.0 13:9.0 
-0.3303394275817293 1:1.0 2:1.0 3:0.0 4:0.0 5:0.0 6:0.0 7:0.0 8:0.0 9:0.0 10:16.0 11:2.0 12:5.0 13:9.0 
-0.3406352076454587 1:4.0 2:4.0 3:0.0 4:0.0 5:0.0 6:0.0 7:0.0 8:0.0 9:0.0 10:24.0 11:1.0 12:0.0 13:157.0 
-0.3404704316313826 1:13.0 2:8.0 3:0.0 4:0.0 5:0.0 6:0.0 7:0.0 8:0.0 9:0.0 10:28.0 11:1.0 12:3.0 13:9.0 
-0.339981466378043 1:1.0 2:1.0 3:0.0 4:0.0 5:0.0 6:0.0 7:0.0 8:0.0 9:0.0 10:26.0 11:3.0 12:8.0 13:20.0 
-0.3403418257893869 1:4.0 2:4.0 3:0.0 4:0.0 5:0.0 6:0.0 7:0.0 8:0.0 9:0.0 10:5.0 11:1.0 12:3.0 13:148.0 
-0.3300453509029852 1:2.0 2:1.0 3:0.0 4:0.0 5:0.0 6:1.0 7:0.0 8:0.0 9:0.0 10:3.0 11:1.0 12:0.0 13:17.0 
-0.3405068973098982 1:24.0 2:1.0 3:0.0 4:0.0 5:0.0 6:0.0 7:0.0 8:0.0 9:0.0 10:9.0 11:1.0 12:0.0 13:18.0 
-0.34044084650136974 1:13.0 2:8.0 3:0.0 4:0.0 5:0.0 6:0.0 7:0.0 8:0.0 9:0.0 10:17.0 11:1.0 12:26.0 13:289.0 
-0.34052536513632575 1:2.0 2:1.0 3:0.0 4:0.0 5:0.0 6:0.0 7:0.0 8:0.0 9:0.0 10:20.0 11:2.0 12:7.0 13:198.0 
-0.3397589310944429 1:4.0 2:4.0 3:0.0 4:0.0 5:0.0 6:0.0 7:0.0 8:0.0 9:0.0 10:26.0 11:1.0 12:6.0 13:6.0 
-0.3406219277527824 1:1.0 2:1.0 3:0.0 4:0.0 5:0.0 6:0.0 7:0.0 8:0.0 9:0.0 10:25.0 11:2.0 12:4.0 13:113.0 
-0.340652748574073 1:4.0 2:4.0 3:0.0 4:0.0 5:0.0 6:0.0 7:0.0 8:0.0 9:0.0 10:27.0 11:1.0 12:6.0 13:41.0 
-0.34020603384450054 1:1.0 2:1.0 3:0.0 4:0.0 5:0.0 6:0.0 7:0.0 8:0.0 9:0.0 10:32.0 11:1.0 12:81.0 13:475.0 
-0.33029611818502397 1:13.0 2:8.0 3:0.0 4:0.0 5:0.0 6:0.0 7:0.0 8:0.0 9:0.0 10:5.0 11:3.0 12:2.0 13:14.0 
-0.3402060753426931 1:7.0 2:8.0 3:0.0 4:0.0 5:0.0 6:0.0 7:0.0 8:0.0 9:0.0 10:6.0 11:2.0 12:56.0 13:271.0 
-0.340354511416262 1:10.0 2:1.0 3:0.0 4:0.0 5:0.0 6:0.0 7:0.0 8:0.0 9:0.0 10:14.0 11:1.0 12:192.0 13:830.0 
-0.33405262597606755 1:11.0 2:1.0 3:0.0 4:0.0 5:0.0 6:0.0 7:0.0 8:0.0 9:0.0 10:16.0 11:1.0 12:0.0 13:0.0 
-0.33985132198813983 1:23.0 2:1.0 3:0.0 4:0.0 5:0.0 6:0.0 7:0.0 8:1.0 9:0.0 10:1.0 11:1.0 12:3.0 13:9.0 
-0.20728563888338106 1:2.0 2:1.0 3:0.0 4:0.0 5:0.0 6:0.0 7:0.0 8:0.0 9:0.0 10:4.0 11:2.0 12:1.0 13:3.0 
-0.340252951079357 1:13.0 2:4.0 3:0.0 4:0.0 5:0.0 6:0.0 7:0.0 8:0.0 9:0.0 10:11.0 11:1.0 12:0.0 13:9.0 
-0.32744020662482676 1:4.0 2:4.0 3:0.0 4:0.0 5:0.0 6:0.0 7:0.0 8:1.0 9:0.0 10:1.0 11:1.0 12:1.0 13:13.0 
-0.34058613012991523 1:2.0 2:1.0 3:0.0 4:1.0 5:0.0 6:0.0 7:0.0 8:0.0 9:0.0 10:4.0 11:2.0 12:9.0 13:198.0 
-0.4618187732240947 1:4.0 2:4.0 3:0.0 4:0.0 5:0.0 6:0.0 7:0.0 8:0.0 9:0.0 10:22.0 11:1.0 12:2.0 13:2.0 
-0.3402744379596761 1:1.0 2:1.0 3:0.0 4:0.0 5:0.0 6:0.0 7:0.0 8:0.0 9:0.0 10:21.0 11:2.0 12:5.0 13:30.0 
-0.34046730922070934 1:7.0 2:6.0 3:0.0 4:0.0 5:0.0 6:0.0 7:0.0 8:0.0 9:0.0 10:42.0 11:2.0 12:5.0 13:122.0 
-0.3403085309201583 1:2.0 2:1.0 3:0.0 4:0.0 5:0.0 6:0.0 7:0.0 8:0.0 9:0.0 10:46.0 11:2.0 12:6.0 13:102.0 
-0.3401552637293151 1:1.0 2:1.0 3:0.0 4:0.0 5:0.0 6:0.0 7:0.0 8:0.0 9:0.0 10:52.0 11:2.0 12:23.0 13:1752.0 
-0.3397012964306772 1:23.0 2:12.0 3:0.0 4:0.0 5:0.0 6:0.0 7:0.0 8:0.0 9:0.0 10:54.0 11:1.0 12:9.0 13:47.0 
-0.33975680324800517 1:1.0 2:1.0 3:0.0 4:0.0 5:0.0 6:0.0 7:0.0 8:0.0 9:0.0 10:12.0 11:1.0 12:21.0 13:80.0 
-0.3239128480732546 1:13.0 2:8.0 3:0.0 4:0.0 5:0.0 6:0.0 7:0.0 8:0.0 9:0.0 10:9.0 11:1.0 12:4.0 13:6.0 
-0.3406100561988877 1:5.0 2:1.0 3:0.0 4:0.0 5:0.0 6:0.0 7:3.0 8:0.0 9:0.0 10:22.0 11:12.0 12:2.0 13:15.0 
-0.3397041839618016 1:7.0 2:13.0 3:0.0 4:0.0 5:0.0 6:0.0 7:0.0 8:0.0 9:0.0 10:11.0 11:2.0 12:7.0 13:1599.0 
-0.34005913839305946 1:2.0 2:1.0 3:0.0 4:0.0 5:0.0 6:0.0 7:0.0 8:0.0 9:0.0 10:22.0 11:9.0 12:1.0 13:15.0 
-0.33395674665850716 1:9.0 2:1.0 3:0.0 4:0.0 5:0.0 6:0.0 7:0.0 8:0.0 9:0.0 10:17.0 11:2.0 12:1.0 13:1.0 
-0.43628269990225527 1:1.0 2:1.0 3:0.0 4:0.0 5:0.0 6:0.0 7:0.0 8:0.0 9:0.0 10:17.0 11:1.0 12:1.0 13:1.0 
-0.3402168853808208 1:8.0 2:7.0 3:0.0 4:0.0 5:0.0 6:0.0 7:0.0 8:0.0 9:0.0 10:23.0 11:2.0 12:44.0 13:425.0 
-0.34001994317242834 1:8.0 2:7.0 3:0.0 4:0.0 5:0.0 6:0.0 7:0.0 8:0.0 9:0.0 10:24.0 11:1.0 12:6.0 13:35.0 
-0.3415924672819253 1:1.0 2:1.0 3:0.0 4:0.0 5:0.0 6:0.0 7:0.0 8:0.0 9:0.0 10:22.0 11:3.0 12:5.0 13:15.0 
-0.3403432907484947 1:10.0 2:17.0 3:0.0 4:0.0 5:0.0 6:0.0 7:0.0 8:0.0 9:0.0 10:28.0 11:26.0 12:1.0 13:69.0 
-0.34026447694677264 1:5.0 2:1.0 3:0.0 4:0.0 5:0.0 6:0.0 7:0.0 8:0.0 9:0.0 10:30.0 11:24.0 12:2.0 13:629.0 
-0.34063188523069277 1:8.0 2:7.0 3:0.0 4:0.0 5:0.0 6:0.0 7:0.0 8:0.0 9:0.0 10:38.0 11:16.0 12:1.0 13:14.0 
-0.33050621454426016 1:12.0 2:1.0 3:0.0 4:0.0 5:0.0 6:0.0 7:0.0 8:0.0 9:0.0 10:41.0 11:13.0 12:2.0 13:88.0 
-0.34047045373613555 1:11.0 2:1.0 3:0.0 4:0.0 5:0.0 6:0.0 7:0.0 8:0.0 9:0.0 10:55.0 11:1.0 12:1.0 13:55.0 
-0.3405153031628451 1:8.0 2:7.0 3:0.0 4:0.0 5:0.0 6:0.0 7:0.0 8:0.0 9:0.0 10:32.0 11:1.0 12:1.0 13:425.0 
-0.3403189478749116 1:15.0 2:15.0 3:0.0 4:0.0 5:0.0 6:0.0 7:0.0 8:0.0 9:0.0 10:31.0 11:5.0 12:14.0 13:1479.0 
-0.33891818188055844 1:8.0 2:4.0 3:0.0 4:0.0 5:0.0 6:0.0 7:0.0 8:0.0 9:0.0 10:33.0 11:3.0 12:1.0 13:1.0 
-0.3399608326397991 1:14.0 2:9.0 3:0.0 4:0.0 5:0.0 6:0.0 7:0.0 8:0.0 9:0.0 10:34.0 11:2.0 12:2.0 13:190.0 
-0.3403792666119387 1:25.0 2:9.0 3:0.0 4:1.0 5:0.0 6:0.0 7:0.0 8:0.0 9:0.0 10:35.0 11:1.0 12:21.0 13:1695.0 
-0.340215395088978 1:22.0 2:1.0 3:0.0 4:0.0 5:0.0 6:0.0 7:0.0 8:0.0 9:0.0 10:30.0 11:6.0 12:7.0 13:629.0 
-0.34066614509846554 1:9.0 2:1.0 3:0.0 4:0.0 5:0.0 6:0.0 7:0.0 8:0.0 9:0.0 10:49.0 11:3.0 12:7.0 13:776.0 
-0.34065790560626596 1:8.0 2:7.0 3:0.0 4:0.0 5:0.0 6:0.0 7:0.0 8:0.0 9:0.0 10:50.0 11:1.0 12:1.0 13:425.0 
-0.3402921107658302 1:1.0 2:1.0 3:0.0 4:0.0 5:0.0 6:0.0 7:0.0 8:0.0 9:0.0 10:49.0 11:2.0 12:1.0 13:776.0 
-0.340111338767756 1:17.0 2:4.0 3:0.0 4:0.0 5:0.0 6:0.0 7:0.0 8:0.0 9:0.0 10:57.0 11:3.0 12:1.0 13:5.0 
-0.34032422954215086 1:16.0 2:16.0 3:0.0 4:1.0 5:0.0 6:0.0 7:0.0 8:0.0 9:0.0 10:59.0 11:1.0 12:27.0 13:213.0 
-0.34046760027144474 1:1.0 2:1.0 3:0.0 4:0.0 5:0.0 6:0.0 7:0.0 8:0.0 9:0.0 10:55.0 11:5.0 12:12.0 13:55.0 
-0.34033812125856905 1:7.0 2:4.0 3:0.0 4:0.0 5:0.0 6:0.0 7:0.0 8:0.0 9:0.0 10:11.0 11:2.0 12:2.0 13:43.0 
-0.33973593890690346 1:2.0 2:1.0 3:0.0 4:0.0 5:0.0 6:0.0 7:0.0 8:0.0 9:0.0 10:21.0 11:8.0 12:0.0 13:248.0 
-0.340321762616803 1:4.0 2:4.0 3:0.0 4:0.0 5:0.0 6:0.0 7:0.0 8:0.0 9:0.0 10:17.0 11:1.0 12:8.0 13:19.0 
-0.3404381617361844 1:1.0 2:1.0 3:0.0 4:0.0 5:0.0 6:0.0 7:0.0 8:0.0 9:0.0 10:21.0 11:4.0 12:1.0 13:248.0 
-0.33967875626147165 1:7.0 2:4.0 3:0.0 4:0.0 5:0.0 6:0.0 7:0.0 8:0.0 9:0.0 10:29.0 11:2.0 12:1.0 13:3.0 
-0.3406658194634322 1:1.0 2:1.0 3:0.0 4:0.0 5:0.0 6:0.0 7:0.0 8:0.0 9:0.0 10:28.0 11:3.0 12:1.0 13:43.0 
-0.34013525665863903 1:7.0 2:4.0 3:0.0 4:0.0 5:0.0 6:0.0 7:0.0 8:0.0 9:0.0 10:9.0 11:4.0 12:1.0 13:6.0 
-0.34051667871964836 1:4.0 2:5.0 3:0.0 4:0.0 5:0.0 6:0.0 7:0.0 8:0.0 9:0.0 10:14.0 11:2.0 12:70.0 13:1195.0 
-0.23313825161264135 1:4.0 2:4.0 3:0.0 4:0.0 5:0.0 6:0.0 7:0.0 8:0.0 9:0.0 10:15.0 11:1.0 12:2.0 13:2.0 
-0.34186997804453984 1:7.0 2:4.0 3:0.0 4:0.0 5:0.0 6:0.0 7:0.0 8:0.0 9:0.0 10:18.0 11:2.0 12:1.0 13:6.0 
-0.34052473791771065 1:10.0 2:11.0 3:0.0 4:0.0 5:0.0 6:0.0 7:0.0 8:0.0 9:0.0 10:17.0 11:1.0 12:95.0 13:2207.0 
-0.3188049843056073 1:7.0 2:4.0 3:0.0 4:0.0 5:0.0 6:0.0 7:0.0 8:0.0 9:0.0 10:5.0 11:2.0 12:1.0 13:1.0 
-0.34016129550264995 1:10.0 2:11.0 3:0.0 4:0.0 5:0.0 6:0.0 7:0.0 8:0.0 9:0.0 10:4.0 11:1.0 12:4.0 13:2207.0 
-0.33971868548037537 1:7.0 2:4.0 3:0.0 4:0.0 5:0.0 6:0.0 7:0.0 8:0.0 9:0.0 10:16.0 11:2.0 12:1.0 13:154.0 
-0.29800541466462394 1:1.0 2:1.0 3:0.0 4:0.0 5:0.0 6:0.0 7:0.0 8:0.0 9:0.0 10:13.0 11:5.0 12:1.0 13:1.0 
-0.34008468084876103 1:1.0 2:1.0 3:0.0 4:0.0 5:0.0 6:0.0 7:0.0 8:0.0 9:0.0 10:28.0 11:1.0 12:10.0 13:181.0 
-0.3403245284521371 1:1.0 2:1.0 3:0.0 4:0.0 5:0.0 6:0.0 7:0.0 8:0.0 9:0.0 10:2.0 11:1.0 12:3.0 13:19.0 
-0.340468687629646 1:1.0 2:1.0 3:0.0 4:0.0 5:0.0 6:1.0 7:0.0 8:0.0 9:0.0 10:22.0 11:1.0 12:80.0 13:475.0 
-0.3401606275925815 1:17.0 2:1.0 3:0.0 4:0.0 5:0.0 6:0.0 7:0.0 8:0.0 9:0.0 10:2.0 11:4.0 12:5.0 13:19.0 
-0.3401954073866384 1:14.0 2:9.0 3:0.0 4:0.0 5:0.0 6:0.0 7:0.0 8:0.0 9:0.0 10:7.0 11:1.0 12:8.0 13:33.0 
-0.3403555642600689 1:14.0 2:9.0 3:0.0 4:0.0 5:0.0 6:0.0 7:0.0 8:0.0 9:0.0 10:12.0 11:1.0 12:16.0 13:128.0 
-0.3402875948415024 1:14.0 2:9.0 3:0.0 4:0.0 5:0.0 6:0.0 7:0.0 8:0.0 9:0.0 10:6.0 11:1.0 12:6.0 13:16.0 
-0.21182082957444665 1:2.0 2:1.0 3:0.0 4:0.0 5:0.0 6:0.0 7:0.0 8:0.0 9:0.0 10:8.0 11:1.0 12:269.0 13:475.0 
-0.3303868444985283 1:8.0 2:7.0 3:0.0 4:0.0 5:0.0 6:0.0 7:0.0 8:0.0 9:0.0 10:17.0 11:2.0 12:2.0 13:10.0 
-0.33961893835797713 1:1.0 2:1.0 3:0.0 4:0.0 5:0.0 6:0.0 7:0.0 8:0.0 9:0.0 10:15.0 11:4.0 12:5.0 13:17.0 
-0.3401890776866994 1:1.0 2:1.0 3:0.0 4:0.0 5:0.0 6:0.0 7:0.0 8:0.0 9:0.0 10:39.0 11:2.0 12:5.0 13:6.0 
-0.3403168212247164 1:10.0 2:17.0 3:0.0 4:0.0 5:0.0 6:0.0 7:0.0 8:0.0 9:0.0 10:2.0 11:1.0 12:1.0 13:113.0 
